tree
version=v4
num_class=1
num_tree_per_iteration=1
label_index=0
max_feature_idx=15
objective=quantile
feature_names=Column_0 Column_1 Column_2 Column_3 Column_4 Column_5 Column_6 Column_7 Column_8 Column_9 Column_10 Column_11 Column_12 Column_13 Column_14 Column_15
feature_infos=[26653000:123945000000] [-8761000:54855000000] [-2053000000:41488000000] [-6302000000:34630000000] [-0.17485629889829155:0.87136844266502411] [-3.9836040970997635:0.47587451563246458] [-3.962143098337898:0.45247920206545006] [0.7329101505880633:4.4928622067084438] [0:0.51188676890223028] [-2535000000:44163000000] [-4.5873635238059505:0.50812891365542601] [0.07602826373788743:0.71758199847444704] [-0.54181636898110741:17.622733450459112] [-29.310448852728769:9.9807692307692299] [-2.9738397815473405:3.9587114059493187] [-2.9495595085766766:3.8868553575871929]
tree_sizes=315 327 326 412 327 328 326 324 327 327 410 414 326 415 325 327 414 413 404 415 417 411 412 317 411 329 328 414 328 416 325 327 413 415 327 329 326 416 328 413 415 328 317 420 326 327 317 330 414 413 408 416 327 329 410 415 328 417 402 331 414 327 411 412 414 413 415 413 418 408 412 324 417 394 415 396 413 326 411 408 321 329 413 403 329 330 415 325 325 329 330 410 411 417 414 409 413 415 413 415 420 421 417 334 330 409 317 317 327 408 328 414 404 328 414 319 416 416 420 330 326 414 331 330 415 414 319 327 417 415 418 419 414 406 413 327 421 330 417 414 417 326 417 330 333 416 326 329 417 412 328 421 330 332 418 330 420 419 407 330 330 332 415 419 421 331 410 328 416 417 417 407 420 328 410 329 332 417 331 416 328 334 330 332 332 415 330 415 417 330 420 417 415 418 419 332 416 331 421 329 409 331 420 330 330 414 330 417 415 414 330 414 328 413 325 331 328 418 417 333 420 332 332 409 417 330 418 417 415 329 329 331 420 333 418 419 413 423 328 327 331 419 330 416 420 417 331 415 331 321 420 420 417 416 331 330 331 332 419 327 421 331 422 330 329 328 416 327 418 330 327 421 417 419 333 417 330 415 417 415 328 421 416 417 418 333 329 327 330 418 420 411 331 329 409 420 328 331 416 418 415 417 420 409 331 417 412 330 331 417 414 331 321 330 417 419 425 407 332 331 331 420 332 417 327 416 415 330 334 331 419 419 416 331 331 415 327 331 415 331 329 333 329 331 414 333 333 331 415 410 419 417 333 334 419 333 420 331 416 421 327 416 330 415 328 328 332 415 416 333 418 330 331 420 416 419 330 419 332 331 417 412 331 332 331 414 418 415 408 321 416 327 414 335 328 414 329 415 331 415 329 417 330 420 332 407 328 422 417 331 416 331 329 330 417 328 420 333 416 419 412 329 418 410 329 419 415 330 416 415 416 331 416 416 417 331 417 331 331 417 418 409 333 416 330 319 328 416 415 332 418 417 328 333 331 417 328 415 331 415 406 330 414 331 419 418 415 418 417 324 416 417 331 416 332 423 325 417 413 419 320 408 332 416 421 411 328 413 331 330 406 420 329 420 331 414 331 419 418 332 417 417 419 332 419 322 333 414 414 330 414 330 416 328 329 333 421 419 332 416 412 332 419 330 319 333 330 413 419 416 332 331 416 414 405 417 418 331 421 332 332 418 407 414 421 419 331 409 334 417 330 409 418 418 333 417 423 331 421 415 335 422 416 422 332 420 331 333 408 332 417 417 420 417 417 420 412 414 330 415 323 419 415 420 415 332 418 419 422 334 331 420 332 328 330 334 418 334 415 332 413 415 333 417 331 334 417 413 331 327 419 417 333 417 333 414 415 320 333 421 321 416 415 416 420 417 406 408 416 331 320 419 329 332 331 331 331 407 418 333 417 329 415 412 328 330 328 418 329 414 414 329 329 415 415 319 329 331 323 417 331 330 330 329 419 331 330 414 415 413 335 332 412 418 329 421 330 420 329 331 330 333 420 329 416 415 330 418 332 332 332 331 397 327 322 330 422 410 333 418 333 420 421 422 334 419 409 419 417 408 417 417 331 418 329 330 334 418 420 332 419 332 330 414 332 412 421 417 418 416 415 413 332 413 414 420 331 423 415 331 318 333 418 423 323 332 329 416 416 413 331 324 405 330 420 330 420 415 331 331 328 330 412 419 319 415 329 333 327 420 332 330 321 329 327 330 330 329 328 330 419 326 415 410 420 331 332 414 404 331 411 329 328 417 406 330 414 424 414 415 419 331 417 329 418 332 421 331 329 418 331 417 416 416 416 331 415 329 421 414 414 422 331 416 332 330 329 331 329 417 322 421 410 423 329 334 419 406 417 417 330 412 416 330 330 420 418 329 332 415 331 330 417 420 406 419 330 332 332 421 330 416 331 330 414 330 331 415 419 412 333 409 407 407 415 332 334 419 331 332 417 332 331 416 420 333 419 411 330 415 411 417 331 418 414 332 415 414 415 420 318 415 331 331 420 329 419 417 415 417 416 417 413 419 332 333 421 334 418 405 406 331 333 416 418 420 409 330 418 333 331 417 416 332 333 414 417 320 329 419 403 416 417 420 416 330 331 418 330 330 333 335 333 418 415 422 419 420 330 417 330 418 421 331 414 421 332 331 416 411 403 419 419 411 420 416 333 414 417 414 415 331 331 418 415 331 406 409 413 416 418 419 407 330 330 331 423 330 333 419 415 411 328 330 415 420 419 408 320 421 331 331 418 420 330 420 422 416 417 333 416 331 330 331 334 415 418 331 332 420 417 333 419 418 414 420 420 417 419 334 333 335 327 416 335 331 420 415 415 418 330 331 419 418 419 416 332 421 422 419 418 404 410 331 323 415 417 330 330 417 407 418 405 333 418 421 422 332 418 418 416 416 418 418 419 420 329 333 419 417 334 416 330 336 327 331 415 420 415 335 423 407 329 423 420 418 329 410 334 419 405 424 332 414 330 420 329 330 418 416 335 331 331 321 415 335 422 419 417 416 325 415 419 331 408 409 422 414 422 332 414 333 328 417 417 418 418 418 332 422 415 329 333 408 335 418 421 417 419 412 416 417 331 331 414 417 333 334 415 330 415 331 321 422 415 332 421 322 331 330 415 418 331 422 419 415 331 417 332 420 331 333 418 418 333 416 420 420 334 330

Tree=0
num_leaves=2
num_cat=0
split_feature=4
split_gain=3.22165
threshold=0.42227260715215115
decision_type=2
left_child=-1
right_child=-2
leaf_value=0.25556525215506554 0.24670836366713048
leaf_weight=84 70
leaf_count=84 70
internal_value=0.249326
internal_weight=154
internal_count=154
is_linear=0
shrinkage=1


Tree=1
num_leaves=2
num_cat=0
split_feature=12
split_gain=2.59157
threshold=0.15559502066957678
decision_type=2
left_child=-1
right_child=-2
leaf_value=0.0040890396479517218 -0.0068790988996624948
leaf_weight=86 84
leaf_count=86 84
internal_value=0.000294118
internal_weight=170
internal_count=170
is_linear=0
shrinkage=0.05


Tree=2
num_leaves=2
num_cat=0
split_feature=5
split_gain=2.27139
threshold=0.27706422427887784
decision_type=2
left_child=-1
right_child=-2
leaf_value=0.0036176662477664656 -0.0022094390024431062
leaf_weight=85 82
leaf_count=85 82
internal_value=0.000449102
internal_weight=167
internal_count=167
is_linear=0
shrinkage=0.05


Tree=3
num_leaves=3
num_cat=0
split_feature=13 11
split_gain=3.30574 1.73385
threshold=-0.0045933723504285031 0.29333930101427369
decision_type=2 2
left_child=-1 -2
right_child=1 -3
leaf_value=0.010653112911363132 -0.0096770787302171823 0.00017366952470038166
leaf_weight=51 50 65
leaf_count=51 50 65
internal_value=-0.000301205 -0.005
internal_weight=166 115
internal_count=166 115
is_linear=0
shrinkage=0.05


Tree=4
num_leaves=2
num_cat=0
split_feature=5
split_gain=1.97561
threshold=0.27706422427887784
decision_type=2
left_child=-1
right_child=-2
leaf_value=0.0041564763554732776 -0.0023855905168794576
leaf_weight=82 82
leaf_count=82 82
internal_value=-0.000609756
internal_weight=164
internal_count=164
is_linear=0
shrinkage=0.05


Tree=5
num_leaves=2
num_cat=0
split_feature=12
split_gain=2.00962
threshold=0.16443908575110935
decision_type=2
left_child=-1
right_child=-2
leaf_value=0.0029992059922863828 -0.0070195997921779635
leaf_weight=89 77
leaf_count=89 77
internal_value=-0.000903614
internal_weight=166
internal_count=166
is_linear=0
shrinkage=0.05


Tree=6
num_leaves=2
num_cat=0
split_feature=12
split_gain=2.11505
threshold=0.15559502066957678
decision_type=2
left_child=-1
right_child=-2
leaf_value=0.002165809566881598 -0.0073721996669115289
leaf_weight=90 84
leaf_count=90 84
internal_value=-0.00143678
internal_weight=174
internal_count=174
is_linear=0
shrinkage=0.05


Tree=7
num_leaves=2
num_cat=0
split_feature=12
split_gain=1.84453
threshold=0.15559502066957678
decision_type=2
left_child=-1
right_child=-2
leaf_value=0.004233361446633787 -0.006300009819223489
leaf_weight=86 75
leaf_count=86 75
internal_value=0.00139752
internal_weight=161
internal_count=161
is_linear=0
shrinkage=0.05


Tree=8
num_leaves=2
num_cat=0
split_feature=4
split_gain=2.02563
threshold=0.42227260715215115
decision_type=2
left_child=-1
right_child=-2
leaf_value=0.0058332982636097354 -0.0029786619017907884
leaf_weight=95 71
leaf_count=95 71
internal_value=-0.000301205
internal_weight=166
internal_count=166
is_linear=0
shrinkage=0.05


Tree=9
num_leaves=2
num_cat=0
split_feature=12
split_gain=1.50549
threshold=0.16443908575110935
decision_type=2
left_child=-1
right_child=-2
leaf_value=0.001308139291409527 -0.0064506812902321549
leaf_weight=91 72
leaf_count=91 72
internal_value=-0.000153374
internal_weight=163
internal_count=163
is_linear=0
shrinkage=0.05


Tree=10
num_leaves=3
num_cat=0
split_feature=12 8
split_gain=2.25787 1.22916
threshold=0.21669421450000162 0.20922711447865211
decision_type=2 2
left_child=1 -1
right_child=-2 -3
leaf_value=-0.001053205856088716 -0.010291651670930241 0.0049039863693081309
leaf_weight=56 54 50
leaf_count=56 54 50
internal_value=-0.0009375 0.00330189
internal_weight=160 106
internal_count=160 106
is_linear=0
shrinkage=0.05


Tree=11
num_leaves=3
num_cat=0
split_feature=13 7
split_gain=1.27975 1.33898
threshold=0.025481616898193175 1.9829382333107992
decision_type=2 2
left_child=-1 -2
right_child=1 -3
leaf_value=0.0060952915349509074 -0.0094198094813324976 0.0022006275753954918
leaf_weight=56 57 50
leaf_count=56 57 50
internal_value=-0.000766871 -0.00397196
internal_weight=163 107
internal_count=163 107
is_linear=0
shrinkage=0.05


Tree=12
num_leaves=2
num_cat=0
split_feature=4
split_gain=1.59335
threshold=0.42227260715215115
decision_type=2
left_child=-1
right_child=-2
leaf_value=0.0050173941642834207 -0.0016978339082116629
leaf_weight=97 77
leaf_count=97 77
internal_value=0.00114943
internal_weight=174
internal_count=174
is_linear=0
shrinkage=0.05


Tree=13
num_leaves=3
num_cat=0
split_feature=7 15
split_gain=2.04099 1.57792
threshold=1.5357348149767647 0.0079726891861795022
decision_type=2 2
left_child=-1 -2
right_child=1 -3
leaf_value=-0.0045177838575420114 -0.0012040953278351836 0.0055940944061404754
leaf_weight=59 55 50
leaf_count=59 55 50
internal_value=-0.000609756 0.00357143
internal_weight=164 105
internal_count=164 105
is_linear=0
shrinkage=0.05


Tree=14
num_leaves=2
num_cat=0
split_feature=4
split_gain=2.00302
threshold=0.42227260715215115
decision_type=2
left_child=-1
right_child=-2
leaf_value=0.0079608077762365788 -0.001552737446409322
leaf_weight=93 69
leaf_count=93 69
internal_value=0.00246914
internal_weight=162
internal_count=162
is_linear=0
shrinkage=0.05


Tree=15
num_leaves=2
num_cat=0
split_feature=4
split_gain=1.54479
threshold=0.42227260715215115
decision_type=2
left_child=-1
right_child=-2
leaf_value=0.0028761782137919551 -0.0030201111268725192
leaf_weight=97 74
leaf_count=97 74
internal_value=-0.00131579
internal_weight=171
internal_count=171
is_linear=0
shrinkage=0.05


Tree=16
num_leaves=3
num_cat=0
split_feature=12 15
split_gain=2.42381 1.51562
threshold=0.2511518069119934 0.0010387447504231417
decision_type=2 2
left_child=1 -1
right_child=-2 -3
leaf_value=-0.0011196715752622821 -0.0099328964285857677 0.0045825850758406039
leaf_weight=62 53 56
leaf_count=62 53 56
internal_value=-0.00102339 0.0029661
internal_weight=171 118
internal_count=171 118
is_linear=0
shrinkage=0.05


Tree=17
num_leaves=3
num_cat=0
split_feature=12 4
split_gain=1.01895 1.15771
threshold=0.27154957792486217 0.44388987668185537
decision_type=2 2
left_child=1 -1
right_child=-2 -3
leaf_value=0.0085462912166851118 -0.0094362516071564793 -0.0010636879964991686
leaf_weight=50 53 62
leaf_count=50 53 62
internal_value=-0.00136364 0.00133929
internal_weight=165 112
internal_count=165 112
is_linear=0
shrinkage=0.05


Tree=18
num_leaves=3
num_cat=0
split_feature=4 4
split_gain=1.17599 1.44
threshold=0.42887060648822484 0.32063876851358347
decision_type=2 2
left_child=1 -1
right_child=-2 -3
leaf_value=-0.0016080681256264995 -0.0023488189680841935 0.0090382197685749885
leaf_weight=50 77 50
leaf_count=50 77 50
internal_value=0.000423729 0.004
internal_weight=177 100
internal_count=177 100
is_linear=0
shrinkage=0.05


Tree=19
num_leaves=3
num_cat=0
split_feature=12 6
split_gain=0.909424 0.982186
threshold=0.2511518069119934 0.22711923980058232
decision_type=2 2
left_child=1 -1
right_child=-2 -3
leaf_value=0.0049958839363274336 -0.0079169378007076015 -0.0017201994638900405
leaf_weight=51 52 61
leaf_count=51 52 61
internal_value=-0.000304878 0.00223214
internal_weight=164 112
internal_count=164 112
is_linear=0
shrinkage=0.05


Tree=20
num_leaves=3
num_cat=0
split_feature=15 12
split_gain=1.54328 0.636504
threshold=0.014816480413048548 0.10074636875686706
decision_type=2 2
left_child=1 -1
right_child=-2 -3
leaf_value=0.00080735200315039954 0.0040188280476331382 -0.0040823541577676746
leaf_weight=53 74 51
leaf_count=53 74 51
internal_value=0.000561798 -0.00336538
internal_weight=178 104
internal_count=178 104
is_linear=0
shrinkage=0.05


Tree=21
num_leaves=3
num_cat=0
split_feature=11 0
split_gain=1.23492 2.34294
threshold=0.20794245809733322 20510000000.000004
decision_type=2 2
left_child=-1 -2
right_child=1 -3
leaf_value=-0.0038316284604807947 -0.0022329668661515813 0.0039761355988245164
leaf_weight=51 70 53
leaf_count=51 70 53
internal_value=0.00114943 0.00386179
internal_weight=174 123
internal_count=174 123
is_linear=0
shrinkage=0.05


Tree=22
num_leaves=3
num_cat=0
split_feature=14 7
split_gain=1.29524 1.34591
threshold=-0.012984323856125048 1.5907232522608465
decision_type=2 2
left_child=-1 -2
right_child=1 -3
leaf_value=-0.0020476780626881631 -0.00401622502527961 0.0059917165371684584
leaf_weight=51 52 67
leaf_count=51 52 67
internal_value=0.000294118 0.00315126
internal_weight=170 119
internal_count=170 119
is_linear=0
shrinkage=0.05


Tree=23
num_leaves=2
num_cat=0
split_feature=8
split_gain=2.20154
threshold=0.22143806772566024
decision_type=2
left_child=-1
right_child=-2
leaf_value=-0.0035265196261850362 0.0039092424312555801
leaf_weight=97 71
leaf_count=97 71
internal_value=0
internal_weight=168
internal_count=168
is_linear=0
shrinkage=0.05


Tree=24
num_leaves=3
num_cat=0
split_feature=12 5
split_gain=1.09491 0.909474
threshold=0.2511518069119934 0.27706422427887784
decision_type=2 2
left_child=1 -1
right_child=-2 -3
leaf_value=0.0082593059332373188 -0.0084864660369999064 8.182648255236625e-07
leaf_weight=50 52 64
leaf_count=50 52 64
internal_value=0.00120482 0.00394737
internal_weight=166 114
internal_count=166 114
is_linear=0
shrinkage=0.05


Tree=25
num_leaves=2
num_cat=0
split_feature=15
split_gain=1.71195
threshold=0.0010387447504231417
decision_type=2
left_child=-1
right_child=-2
leaf_value=-0.0013077856964656825 0.0031186602025688212
leaf_weight=75 95
leaf_count=75 95
internal_value=0.00264706
internal_weight=170
internal_count=170
is_linear=0
shrinkage=0.05


Tree=26
num_leaves=2
num_cat=0
split_feature=4
split_gain=1.01505
threshold=0.43521299677761621
decision_type=2
left_child=-1
right_child=-2
leaf_value=0.0029627271924403788 -0.0017959988625126573
leaf_weight=99 65
leaf_count=99 65
internal_value=-0.000914634
internal_weight=164
internal_count=164
is_linear=0
shrinkage=0.05


Tree=27
num_leaves=3
num_cat=0
split_feature=7 15
split_gain=0.700219 1.36582
threshold=1.4659019318032513 -0.0019309256020392932
decision_type=2 2
left_child=-1 -2
right_child=1 -3
leaf_value=-0.003418533000890454 -0.0014411865358557258 0.003647606329448716
leaf_weight=50 50 61
leaf_count=50 50 61
internal_value=-0.00108696 0.00112613
internal_weight=161 111
internal_count=161 111
is_linear=0
shrinkage=0.05


Tree=28
num_leaves=2
num_cat=0
split_feature=15
split_gain=2.53936
threshold=0.0085825505855413754
decision_type=2
left_child=-1
right_child=-2
leaf_value=-0.0016341395925942373 0.0043755254388161292
leaf_weight=93 75
leaf_count=93 75
internal_value=0.0014881
internal_weight=168
internal_count=168
is_linear=0
shrinkage=0.05


Tree=29
num_leaves=3
num_cat=0
split_feature=7 15
split_gain=0.846147 0.693346
threshold=1.5357348149767647 0.0051886474194974977
decision_type=2 2
left_child=-1 -2
right_child=1 -3
leaf_value=-0.0034279783722172517 -0.000849277988334353 0.0034282859528891097
leaf_weight=58 50 58
leaf_count=58 50 58
internal_value=-0.000301205 0.00231481
internal_weight=166 108
internal_count=166 108
is_linear=0
shrinkage=0.05


Tree=30
num_leaves=2
num_cat=0
split_feature=8
split_gain=1.50488
threshold=0.1884394729213569
decision_type=2
left_child=-1
right_child=-2
leaf_value=-0.00296382092329062 0.0025425031983311781
leaf_weight=70 95
leaf_count=70 95
internal_value=-0.000151515
internal_weight=165
internal_count=165
is_linear=0
shrinkage=0.05


Tree=31
num_leaves=2
num_cat=0
split_feature=4
split_gain=1.24851
threshold=0.43521299677761621
decision_type=2
left_child=-1
right_child=-2
leaf_value=0.0029367651982389917 -0.0019353264854632098
leaf_weight=93 65
leaf_count=93 65
internal_value=0.000316456
internal_weight=158
internal_count=158
is_linear=0
shrinkage=0.05


Tree=32
num_leaves=3
num_cat=0
split_feature=11 13
split_gain=1.43244 2.94123
threshold=0.45575186781438387 0.10544373811863174
decision_type=2 2
left_child=1 -1
right_child=-2 -3
leaf_value=0.0078969008963012902 0.0030446766077476179 -0.0090899808000076861
leaf_weight=51 51 67
leaf_count=51 51 67
internal_value=0.00133136 -0.00169492
internal_weight=169 118
internal_count=169 118
is_linear=0
shrinkage=0.05


Tree=33
num_leaves=3
num_cat=0
split_feature=15 12
split_gain=1.20169 1.38723
threshold=0.024546112592305953 0.10761595618466548
decision_type=2 2
left_child=1 -1
right_child=-2 -3
leaf_value=0.0035246123685007472 0.0021714608413043539 -0.0052805763756744728
leaf_weight=54 55 62
leaf_count=54 55 62
internal_value=0.000730994 -0.00215517
internal_weight=171 116
internal_count=171 116
is_linear=0
shrinkage=0.05


Tree=34
num_leaves=2
num_cat=0
split_feature=4
split_gain=1.93377
threshold=0.42227260715215115
decision_type=2
left_child=-1
right_child=-2
leaf_value=0.0047455480644583853 -0.0019415660076207099
leaf_weight=95 73
leaf_count=95 73
internal_value=0.000297619
internal_weight=168
internal_count=168
is_linear=0
shrinkage=0.05


Tree=35
num_leaves=2
num_cat=0
split_feature=15
split_gain=1.16992
threshold=0.015328660803735338
decision_type=2
left_child=-1
right_child=-2
leaf_value=-0.0013792343478169192 0.0017679019995070239
leaf_weight=98 66
leaf_count=98 66
internal_value=0.000914634
internal_weight=164
internal_count=164
is_linear=0
shrinkage=0.05


Tree=36
num_leaves=2
num_cat=0
split_feature=7
split_gain=0.838832
threshold=1.5907232522608465
decision_type=2
left_child=-1
right_child=-2
leaf_value=-0.0036204261789153482 0.0016299175941905789
leaf_weight=65 96
leaf_count=65 96
internal_value=0.00015528
internal_weight=161
internal_count=161
is_linear=0
shrinkage=0.05


Tree=37
num_leaves=3
num_cat=0
split_feature=15 4
split_gain=1.10446 0.794118
threshold=0.015328660803735338 0.39539242983351935
decision_type=2 2
left_child=1 -1
right_child=-2 -3
leaf_value=0.00067681792330135391 0.001510785783301242 -0.0022577402771897931
leaf_weight=51 72 51
leaf_count=51 72 51
internal_value=-0.000574713 -0.00392157
internal_weight=174 102
internal_count=174 102
is_linear=0
shrinkage=0.05


Tree=38
num_leaves=2
num_cat=0
split_feature=4
split_gain=2.24457
threshold=0.42227260715215115
decision_type=2
left_child=-1
right_child=-2
leaf_value=0.0045805698753967642 -0.0023580630505472045
leaf_weight=94 72
leaf_count=94 72
internal_value=-0.000301205
internal_weight=166
internal_count=166
is_linear=0
shrinkage=0.05


Tree=39
num_leaves=3
num_cat=0
split_feature=7 15
split_gain=1.37353 1.86781
threshold=1.4659019318032513 0.0010387447504231417
decision_type=2 2
left_child=-1 -2
right_child=1 -3
leaf_value=-0.0049532068944151061 -0.0020446489448760945 0.0036208774875759174
leaf_weight=60 54 73
leaf_count=60 54 73
internal_value=0.00040107 0.00334646
internal_weight=187 127
internal_count=187 127
is_linear=0
shrinkage=0.05


Tree=40
num_leaves=3
num_cat=0
split_feature=12 15
split_gain=1.85604 1.82005
threshold=0.10761595618466548 0.019126019775373777
decision_type=2 2
left_child=-1 -2
right_child=1 -3
leaf_value=0.0057854666086316212 -0.0053627264804251926 0.0025723770449746775
leaf_weight=54 50 57
leaf_count=54 50 57
internal_value=0.000776398 -0.00303738
internal_weight=161 107
internal_count=161 107
is_linear=0
shrinkage=0.05


Tree=41
num_leaves=2
num_cat=0
split_feature=12
split_gain=1.15378
threshold=0.13824211473837991
decision_type=2
left_child=-1
right_child=-2
leaf_value=0.0043651406902720435 -0.0043725718749789829
leaf_weight=71 96
leaf_count=71 96
internal_value=0.000449102
internal_weight=167
internal_count=167
is_linear=0
shrinkage=0.05


Tree=42
num_leaves=2
num_cat=0
split_feature=4
split_gain=1.70818
threshold=0.42227260715215115
decision_type=2
left_child=-1
right_child=-2
leaf_value=0.0044419915452295266 -0.0011298369543044585
leaf_weight=97 75
leaf_count=97 75
internal_value=0
internal_weight=172
internal_count=172
is_linear=0
shrinkage=0.05


Tree=43
num_leaves=3
num_cat=0
split_feature=13 14
split_gain=1.12635 0.90567
threshold=-0.024649020069296586 0.0090231182084925827
decision_type=2 2
left_child=-1 -2
right_child=1 -3
leaf_value=0.0065926576887879746 -0.0027618982411929506 0.00014520830479201329
leaf_weight=54 53 66
leaf_count=54 53 66
internal_value=-0.000433526 -0.00315126
internal_weight=173 119
internal_count=173 119
is_linear=0
shrinkage=0.05


Tree=44
num_leaves=2
num_cat=0
split_feature=3
split_gain=1.59122
threshold=5448000000.000001
decision_type=2
left_child=-1
right_child=-2
leaf_value=-0.0031482959378386442 0.00091246288250056151
leaf_weight=95 81
leaf_count=95 81
internal_value=-0.00113636
internal_weight=176
internal_count=176
is_linear=0
shrinkage=0.05


Tree=45
num_leaves=2
num_cat=0
split_feature=8
split_gain=1.08214
threshold=0.1884394729213569
decision_type=2
left_child=-1
right_child=-2
leaf_value=-0.0026694264732583326 0.0019414641363617565
leaf_weight=65 98
leaf_count=65 98
internal_value=-0.000766871
internal_weight=163
internal_count=163
is_linear=0
shrinkage=0.05


Tree=46
num_leaves=2
num_cat=0
split_feature=15
split_gain=1.83888
threshold=0.014816480413048548
decision_type=2
left_child=-1
right_child=-2
leaf_value=-0.001650752192439263 0.003591369482751107
leaf_weight=95 67
leaf_count=95 67
internal_value=0
internal_weight=162
internal_count=162
is_linear=0
shrinkage=0.05


Tree=47
num_leaves=2
num_cat=0
split_feature=14
split_gain=2.49147
threshold=0.0025840133930003233
decision_type=2
left_child=-1
right_child=-2
leaf_value=-0.0026807390259538269 0.0017875208387163146
leaf_weight=74 92
leaf_count=74 92
internal_value=-0.00060241
internal_weight=166
internal_count=166
is_linear=0
shrinkage=0.05


Tree=48
num_leaves=3
num_cat=0
split_feature=8 11
split_gain=1.33819 0.461026
threshold=0.1884394729213569 0.31645612311367405
decision_type=2 2
left_child=-1 -2
right_child=1 -3
leaf_value=-0.0025467020746561351 -0.00012984058446610937 0.0043397951415501124
leaf_weight=72 51 53
leaf_count=72 51 53
internal_value=-0.00170455 0.00192308
internal_weight=176 104
internal_count=176 104
is_linear=0
shrinkage=0.05


Tree=49
num_leaves=3
num_cat=0
split_feature=4 7
split_gain=1.55542 0.727971
threshold=0.43521299677761621 1.5536500662217507
decision_type=2 2
left_child=1 -1
right_child=-2 -3
leaf_value=-0.0044335065026299475 -0.0025955323572836573 0.0078437546989710647
leaf_weight=51 64 50
leaf_count=51 64 50
internal_value=-0.000151515 0.00371287
internal_weight=165 101
internal_count=165 101
is_linear=0
shrinkage=0.05


Tree=50
num_leaves=3
num_cat=0
split_feature=8 9
split_gain=1.11327 0.407595
threshold=0.158673732554685 4919500000.000001
decision_type=2 2
left_child=-1 -2
right_child=1 -3
leaf_value=-0.0026071365280006587 0.0017943894352582064 0.0013725590687808501
leaf_weight=67 50 51
leaf_count=67 50 51
internal_value=0.000892857 0.00420792
internal_weight=168 101
internal_count=168 101
is_linear=0
shrinkage=0.05


Tree=51
num_leaves=3
num_cat=0
split_feature=12 14
split_gain=1.21684 1.97404
threshold=0.082102064766794949 0.021887680112557487
decision_type=2 2
left_child=-1 -2
right_child=1 -3
leaf_value=0.0059076400760710614 -0.0044423932935830426 0.0018235443862674276
leaf_weight=50 61 60
leaf_count=50 61 60
internal_value=0.000438596 -0.00227273
internal_weight=171 121
internal_count=171 121
is_linear=0
shrinkage=0.05


Tree=52
num_leaves=2
num_cat=0
split_feature=3
split_gain=0.94471
threshold=5170000000.000001
decision_type=2
left_child=-1
right_child=-2
leaf_value=-0.0026139686655198059 0.00065251600334277008
leaf_weight=83 82
leaf_count=83 82
internal_value=-0.000757576
internal_weight=165
internal_count=165
is_linear=0
shrinkage=0.05


Tree=53
num_leaves=2
num_cat=0
split_feature=4
split_gain=1.38019
threshold=0.42227260715215115
decision_type=2
left_child=-1
right_child=-2
leaf_value=0.0041698787754980626 -0.00099746122371747884
leaf_weight=94 74
leaf_count=94 74
internal_value=-0.000297619
internal_weight=168
internal_count=168
is_linear=0
shrinkage=0.05


Tree=54
num_leaves=3
num_cat=0
split_feature=11 3
split_gain=1.45922 2.54902
threshold=0.20794245809733322 5170000000.000001
decision_type=2 2
left_child=-1 -2
right_child=1 -3
leaf_value=-0.0052107958969608535 -0.0012781867616433033 0.0028651555269345744
leaf_weight=50 68 52
leaf_count=50 68 52
internal_value=0.00117647 0.00416667
internal_weight=170 120
internal_count=170 120
is_linear=0
shrinkage=0.05


Tree=55
num_leaves=3
num_cat=0
split_feature=7 15
split_gain=1.06056 1.30273
threshold=1.5357348149767647 0.0085825505855413754
decision_type=2 2
left_child=-1 -2
right_child=1 -3
leaf_value=-0.0049502561021128114 -0.0014068494221021529 0.0048199356166037603
leaf_weight=62 58 54
leaf_count=62 58 54
internal_value=-0.00201149 0.000892857
internal_weight=174 112
internal_count=174 112
is_linear=0
shrinkage=0.05


Tree=56
num_leaves=2
num_cat=0
split_feature=8
split_gain=0.930128
threshold=0.1884394729213569
decision_type=2
left_child=-1
right_child=-2
leaf_value=-0.0023389057559172867 0.0012016230347472929
leaf_weight=67 99
leaf_count=67 99
internal_value=-0.000301205
internal_weight=166
internal_count=166
is_linear=0
shrinkage=0.05


Tree=57
num_leaves=3
num_cat=0
split_feature=4 10
split_gain=0.583904 0.868255
threshold=0.42887060648822484 0.15067060868556897
decision_type=2 2
left_child=1 -1
right_child=-2 -3
leaf_value=-0.0045115686404849841 -0.00094519146280464266 0.0048271781227823395
leaf_weight=51 77 52
leaf_count=51 77 52
internal_value=-0.000277778 0.00218447
internal_weight=180 103
internal_count=180 103
is_linear=0
shrinkage=0.05


Tree=58
num_leaves=3
num_cat=0
split_feature=4 7
split_gain=1.45916 0.25
threshold=0.42887060648822484 1.5536500662217507
decision_type=2 2
left_child=1 -1
right_child=-2 -3
leaf_value=0.0011683983379975928 -0.0018856808841172523 0.0069128986356708985
leaf_weight=50 71 50
leaf_count=50 71 50
internal_value=0.00160819 0.0055
internal_weight=171 100
internal_count=171 100
is_linear=0
shrinkage=0.05


Tree=59
num_leaves=2
num_cat=0
split_feature=14
split_gain=0.988265
threshold=0.0025840133930003233
decision_type=2
left_child=-1
right_child=-2
leaf_value=-0.0019359068453433598 0.0016710043727756357
leaf_weight=78 92
leaf_count=78 92
internal_value=0.000294118
internal_weight=170
internal_count=170
is_linear=0
shrinkage=0.05


Tree=60
num_leaves=3
num_cat=0
split_feature=12 5
split_gain=1.36668 0.728276
threshold=0.24137764414813992 0.28882118880665991
decision_type=2 2
left_child=1 -1
right_child=-2 -3
leaf_value=0.0053982240879922516 -0.0067983636634969665 -5.806634373515599e-05
leaf_weight=50 51 66
leaf_count=50 51 66
internal_value=0.000449102 0.00344828
internal_weight=167 116
internal_count=167 116
is_linear=0
shrinkage=0.05


Tree=61
num_leaves=2
num_cat=0
split_feature=15
split_gain=2.50104
threshold=0.014816480413048548
decision_type=2
left_child=-1
right_child=-2
leaf_value=-0.0016508798838471715 0.0051458250148975898
leaf_weight=96 64
leaf_count=96 64
internal_value=0.0009375
internal_weight=160
internal_count=160
is_linear=0
shrinkage=0.05


Tree=62
num_leaves=3
num_cat=0
split_feature=7 3
split_gain=0.890655 0.934996
threshold=1.4986466002090035 4804500000.000001
decision_type=2 2
left_child=-1 -2
right_child=1 -3
leaf_value=-0.0044862378445180385 -0.0024615303932287117 0.0038114377927938566
leaf_weight=54 67 51
leaf_count=54 67 51
internal_value=-0.00116279 0.00127119
internal_weight=172 118
internal_count=172 118
is_linear=0
shrinkage=0.05


Tree=63
num_leaves=3
num_cat=0
split_feature=1 9
split_gain=0.615474 1.06541
threshold=4080500000.0000005 8668500000.0000019
decision_type=2 2
left_child=-1 -2
right_child=1 -3
leaf_value=0.0063844922435527477 -0.0023835176026366259 0.0001620581925952075
leaf_weight=52 62 61
leaf_count=52 62 61
internal_value=-0.000714286 -0.00264228
internal_weight=175 123
internal_count=175 123
is_linear=0
shrinkage=0.05


Tree=64
num_leaves=3
num_cat=0
split_feature=11 13
split_gain=1.11666 3.37193
threshold=0.45575186781438387 0.11594328363502217
decision_type=2 2
left_child=1 -1
right_child=-2 -3
leaf_value=0.0066573716449857493 0.0015967263389160963 -0.010394525045909004
leaf_weight=54 51 60
leaf_count=54 51 60
internal_value=-0.000757576 -0.00350877
internal_weight=165 114
internal_count=165 114
is_linear=0
shrinkage=0.05


Tree=65
num_leaves=3
num_cat=0
split_feature=11 13
split_gain=1.30805 2.27444
threshold=0.48626776638998631 0.13899256732945645
decision_type=2 2
left_child=1 -1
right_child=-2 -3
leaf_value=0.0032798944112751166 0.001093544215769718 -0.0092346073462112165
leaf_weight=57 51 63
leaf_count=57 51 63
internal_value=-0.00131579 -0.00416667
internal_weight=171 120
internal_count=171 120
is_linear=0
shrinkage=0.05


Tree=66
num_leaves=3
num_cat=0
split_feature=15 1
split_gain=1.8048 0.427971
threshold=0.0010387447504231417 11931000000.000002
decision_type=2 2
left_child=-1 -2
right_child=1 -3
leaf_value=-0.0025301407308764945 0.0072338290570948321 1.8034528885432777e-05
leaf_weight=71 50 51
leaf_count=71 50 51
internal_value=-0.000581395 0.00371287
internal_weight=172 101
internal_count=172 101
is_linear=0
shrinkage=0.05


Tree=67
num_leaves=3
num_cat=0
split_feature=12 5
split_gain=1.34894 1.66327
threshold=0.27154957792486217 0.27003698376823509
decision_type=2 2
left_child=1 -1
right_child=-2 -3
leaf_value=0.0065329042471727501 -0.0067477768830976233 -0.00024976103759998398
leaf_weight=50 54 80
leaf_count=50 54 80
internal_value=0.00108696 0.00384615
internal_weight=184 130
internal_count=184 130
is_linear=0
shrinkage=0.05


Tree=68
num_leaves=3
num_cat=0
split_feature=14 12
split_gain=0.759656 0.626996
threshold=0.021887680112557487 0.10761595618466548
decision_type=2 2
left_child=1 -1
right_child=-2 -3
leaf_value=2.7754837077732798e-05 0.0023815186832070348 -0.0038572852140481245
leaf_weight=54 64 52
leaf_count=54 64 52
internal_value=-0.00117647 -0.00377358
internal_weight=170 106
internal_count=170 106
is_linear=0
shrinkage=0.05


Tree=69
num_leaves=3
num_cat=0
split_feature=14 5
split_gain=0.947866 0.36
threshold=0.021887680112557487 0.26708530391137303
decision_type=2 2
left_child=1 -1
right_child=-2 -3
leaf_value=0.00018901326580248736 0.0027208637637111907 -0.0013826989932551701
leaf_weight=50 58 50
leaf_count=50 58 50
internal_value=0.000949367 -0.002
internal_weight=158 100
internal_count=158 100
is_linear=0
shrinkage=0.05


Tree=70
num_leaves=3
num_cat=0
split_feature=11 3
split_gain=1.01479 1.51756
threshold=0.20315490201858202 5170000000.000001
decision_type=2 2
left_child=-1 -2
right_child=1 -3
leaf_value=-0.0037201213627218207 -0.0019296505947757143 0.0023749509430343791
leaf_weight=52 76 53
leaf_count=52 76 53
internal_value=-0.00179558 0.000581395
internal_weight=181 129
internal_count=181 129
is_linear=0
shrinkage=0.05


Tree=71
num_leaves=2
num_cat=0
split_feature=3
split_gain=1.3538
threshold=5170000000.000001
decision_type=2
left_child=-1
right_child=-2
leaf_value=-0.0028306353474685272 0.0020463782874045322
leaf_weight=87 81
leaf_count=87 81
internal_value=0.000595238
internal_weight=168
internal_count=168
is_linear=0
shrinkage=0.05


Tree=72
num_leaves=3
num_cat=0
split_feature=12 11
split_gain=0.947463 0.441676
threshold=0.21669421450000162 0.31985662810113785
decision_type=2 2
left_child=1 -1
right_child=-2 -3
leaf_value=0.004361837063123662 -0.0081240653854500935 -0.00037693077623989217
leaf_weight=50 63 57
leaf_count=50 63 57
internal_value=-0.000294118 0.00257009
internal_weight=170 107
internal_count=170 107
is_linear=0
shrinkage=0.05


Tree=73
num_leaves=3
num_cat=0
split_feature=7 9
split_gain=1.23242 0.81
threshold=1.5357348149767647 3991000000.0000005
decision_type=2 2
left_child=-1 -2
right_child=1 -3
leaf_value=-0.0036990474957646182 -0.00060082220846041439 0.0022227705576204917
leaf_weight=66 50 50
leaf_count=66 50 50
internal_value=0 0.0035
internal_weight=166 100
internal_count=166 100
is_linear=0
shrinkage=0.05


Tree=74
num_leaves=3
num_cat=0
split_feature=11 13
split_gain=0.958004 2.04547
threshold=0.45575186781438387 0.11594328363502217
decision_type=2 2
left_child=1 -1
right_child=-2 -3
leaf_value=0.0068512086430925186 0.0017157020959320162 -0.007737448807254169
leaf_weight=50 52 59
leaf_count=50 52 59
internal_value=-0.000776398 -0.00344037
internal_weight=161 109
internal_count=161 109
is_linear=0
shrinkage=0.05


Tree=75
num_leaves=3
num_cat=0
split_feature=14 5
split_gain=0.9225 0.64
threshold=0.021887680112557487 0.27003698376823509
decision_type=2 2
left_child=1 -1
right_child=-2 -3
leaf_value=0.00017028014738983827 0.0031110509929284744 -0.0011259658614324603
leaf_weight=50 64 50
leaf_count=50 64 50
internal_value=0 -0.003
internal_weight=164 100
internal_count=164 100
is_linear=0
shrinkage=0.05


Tree=76
num_leaves=3
num_cat=0
split_feature=14 5
split_gain=1.47929 1.97128
threshold=0.021887680112557487 0.27981561585991777
decision_type=2 2
left_child=1 -1
right_child=-2 -3
leaf_value=0.00026735044700256644 0.0032577131668376069 -0.0026356619860012
leaf_weight=54 65 50
leaf_count=54 65 50
internal_value=-0.000147929 -0.00384615
internal_weight=169 104
internal_count=169 104
is_linear=0
shrinkage=0.05


Tree=77
num_leaves=2
num_cat=0
split_feature=4
split_gain=0.94933
threshold=0.42227260715215115
decision_type=2
left_child=-1
right_child=-2
leaf_value=0.0023845732279061805 -0.001505802761972068
leaf_weight=92 76
leaf_count=92 76
internal_value=-0.00178571
internal_weight=168
internal_count=168
is_linear=0
shrinkage=0.05


Tree=78
num_leaves=3
num_cat=0
split_feature=11 0
split_gain=1.07961 1.0646
threshold=0.20794245809733322 20361000000.000004
decision_type=2 2
left_child=-1 -2
right_child=1 -3
leaf_value=-0.0020808152191307198 -0.0011069333133214641 0.0018710454321914567
leaf_weight=50 64 53
leaf_count=50 64 53
internal_value=0.000149701 0.00277778
internal_weight=167 117
internal_count=167 117
is_linear=0
shrinkage=0.05


Tree=79
num_leaves=3
num_cat=0
split_feature=11 4
split_gain=0.932895 1.728
threshold=0.20794245809733322 0.66001224373897827
decision_type=2 2
left_child=-1 -2
right_child=1 -3
leaf_value=-0.001900420983228142 0.0046706463192799754 -0.0019366731312384332
leaf_weight=52 75 50
leaf_count=52 75 50
internal_value=-0.000141243 0.0022
internal_weight=177 125
internal_count=177 125
is_linear=0
shrinkage=0.05


Tree=80
num_leaves=2
num_cat=0
split_feature=14
split_gain=0.973322
threshold=0.0090231182084925827
decision_type=2
left_child=-1
right_child=-2
leaf_value=-0.00033322120933630407 0.001874326817143804
leaf_weight=91 83
leaf_count=91 83
internal_value=0
internal_weight=174
internal_count=174
is_linear=0
shrinkage=0.05


Tree=81
num_leaves=2
num_cat=0
split_feature=4
split_gain=0.910217
threshold=0.42227260715215115
decision_type=2
left_child=-1
right_child=-2
leaf_value=0.0044771544471219338 -0.0011777457952394724
leaf_weight=95 75
leaf_count=95 75
internal_value=-0.000882353
internal_weight=170
internal_count=170
is_linear=0
shrinkage=0.05


Tree=82
num_leaves=3
num_cat=0
split_feature=13 7
split_gain=2.1024 0.980392
threshold=0.10544373811863174 1.9829382333107992
decision_type=2 2
left_child=-1 -2
right_child=1 -3
leaf_value=0.006144985755414176 -0.0074023210396962028 -0.0003057959427411855
leaf_weight=66 51 51
leaf_count=66 51 51
internal_value=-0.000892857 -0.00539216
internal_weight=168 102
internal_count=168 102
is_linear=0
shrinkage=0.05


Tree=83
num_leaves=3
num_cat=0
split_feature=11 0
split_gain=1.18954 1.54486
threshold=0.22269461560273615 20510000000.000004
decision_type=2 2
left_child=-1 -2
right_child=1 -3
leaf_value=-0.0028897269237021187 -0.00036701739651193307 0.0044175747493578194
leaf_weight=51 66 51
leaf_count=51 66 51
internal_value=0 0.00277778
internal_weight=168 117
internal_count=168 117
is_linear=0
shrinkage=0.05


Tree=84
num_leaves=2
num_cat=0
split_feature=15
split_gain=1.08621
threshold=0.014816480413048548
decision_type=2
left_child=-1
right_child=-2
leaf_value=-0.0019830626006342002 0.0011728176051055889
leaf_weight=95 74
leaf_count=95 74
internal_value=-0.00251479
internal_weight=169
internal_count=169
is_linear=0
shrinkage=0.05


Tree=85
num_leaves=2
num_cat=0
split_feature=15
split_gain=1.45761
threshold=0.0029359917439162058
decision_type=2
left_child=-1
right_child=-2
leaf_value=-0.0024987520680368942 0.002163462192094449
leaf_weight=77 92
leaf_count=77 92
internal_value=-0.000443787
internal_weight=169
internal_count=169
is_linear=0
shrinkage=0.05


Tree=86
num_leaves=3
num_cat=0
split_feature=7 4
split_gain=0.919371 0.813689
threshold=1.5357348149767647 0.46976068359534101
decision_type=2 2
left_child=-1 -2
right_child=1 -3
leaf_value=-0.0043499269742262895 0.0088457844679649591 -0.00071819900760867756
leaf_weight=61 50 54
leaf_count=61 50 54
internal_value=-0.000454545 0.00240385
internal_weight=165 104
internal_count=165 104
is_linear=0
shrinkage=0.05


Tree=87
num_leaves=2
num_cat=0
split_feature=4
split_gain=1.72153
threshold=0.42887060648822484
decision_type=2
left_child=-1
right_child=-2
leaf_value=0.003899635162638285 -0.0024829797016270639
leaf_weight=97 69
leaf_count=97 69
internal_value=0.00060241
internal_weight=166
internal_count=166
is_linear=0
shrinkage=0.05


Tree=88
num_leaves=2
num_cat=0
split_feature=3
split_gain=1.33598
threshold=5448000000.000001
decision_type=2
left_child=-1
right_child=-2
leaf_value=-0.0037977039903746655 0.0017483208638827436
leaf_weight=94 78
leaf_count=94 78
internal_value=0.000290698
internal_weight=172
internal_count=172
is_linear=0
shrinkage=0.05


Tree=89
num_leaves=2
num_cat=0
split_feature=12
split_gain=0.959405
threshold=0.15559502066957678
decision_type=2
left_child=-1
right_child=-2
leaf_value=0.00034862339457167606 -0.0044076063946536168
leaf_weight=87 80
leaf_count=87 80
internal_value=-0.0010479
internal_weight=167
internal_count=167
is_linear=0
shrinkage=0.05


Tree=90
num_leaves=2
num_cat=0
split_feature=15
split_gain=1.00537
threshold=0.0085825505855413754
decision_type=2
left_child=-1
right_child=-2
leaf_value=-0.0015207460255012427 0.0017432258757695399
leaf_weight=94 78
leaf_count=94 78
internal_value=0.000290698
internal_weight=172
internal_count=172
is_linear=0
shrinkage=0.05


Tree=91
num_leaves=3
num_cat=0
split_feature=8 2
split_gain=1.00218 0.301546
threshold=0.18272947643526513 5228000000.000001
decision_type=2 2
left_child=-1 -2
right_child=1 -3
leaf_value=-0.0019213441145720545 0.00026291640726882405 0.0014351452646083425
leaf_weight=63 52 51
leaf_count=63 52 51
internal_value=0.00060241 0.00364078
internal_weight=166 103
internal_count=166 103
is_linear=0
shrinkage=0.05


Tree=92
num_leaves=3
num_cat=0
split_feature=12 8
split_gain=1.05621 1.35531
threshold=0.2511518069119934 0.1884394729213569
decision_type=2 2
left_child=1 -1
right_child=-2 -3
leaf_value=-0.0017764606902906323 -0.0048195759736484531 0.0049446738209293628
leaf_weight=51 54 73
leaf_count=51 54 73
internal_value=0.000280899 0.00282258
internal_weight=178 124
internal_count=178 124
is_linear=0
shrinkage=0.05


Tree=93
num_leaves=3
num_cat=0
split_feature=14 13
split_gain=1.09514 1.30041
threshold=0.021887680112557487 0.10544373811863174
decision_type=2 2
left_child=1 -1
right_child=-2 -3
leaf_value=0.00054688200590655091 0.0036122593154474915 -0.0037813648014222581
leaf_weight=52 64 51
leaf_count=52 64 51
internal_value=-0.000449102 -0.00364078
internal_weight=167 103
internal_count=167 103
is_linear=0
shrinkage=0.05


Tree=94
num_leaves=3
num_cat=0
split_feature=9 15
split_gain=1.32201 0.431028
threshold=8668500000.0000019 0.0070534446968245701
decision_type=2 2
left_child=1 -1
right_child=-2 -3
leaf_value=-0.0037306583918377159 0.002692950903672069 0.00086971354110618182
leaf_weight=50 60 53
leaf_count=50 60 53
internal_value=0.000766871 -0.0026699
internal_weight=163 103
internal_count=163 103
is_linear=0
shrinkage=0.05


Tree=95
num_leaves=3
num_cat=0
split_feature=2 0
split_gain=0.875295 0.705333
threshold=12585000000.000002 17389500000.000004
decision_type=2 2
left_child=1 -1
right_child=-2 -3
leaf_value=-0.0015908713113131135 -0.0017324801497370923 0.0016375810253692969
leaf_weight=75 51 50
leaf_count=75 51 50
internal_value=-0.000852273 0.0014
internal_weight=176 125
internal_count=176 125
is_linear=0
shrinkage=0.05


Tree=96
num_leaves=3
num_cat=0
split_feature=7 0
split_gain=0.419321 0.252951
threshold=1.5907232522608465 17389500000.000004
decision_type=2 2
left_child=-1 -2
right_child=1 -3
leaf_value=-0.0033921915647713214 -0.0021089344213365822 0.0016236217895635903
leaf_weight=70 56 50
leaf_count=70 56 50
internal_value=-0.000568182 0.00141509
internal_weight=176 106
internal_count=176 106
is_linear=0
shrinkage=0.05


Tree=97
num_leaves=3
num_cat=0
split_feature=10 15
split_gain=1.11308 0.723478
threshold=0.30437720506483318 0.014816480413048548
decision_type=2 2
left_child=1 -1
right_child=-2 -3
leaf_value=-0.0016732838764006192 0.0027143959322718583 0.0031658250312138476
leaf_weight=65 51 50
leaf_count=65 51 50
internal_value=0.00120482 -0.00152174
internal_weight=166 115
internal_count=166 115
is_linear=0
shrinkage=0.05


Tree=98
num_leaves=3
num_cat=0
split_feature=12 4
split_gain=1.39564 0.377731
threshold=0.21669421450000162 0.44388987668185537
decision_type=2 2
left_child=1 -1
right_child=-2 -3
leaf_value=0.005732209170616908 -0.0062741474211746645 0.00012932722542415427
leaf_weight=52 69 58
leaf_count=52 69 58
internal_value=0.000139665 0.00363636
internal_weight=179 110
internal_count=179 110
is_linear=0
shrinkage=0.05


Tree=99
num_leaves=3
num_cat=0
split_feature=10 3
split_gain=0.809904 1.15693
threshold=0.30437720506483318 2054000000.0000002
decision_type=2 2
left_child=1 -1
right_child=-2 -3
leaf_value=0.0029805974037295821 0.00086903199279855792 -0.0022639022726199873
leaf_weight=51 53 66
leaf_count=51 53 66
internal_value=-0.000882353 -0.00320513
internal_weight=170 117
internal_count=170 117
is_linear=0
shrinkage=0.05


Tree=100
num_leaves=3
num_cat=0
split_feature=14 13
split_gain=0.805986 0.773522
threshold=0.021887680112557487 0.11594328363502217
decision_type=2 2
left_child=1 -1
right_child=-2 -3
leaf_value=0.00051641640727354834 0.0023790890765671676 -0.0058946464942526856
leaf_weight=57 63 53
leaf_count=57 63 53
internal_value=-0.000144509 -0.00272727
internal_weight=173 110
internal_count=173 110
is_linear=0
shrinkage=0.05


Tree=101
num_leaves=3
num_cat=0
split_feature=12 15
split_gain=0.815001 0.346932
threshold=0.2511518069119934 0.0010387447504231417
decision_type=2 2
left_child=1 -1
right_child=-2 -3
leaf_value=-9.7210680141168049e-05 -0.0063373281750858162 0.00050174450603107104
leaf_weight=50 56 59
leaf_count=50 56 59
internal_value=-0.000454545 0.00206422
internal_weight=165 109
internal_count=165 109
is_linear=0
shrinkage=0.05


Tree=102
num_leaves=3
num_cat=0
split_feature=2 11
split_gain=0.956777 0.840094
threshold=12585000000.000002 0.32432238681619513
decision_type=2 2
left_child=1 -1
right_child=-2 -3
leaf_value=0.0090217669990022877 -0.0021355932594459338 -0.00043273878731927147
leaf_weight=55 50 72
leaf_count=55 50 72
internal_value=-0.000141243 0.00216535
internal_weight=177 127
internal_count=177 127
is_linear=0
shrinkage=0.05


Tree=103
num_leaves=2
num_cat=0
split_feature=15
split_gain=0.926257
threshold=0.0085825505855413754
decision_type=2
left_child=-1
right_child=-2
leaf_value=-0.00078081604159318326 0.0013296523233482351
leaf_weight=88 79
leaf_count=88 79
internal_value=-0.000449102
internal_weight=167
internal_count=167
is_linear=0
shrinkage=0.05


Tree=104
num_leaves=2
num_cat=0
split_feature=13
split_gain=0.996429
threshold=0.11594328363502217
decision_type=2
left_child=-1
right_child=-2
leaf_value=0.0017624397044090718 -0.0011537712642706408
leaf_weight=67 98
leaf_count=67 98
internal_value=0.000151515
internal_weight=165
internal_count=165
is_linear=0
shrinkage=0.05


Tree=105
num_leaves=3
num_cat=0
split_feature=8 11
split_gain=0.824472 0.49
threshold=0.1884394729213569 0.29333930101427369
decision_type=2 2
left_child=-1 -2
right_child=1 -3
leaf_value=-0.0020352936727247579 -9.3660269282181549e-05 0.0031327202646741687
leaf_weight=62 50 50
leaf_count=62 50 50
internal_value=-0.000308642 0.0025
internal_weight=162 100
internal_count=162 100
is_linear=0
shrinkage=0.05


Tree=106
num_leaves=2
num_cat=0
split_feature=7
split_gain=1.02184
threshold=1.5907232522608465
decision_type=2
left_child=-1
right_child=-2
leaf_value=-0.0027411150027058673 0.0014226229540305918
leaf_weight=71 99
leaf_count=71 99
internal_value=0
internal_weight=170
internal_count=170
is_linear=0
shrinkage=0.05


Tree=107
num_leaves=2
num_cat=0
split_feature=0
split_gain=1.45455
threshold=21093000000.000004
decision_type=2
left_child=-1
right_child=-2
leaf_value=-0.0029421711751744344 0.0014080140823531631
leaf_weight=88 88
leaf_count=88 88
internal_value=0
internal_weight=176
internal_count=176
is_linear=0
shrinkage=0.05


Tree=108
num_leaves=2
num_cat=0
split_feature=13
split_gain=1.15667
threshold=0.12220608045985394
decision_type=2
left_child=-1
right_child=-2
leaf_value=0.0016142479871312379 -0.0017839346067203951
leaf_weight=68 92
leaf_count=68 92
internal_value=0.0009375
internal_weight=160
internal_count=160
is_linear=0
shrinkage=0.05


Tree=109
num_leaves=3
num_cat=0
split_feature=15 3
split_gain=0.553228 0.64
threshold=0.014816480413048548 5170000000.000001
decision_type=2 2
left_child=1 -1
right_child=-2 -3
leaf_value=-0.0022068923979488542 0.0013726475182793347 8.2233259485109408e-05
leaf_weight=50 74 50
leaf_count=50 74 50
internal_value=-0.000574713 -0.003
internal_weight=174 100
internal_count=174 100
is_linear=0
shrinkage=0.05


Tree=110
num_leaves=2
num_cat=0
split_feature=4
split_gain=1.5246
threshold=0.42227260715215115
decision_type=2
left_child=-1
right_child=-2
leaf_value=0.0045715795880345387 -0.0017058253661830212
leaf_weight=95 77
leaf_count=95 77
internal_value=-0.000290698
internal_weight=172
internal_count=172
is_linear=0
shrinkage=0.05


Tree=111
num_leaves=3
num_cat=0
split_feature=7 15
split_gain=1.49727 0.904057
threshold=1.5357348149767647 0.0051886474194974977
decision_type=2 2
left_child=-1 -2
right_child=1 -3
leaf_value=-0.003835443753023983 -0.0017354645210445761 0.002822241693028275
leaf_weight=59 50 56
leaf_count=59 50 56
internal_value=-0.00166667 0.00188679
internal_weight=165 106
internal_count=165 106
is_linear=0
shrinkage=0.05


Tree=112
num_leaves=3
num_cat=0
split_feature=0 3
split_gain=1.62841 0.36
threshold=25047000000.000004 1642500000.0000002
decision_type=2 2
left_child=1 -1
right_child=-2 -3
leaf_value=-0.0014002501574050517 0.0013673156075764915 -0.0047259051960904302
leaf_weight=50 69 50
leaf_count=50 69 50
internal_value=-0.00192308 -0.006
internal_weight=169 100
internal_count=169 100
is_linear=0
shrinkage=0.05


Tree=113
num_leaves=2
num_cat=0
split_feature=4
split_gain=0.816723
threshold=0.42227260715215115
decision_type=2
left_child=-1
right_child=-2
leaf_value=0.0044664070159051855 -0.00054230975648117549
leaf_weight=87 73
leaf_count=87 73
internal_value=0.0021875
internal_weight=160
internal_count=160
is_linear=0
shrinkage=0.05


Tree=114
num_leaves=3
num_cat=0
split_feature=1 7
split_gain=0.528582 0.914204
threshold=4080500000.0000005 1.5907232522608465
decision_type=2 2
left_child=-1 -2
right_child=1 -3
leaf_value=0.0087880372916257395 -0.0029613315157851205 0.0004709434459226336
leaf_weight=53 52 69
leaf_count=53 52 69
internal_value=-0.000862069 -0.00268595
internal_weight=174 121
internal_count=174 121
is_linear=0
shrinkage=0.05


Tree=115
num_leaves=2
num_cat=0
split_feature=13
split_gain=1.95153
threshold=0.11594328363502217
decision_type=2
left_child=-1
right_child=-2
leaf_value=0.0031490728603238791 -0.0021399313001799623
leaf_weight=72 98
leaf_count=72 98
internal_value=0
internal_weight=170
internal_count=170
is_linear=0
shrinkage=0.05


Tree=116
num_leaves=3
num_cat=0
split_feature=15 12
split_gain=0.842384 0.982957
threshold=0.014816480413048548 0.11247082929016018
decision_type=2 2
left_child=1 -1
right_child=-2 -3
leaf_value=9.7690735568477935e-05 0.00232618610667108 -0.0021065755534257526
leaf_weight=56 63 52
leaf_count=56 63 52
internal_value=-0.00102339 -0.0037037
internal_weight=171 108
internal_count=171 108
is_linear=0
shrinkage=0.05


Tree=117
num_leaves=3
num_cat=0
split_feature=13 3
split_gain=1.04589 0.415128
threshold=0.025481616898193175 5170000000.000001
decision_type=2 2
left_child=-1 -2
right_child=1 -3
leaf_value=0.0044875545078159598 -0.0049483869316544141 4.2817280999135622e-05
leaf_weight=52 64 55
leaf_count=52 64 55
internal_value=-0.000146199 -0.00273109
internal_weight=171 119
internal_count=171 119
is_linear=0
shrinkage=0.05


Tree=118
num_leaves=3
num_cat=0
split_feature=13 10
split_gain=0.858755 1.05589
threshold=-0.0045933723504285031 0.24191098399914415
decision_type=2 2
left_child=-1 -2
right_child=1 -3
leaf_value=0.0091712920123219327 -0.0029190286060776557 0.00043898508542253929
leaf_weight=51 66 54
leaf_count=51 66 54
internal_value=-0.00102339 -0.00333333
internal_weight=171 120
internal_count=171 120
is_linear=0
shrinkage=0.05


Tree=119
num_leaves=2
num_cat=0
split_feature=4
split_gain=0.591721
threshold=0.42227260715215115
decision_type=2
left_child=-1
right_child=-2
leaf_value=0.0016549302834202276 -0.0007239394200737715
leaf_weight=99 77
leaf_count=99 77
internal_value=-0.000284091
internal_weight=176
internal_count=176
is_linear=0
shrinkage=0.05


Tree=120
num_leaves=2
num_cat=0
split_feature=3
split_gain=1.20788
threshold=5930500000.000001
decision_type=2
left_child=-1
right_child=-2
leaf_value=-0.002653659279519366 0.00017921521128198283
leaf_weight=89 67
leaf_count=89 67
internal_value=-0.00320513
internal_weight=156
internal_count=156
is_linear=0
shrinkage=0.05


Tree=121
num_leaves=3
num_cat=0
split_feature=11 7
split_gain=1.26023 0.69272
threshold=0.22269461560273615 2.2903631976023617
decision_type=2 2
left_child=-1 -2
right_child=1 -3
leaf_value=-0.0024631455016964803 0.0036687369279214625 -0.00046285375341476937
leaf_weight=53 60 52
leaf_count=53 60 52
internal_value=-0.00166667 0.00133929
internal_weight=165 112
internal_count=165 112
is_linear=0
shrinkage=0.05


Tree=122
num_leaves=2
num_cat=0
split_feature=11
split_gain=0.667073
threshold=0.32432238681619513
decision_type=2
left_child=-1
right_child=-2
leaf_value=0.00046861991569258635 -0.0013870640740836382
leaf_weight=83 75
leaf_count=83 75
internal_value=-0.00158228
internal_weight=158
internal_count=158
is_linear=0
shrinkage=0.05


Tree=123
num_leaves=2
num_cat=0
split_feature=13
split_gain=0.649194
threshold=0.3199046762542555
decision_type=2
left_child=-1
right_child=-2
leaf_value=0.00056405567669782781 -0.0032753949664691404
leaf_weight=96 67
leaf_count=96 67
internal_value=-0.00107362
internal_weight=163
internal_count=163
is_linear=0
shrinkage=0.05


Tree=124
num_leaves=3
num_cat=0
split_feature=11 9
split_gain=1.23855 0.788394
threshold=0.20794245809733322 3783000000.0000005
decision_type=2 2
left_child=-1 -2
right_child=1 -3
leaf_value=-0.0029869143376351549 -0.0012021234538380555 0.0018691161018675158
leaf_weight=50 54 57
leaf_count=50 54 57
internal_value=-0.000465839 0.00247748
internal_weight=161 111
internal_count=161 111
is_linear=0
shrinkage=0.05


Tree=125
num_leaves=3
num_cat=0
split_feature=7 4
split_gain=0.500741 1.42843
threshold=1.5357348149767647 0.66001224373897827
decision_type=2 2
left_child=-1 -2
right_child=1 -3
leaf_value=-0.0029622795012639262 0.0030885104538568133 -0.0013354911522566494
leaf_weight=61 57 50
leaf_count=61 57 50
internal_value=-0.000892857 0.00116822
internal_weight=168 107
internal_count=168 107
is_linear=0
shrinkage=0.05


Tree=126
num_leaves=2
num_cat=0
split_feature=4
split_gain=0.725275
threshold=0.42887060648822484
decision_type=2
left_child=-1
right_child=-2
leaf_value=0.0027485224574736208 -0.0014402330042152856
leaf_weight=91 77
leaf_count=91 77
internal_value=0
internal_weight=168
internal_count=168
is_linear=0
shrinkage=0.05


Tree=127
num_leaves=2
num_cat=0
split_feature=3
split_gain=0.724248
threshold=5930500000.000001
decision_type=2
left_child=-1
right_child=-2
leaf_value=-0.0010090006674122194 0.00098513030394887786
leaf_weight=96 65
leaf_count=96 65
internal_value=0.00015528
internal_weight=161
internal_count=161
is_linear=0
shrinkage=0.05


Tree=128
num_leaves=3
num_cat=0
split_feature=13 10
split_gain=0.678925 0.858238
threshold=0.11594328363502217 0.21599905846306452
decision_type=2 2
left_child=-1 -2
right_child=1 -3
leaf_value=0.0022601966555095125 -0.0027914103911874095 0.0013399517082623262
leaf_weight=69 53 50
leaf_count=69 53 50
internal_value=0.000872093 -0.00169903
internal_weight=172 103
internal_count=172 103
is_linear=0
shrinkage=0.05


Tree=129
num_leaves=3
num_cat=0
split_feature=7 0
split_gain=0.646082 0.392727
threshold=1.4986466002090035 19459000000.000004
decision_type=2 2
left_child=-1 -2
right_child=1 -3
leaf_value=-0.00051469531077218827 -0.00036808244500830813 0.0014636448039864036
leaf_weight=61 60 50
leaf_count=61 60 50
internal_value=0.000438596 0.00272727
internal_weight=171 110
internal_count=171 110
is_linear=0
shrinkage=0.05


Tree=130
num_leaves=3
num_cat=0
split_feature=10 14
split_gain=1.00384 0.480392
threshold=0.25796896433008804 0.0073071426201872522
decision_type=2 2
left_child=1 -1
right_child=-2 -3
leaf_value=-0.0015259070923638652 0.0020740045825347179 0.00010689651620615637
leaf_weight=51 61 51
leaf_count=51 61 51
internal_value=0.00107362 -0.00196078
internal_weight=163 102
internal_count=163 102
is_linear=0
shrinkage=0.05


Tree=131
num_leaves=3
num_cat=0
split_feature=0 15
split_gain=0.509542 0.592775
threshold=34369000000.000008 0.0085825505855413754
decision_type=2 2
left_child=1 -1
right_child=-2 -3
leaf_value=-0.0009322109942095536 -0.00074060498521370951 0.0039308126185755785
leaf_weight=58 55 54
leaf_count=58 55 54
internal_value=-0.000149701 0.00178571
internal_weight=167 112
internal_count=167 112
is_linear=0
shrinkage=0.05


Tree=132
num_leaves=3
num_cat=0
split_feature=4 7
split_gain=0.632426 1.01626
threshold=0.66001224373897827 1.5357348149767647
decision_type=2 2
left_child=1 -1
right_child=-2 -3
leaf_value=-0.0018073050103343319 -0.0017107303254542683 0.0031059083619248101
leaf_weight=58 51 60
leaf_count=58 51 60
internal_value=-0.000739645 0.00127119
internal_weight=169 118
internal_count=169 118
is_linear=0
shrinkage=0.05


Tree=133
num_leaves=3
num_cat=0
split_feature=10 2
split_gain=0.852941 0.480392
threshold=0.25796896433008804 2258000000.0000005
decision_type=2 2
left_child=1 -1
right_child=-2 -3
leaf_value=0.00020944556770517987 0.0022768508149612686 -0.0015363529073762761
leaf_weight=51 72 51
leaf_count=51 72 51
internal_value=0 -0.00294118
internal_weight=174 102
internal_count=174 102
is_linear=0
shrinkage=0.05


Tree=134
num_leaves=3
num_cat=0
split_feature=12 7
split_gain=1.66249 0.909555
threshold=0.10761595618466548 2.0554391835538257
decision_type=2 2
left_child=-1 -2
right_child=1 -3
leaf_value=0.003014888755561529 -0.0041072632091646716 0.00010256860909903798
leaf_weight=59 50 51
leaf_count=59 50 51
internal_value=-0.0003125 -0.00420792
internal_weight=160 101
internal_count=160 101
is_linear=0
shrinkage=0.05


Tree=135
num_leaves=2
num_cat=0
split_feature=4
split_gain=1.05687
threshold=0.42887060648822484
decision_type=2
left_child=-1
right_child=-2
leaf_value=0.0022401713211323087 -0.001581892147026616
leaf_weight=93 70
leaf_count=93 70
internal_value=-0.00107362
internal_weight=163
internal_count=163
is_linear=0
shrinkage=0.05


Tree=136
num_leaves=3
num_cat=0
split_feature=14 13
split_gain=0.836713 0.401828
threshold=-0.0093988438499771603 0.25855114221033143
decision_type=2 2
left_child=-1 -2
right_child=1 -3
leaf_value=-0.0054980031295222545 0.0004881287952703345 -0.0010164498172445594
leaf_weight=59 53 52
leaf_count=59 53 52
internal_value=-0.00243902 0.000238095
internal_weight=164 105
internal_count=164 105
is_linear=0
shrinkage=0.05


Tree=137
num_leaves=2
num_cat=0
split_feature=13
split_gain=0.946049
threshold=0.18597628508694955
decision_type=2
left_child=-1
right_child=-2
leaf_value=0.0010467446046844128 -0.0018425874332995439
leaf_weight=74 92
leaf_count=74 92
internal_value=-0.00150602
internal_weight=166
internal_count=166
is_linear=0
shrinkage=0.05


Tree=138
num_leaves=3
num_cat=0
split_feature=13 4
split_gain=1.60441 0.893394
threshold=0.10544373811863174 0.38573781209216662
decision_type=2 2
left_child=-1 -2
right_child=1 -3
leaf_value=0.0027782988969230478 -0.0087822823879044939 1.2324619738615651e-06
leaf_weight=64 51 52
leaf_count=64 51 52
internal_value=-0.000748503 -0.00461165
internal_weight=167 103
internal_count=167 103
is_linear=0
shrinkage=0.05


Tree=139
num_leaves=3
num_cat=0
split_feature=12 3
split_gain=1.06494 0.88892
threshold=0.20844080075229035 7468000000.000001
decision_type=2 2
left_child=1 -1
right_child=-2 -3
leaf_value=-0.00060450453774156608 -0.0053004946657446697 0.0020478277311589952
leaf_weight=54 62 51
leaf_count=54 62 51
internal_value=-0.000449102 0.00261905
internal_weight=167 105
internal_count=167 105
is_linear=0
shrinkage=0.05


Tree=140
num_leaves=3
num_cat=0
split_feature=14 4
split_gain=0.962502 1.19298
threshold=0.021887680112557487 0.39539242983351935
decision_type=2 2
left_child=1 -1
right_child=-2 -3
leaf_value=0.00028784529823845662 0.0014562516642512597 -0.0020136202472490943
leaf_weight=57 67 51
leaf_count=57 67 51
internal_value=0.000142857 -0.00277778
internal_weight=175 108
internal_count=175 108
is_linear=0
shrinkage=0.05


Tree=141
num_leaves=2
num_cat=0
split_feature=4
split_gain=1.45248
threshold=0.42227260715215115
decision_type=2
left_child=-1
right_child=-2
leaf_value=0.0016130803088000149 -0.001100443665310471
leaf_weight=90 70
leaf_count=90 70
internal_value=-0.0003125
internal_weight=160
internal_count=160
is_linear=0
shrinkage=0.05


Tree=142
num_leaves=3
num_cat=0
split_feature=14 4
split_gain=1.28066 1.05352
threshold=0.019844148891376315 0.38573781209216662
decision_type=2 2
left_child=1 -1
right_child=-2 -3
leaf_value=-0.00064212337141287895 0.0017334352605162633 -0.0020916057608424301
leaf_weight=54 70 53
leaf_count=54 70 53
internal_value=-0.00240113 -0.00584112
internal_weight=177 107
internal_count=177 107
is_linear=0
shrinkage=0.05


Tree=143
num_leaves=2
num_cat=0
split_feature=7
split_gain=0.872063
threshold=1.5907232522608465
decision_type=2
left_child=-1
right_child=-2
leaf_value=-0.0016865273972627159 0.00049567801924445688
leaf_weight=67 98
leaf_count=67 98
internal_value=-0.000454545
internal_weight=165
internal_count=165
is_linear=0
shrinkage=0.05


Tree=144
num_leaves=2
num_cat=0
split_feature=13
split_gain=0.793253
threshold=0.12220608045985394
decision_type=2
left_child=-1
right_child=-2
leaf_value=0.00047669624988387339 -0.00089243203117765624
leaf_weight=73 99
leaf_count=73 99
internal_value=-0.000872093
internal_weight=172
internal_count=172
is_linear=0
shrinkage=0.05


Tree=145
num_leaves=3
num_cat=0
split_feature=12 14
split_gain=1.05151 1.52988
threshold=0.10074636875686706 0.021887680112557487
decision_type=2 2
left_child=-1 -2
right_child=1 -3
leaf_value=0.0027539148827767593 -0.0041189759397242424 0.0003307766686888092
leaf_weight=61 55 53
leaf_count=61 55 53
internal_value=-0.000739645 -0.0037037
internal_weight=169 108
internal_count=169 108
is_linear=0
shrinkage=0.05


Tree=146
num_leaves=2
num_cat=0
split_feature=4
split_gain=1.68034
threshold=0.42887060648822484
decision_type=2
left_child=-1
right_child=-2
leaf_value=0.003076882032751064 -0.001154460987686129
leaf_weight=99 71
leaf_count=99 71
internal_value=0.000588235
internal_weight=170
internal_count=170
is_linear=0
shrinkage=0.05


Tree=147
num_leaves=2
num_cat=0
split_feature=1
split_gain=0.973913
threshold=12765500000.000002
decision_type=2
left_child=-1
right_child=-2
leaf_value=0.0060169394234592223 -0.00043247294533200619
leaf_weight=81 80
leaf_count=81 80
internal_value=-0.00108696
internal_weight=161
internal_count=161
is_linear=0
shrinkage=0.05


Tree=148
num_leaves=3
num_cat=0
split_feature=6 7
split_gain=0.612745 0.480392
threshold=0.19578026842232615 1.7632843861087311
decision_type=2 2
left_child=-1 -2
right_child=1 -3
leaf_value=0.00034267993244910673 -0.0020198152286517658 -0.00014497942983907053
leaf_weight=68 51 51
leaf_count=68 51 51
internal_value=-0.00147059 -0.00392157
internal_weight=170 102
internal_count=170 102
is_linear=0
shrinkage=0.05


Tree=149
num_leaves=3
num_cat=0
split_feature=7 0
split_gain=1.2809 0.900779
threshold=1.5357348149767647 18294000000.000004
decision_type=2 2
left_child=-1 -2
right_child=1 -3
leaf_value=-0.0032825508906953738 -0.00093730225853679093 0.0021014792129521614
leaf_weight=61 55 50
leaf_count=61 55 50
internal_value=-0.00120482 0.00214286
internal_weight=166 105
internal_count=166 105
is_linear=0
shrinkage=0.05


Tree=150
num_leaves=2
num_cat=0
split_feature=0
split_gain=0.643732
threshold=21093000000.000004
decision_type=2
left_child=-1
right_child=-2
leaf_value=-0.00049434919174260459 0.001648238885312913
leaf_weight=91 75
leaf_count=91 75
internal_value=0.000903614
internal_weight=166
internal_count=166
is_linear=0
shrinkage=0.05


Tree=151
num_leaves=3
num_cat=0
split_feature=14 10
split_gain=0.89563 0.627511
threshold=-0.0093988438499771603 0.24191098399914415
decision_type=2 2
left_child=-1 -2
right_child=1 -3
leaf_value=-0.0017191245864109361 -0.00070685164153874713 0.0019109166150726533
leaf_weight=56 61 58
leaf_count=56 61 58
internal_value=-0.000142857 0.00231092
internal_weight=175 119
internal_count=175 119
is_linear=0
shrinkage=0.05


Tree=152
num_leaves=2
num_cat=0
split_feature=11
split_gain=0.832725
threshold=0.31985662810113785
decision_type=2
left_child=-1
right_child=-2
leaf_value=0.0021666138442769157 -0.0013285860585528749
leaf_weight=89 80
leaf_count=89 80
internal_value=-0.00192308
internal_weight=169
internal_count=169
is_linear=0
shrinkage=0.05


Tree=153
num_leaves=2
num_cat=0
split_feature=13
split_gain=0.676192
threshold=0.18597628508694955
decision_type=2
left_child=-1
right_child=-2
leaf_value=0.0014070093486421562 -0.00025808437819197297
leaf_weight=74 89
leaf_count=74 89
internal_value=-0.000153374
internal_weight=163
internal_count=163
is_linear=0
shrinkage=0.05


Tree=154
num_leaves=3
num_cat=0
split_feature=11 9
split_gain=0.722237 0.849033
threshold=0.22269461560273615 3991000000.0000005
decision_type=2 2
left_child=-1 -2
right_child=1 -3
leaf_value=-0.00027076128704085908 -0.00072126074430487678 0.0019879326846309621
leaf_weight=53 64 65
leaf_count=53 64 65
internal_value=-0.000274725 0.00174419
internal_weight=182 129
internal_count=182 129
is_linear=0
shrinkage=0.05


Tree=155
num_leaves=2
num_cat=0
split_feature=11
split_gain=1.19138
threshold=0.29333930101427369
decision_type=2
left_child=-1
right_child=-2
leaf_value=-0.00089874140142210996 0.0011483206906484633
leaf_weight=81 91
leaf_count=81 91
internal_value=-0.00145349
internal_weight=172
internal_count=172
is_linear=0
shrinkage=0.05


Tree=156
num_leaves=3
num_cat=0
split_feature=13 12
split_gain=0.578092 0.698024
threshold=0.11594328363502217 0.22353916482000227
decision_type=2 2
left_child=-1 -2
right_child=1 -3
leaf_value=0.00055960882182885666 -8.9010354318909421e-05 -0.0056225344375288137
leaf_weight=70 50 51
leaf_count=70 50 51
internal_value=-0.00277778 -0.00519802
internal_weight=171 101
internal_count=171 101
is_linear=0
shrinkage=0.05


Tree=157
num_leaves=3
num_cat=0
split_feature=13 11
split_gain=0.676485 1.1961
threshold=-0.0045933723504285031 0.29333930101427369
decision_type=2 2
left_child=-1 -2
right_child=1 -3
leaf_value=0.0024953172925665599 -0.0053414077156523736 0.00027221853863707707
leaf_weight=53 51 72
leaf_count=53 51 72
internal_value=-0.00142045 -0.00345528
internal_weight=176 123
internal_count=176 123
is_linear=0
shrinkage=0.05


Tree=158
num_leaves=3
num_cat=0
split_feature=4 12
split_gain=0.807692 0.919031
threshold=0.42887060648822484 0.2511518069119934
decision_type=2 2
left_child=1 -1
right_child=-2 -3
leaf_value=0.0029585111340164269 -0.00083996422790362036 -0.00040524400408658927
leaf_weight=54 78 50
leaf_count=54 78 50
internal_value=0 0.00288462
internal_weight=182 104
internal_count=182 104
is_linear=0
shrinkage=0.05


Tree=159
num_leaves=2
num_cat=0
split_feature=0
split_gain=0.800001
threshold=21093000000.000004
decision_type=2
left_child=-1
right_child=-2
leaf_value=-0.0011009535426896109 0.00068054744923123911
leaf_weight=86 79
leaf_count=86 79
internal_value=-0.000151515
internal_weight=165
internal_count=165
is_linear=0
shrinkage=0.05


Tree=160
num_leaves=2
num_cat=0
split_feature=4
split_gain=0.814885
threshold=0.41546758929391386
decision_type=2
left_child=-1
right_child=-2
leaf_value=0.0036601911186794887 -0.00054465430105982008
leaf_weight=93 77
leaf_count=93 77
internal_value=0.000882353
internal_weight=170
internal_count=170
is_linear=0
shrinkage=0.05


Tree=161
num_leaves=2
num_cat=0
split_feature=11
split_gain=0.593939
threshold=0.32432238681619513
decision_type=2
left_child=-1
right_child=-2
leaf_value=0.0021116841012159804 -0.00047483244505369606
leaf_weight=96 80
leaf_count=96 80
internal_value=-0.000568182
internal_weight=176
internal_count=176
is_linear=0
shrinkage=0.05


Tree=162
num_leaves=3
num_cat=0
split_feature=1 10
split_gain=0.77575 0.208561
threshold=8897000000.0000019 0.27928748033175377
decision_type=2 2
left_child=-1 -2
right_child=1 -3
leaf_value=0.0030697161996365283 -0.0010210014336509323 -0.0002566401989231401
leaf_weight=73 54 50
leaf_count=73 54 50
internal_value=-0.00155367 -0.00432692
internal_weight=177 104
internal_count=177 104
is_linear=0
shrinkage=0.05


Tree=163
num_leaves=3
num_cat=0
split_feature=13 14
split_gain=0.568639 1.12355
threshold=0.11594328363502217 0.021887680112557487
decision_type=2 2
left_child=-1 -2
right_child=1 -3
leaf_value=9.2178747622459489e-05 -0.0010246956441822637 0.00023966800148245428
leaf_weight=65 53 51
leaf_count=65 53 51
internal_value=-0.00251479 -0.00480769
internal_weight=169 104
internal_count=169 104
is_linear=0
shrinkage=0.05


Tree=164
num_leaves=3
num_cat=0
split_feature=13 14
split_gain=0.757656 0.492274
threshold=0.11594328363502217 0.021887680112557487
decision_type=2 2
left_child=-1 -2
right_child=1 -3
leaf_value=0.0014230628794755903 -0.00083492517437847589 -0.00027764435327976846
leaf_weight=68 51 53
leaf_count=68 51 53
internal_value=-0.00116279 -0.00384615
internal_weight=172 104
internal_count=172 104
is_linear=0
shrinkage=0.05


Tree=165
num_leaves=2
num_cat=0
split_feature=13
split_gain=0.661048
threshold=0.11594328363502217
decision_type=2
left_child=-1
right_child=-2
leaf_value=0.0013343181362101574 -0.00046393504433336761
leaf_weight=69 97
leaf_count=69 97
internal_value=-0.00120482
internal_weight=166
internal_count=166
is_linear=0
shrinkage=0.05


Tree=166
num_leaves=3
num_cat=0
split_feature=11 0
split_gain=0.960882 1.1026
threshold=0.22269461560273615 20510000000.000004
decision_type=2 2
left_child=-1 -2
right_child=1 -3
leaf_value=-0.0012031961135936953 -0.00044191871001881129 0.002190215604523336
leaf_weight=50 68 52
leaf_count=50 68 52
internal_value=-0.00117647 0.00125
internal_weight=170 120
internal_count=170 120
is_linear=0
shrinkage=0.05


Tree=167
num_leaves=2
num_cat=0
split_feature=4
split_gain=1.22267
threshold=0.42227260715215115
decision_type=2
left_child=-1
right_child=-2
leaf_value=0.0024566963330560909 -0.0013982274742673593
leaf_weight=98 73
leaf_count=98 73
internal_value=-0.00160819
internal_weight=171
internal_count=171
is_linear=0
shrinkage=0.05


Tree=168
num_leaves=3
num_cat=0
split_feature=10 1
split_gain=0.612328 0.622058
threshold=0.25796896433008804 4080500000.0000005
decision_type=2 2
left_child=1 -1
right_child=-2 -3
leaf_value=4.8225171333629237e-05 0.0010728929480466624 -0.0013739068549938754
leaf_weight=51 69 56
leaf_count=51 69 56
internal_value=-0.00113636 -0.00350467
internal_weight=176 107
internal_count=176 107
is_linear=0
shrinkage=0.05


Tree=169
num_leaves=3
num_cat=0
split_feature=11 9
split_gain=0.528002 0.536443
threshold=0.26974636789094025 3783000000.0000005
decision_type=2 2
left_child=-1 -2
right_child=1 -3
leaf_value=-0.0019135311844408365 -0.0011356443742802009 0.0012459310008654024
leaf_weight=56 52 53
leaf_count=56 52 53
internal_value=-0.00232919 -0.000238095
internal_weight=161 105
internal_count=161 105
is_linear=0
shrinkage=0.05


Tree=170
num_leaves=3
num_cat=0
split_feature=12 7
split_gain=0.905664 0.435414
threshold=0.10761595618466548 1.9829382333107992
decision_type=2 2
left_child=-1 -2
right_child=1 -3
leaf_value=0.00011551340900019872 -0.003615536929902026 -0.00023410378987276799
leaf_weight=64 54 52
leaf_count=64 54 52
internal_value=-0.00235294 -0.00518868
internal_weight=170 106
internal_count=170 106
is_linear=0
shrinkage=0.05


Tree=171
num_leaves=3
num_cat=0
split_feature=8 14
split_gain=1.05238 0.582165
threshold=0.22522470341902842 0.013988939231562995
decision_type=2 2
left_child=1 -1
right_child=-2 -3
leaf_value=4.5143915439280205e-05 0.0020522323347741817 -0.0036564126100977743
leaf_weight=55 65 50
leaf_count=55 65 50
internal_value=0 -0.00309524
internal_weight=170 105
internal_count=170 105
is_linear=0
shrinkage=0.05


Tree=172
num_leaves=3
num_cat=0
split_feature=14 13
split_gain=0.667925 0.772633
threshold=-0.0093988438499771603 0.30827719301243744
decision_type=2 2
left_child=-1 -2
right_child=1 -3
leaf_value=-0.002141214238703937 0.0014434094083135244 -0.00069869314970910667
leaf_weight=53 61 54
leaf_count=53 61 54
internal_value=-0.0014881 0.000652174
internal_weight=168 115
internal_count=168 115
is_linear=0
shrinkage=0.05


Tree=173
num_leaves=2
num_cat=0
split_feature=4
split_gain=0.981495
threshold=0.42227260715215115
decision_type=2
left_child=-1
right_child=-2
leaf_value=0.0047354101698470694 -0.0006005483837900991
leaf_weight=91 69
leaf_count=91 69
internal_value=-0.0009375
internal_weight=160
internal_count=160
is_linear=0
shrinkage=0.05


Tree=174
num_leaves=3
num_cat=0
split_feature=15 1
split_gain=0.575425 0.25
threshold=0.014816480413048548 13883500000.000002
decision_type=2 2
left_child=1 -1
right_child=-2 -3
leaf_value=-0.0033128434064584947 0.0015238434535588376 -0.00033717291795004188
leaf_weight=50 66 50
leaf_count=50 66 50
internal_value=-0.00210843 -0.0045
internal_weight=166 100
internal_count=166 100
is_linear=0
shrinkage=0.05


Tree=175
num_leaves=2
num_cat=0
split_feature=4
split_gain=0.900916
threshold=0.42887060648822484
decision_type=2
left_child=-1
right_child=-2
leaf_value=0.0026301069586940201 -0.0012927242828484023
leaf_weight=94 70
leaf_count=94 70
internal_value=-0.00213415
internal_weight=164
internal_count=164
is_linear=0
shrinkage=0.05


Tree=176
num_leaves=2
num_cat=0
split_feature=13
split_gain=0.680007
threshold=0.11594328363502217
decision_type=2
left_child=-1
right_child=-2
leaf_value=0.00057980828311680053 -0.00075583960494872491
leaf_weight=75 96
leaf_count=75 96
internal_value=-0.00190058
internal_weight=171
internal_count=171
is_linear=0
shrinkage=0.05


Tree=177
num_leaves=3
num_cat=0
split_feature=7 15
split_gain=0.970769 0.669745
threshold=1.4986466002090035 0.0051886474194974977
decision_type=2 2
left_child=-1 -2
right_child=1 -3
leaf_value=-0.00081219307308910682 -0.000559389299456041 0.0021231726758669535
leaf_weight=57 50 58
leaf_count=57 50 58
internal_value=0.000454545 0.00324074
internal_weight=165 108
internal_count=165 108
is_linear=0
shrinkage=0.05


Tree=178
num_leaves=2
num_cat=0
split_feature=11
split_gain=0.929039
threshold=0.32432238681619513
decision_type=2
left_child=-1
right_child=-2
leaf_value=0.00082297126601104807 -0.0012733727426008563
leaf_weight=86 73
leaf_count=86 73
internal_value=-0.00235849
internal_weight=159
internal_count=159
is_linear=0
shrinkage=0.05


Tree=179
num_leaves=3
num_cat=0
split_feature=3 10
split_gain=1.56792 0.552434
threshold=2054000000.0000002 0.28953788896703742
decision_type=2 2
left_child=-1 -2
right_child=1 -3
leaf_value=0.0080040571338851479 -0.0011654403807589795 -1.6910229883572436e-05
leaf_weight=58 62 57
leaf_count=58 62 57
internal_value=-0.000706215 -0.0039916
internal_weight=177 119
internal_count=177 119
is_linear=0
shrinkage=0.05


Tree=180
num_leaves=2
num_cat=0
split_feature=11
split_gain=1.51912
threshold=0.32432238681619513
decision_type=2
left_child=-1
right_child=-2
leaf_value=0.0022924812061832197 -0.001066595029671033
leaf_weight=94 79
leaf_count=94 79
internal_value=-0.00216763
internal_weight=173
internal_count=173
is_linear=0
shrinkage=0.05


Tree=181
num_leaves=2
num_cat=0
split_feature=15
split_gain=0.818534
threshold=0.0085825505855413754
decision_type=2
left_child=-1
right_child=-2
leaf_value=-0.00072455231166428731 0.0020818773403260037
leaf_weight=94 78
leaf_count=94 78
internal_value=-0.000581395
internal_weight=172
internal_count=172
is_linear=0
shrinkage=0.05


Tree=182
num_leaves=2
num_cat=0
split_feature=8
split_gain=0.675265
threshold=0.16774914937747068
decision_type=2
left_child=-1
right_child=-2
leaf_value=-0.0019115164402937813 0.00015145634495609337
leaf_weight=57 99
leaf_count=57 99
internal_value=-0.00224359
internal_weight=156
internal_count=156
is_linear=0
shrinkage=0.05


Tree=183
num_leaves=2
num_cat=0
split_feature=12
split_gain=0.880684
threshold=0.14473400703685915
decision_type=2
left_child=-1
right_child=-2
leaf_value=0.00052258171637906137 -0.00097090253270785173
leaf_weight=81 88
leaf_count=81 88
internal_value=-0.00221893
internal_weight=169
internal_count=169
is_linear=0
shrinkage=0.05


Tree=184
num_leaves=2
num_cat=0
split_feature=15
split_gain=0.939522
threshold=0.014816480413048548
decision_type=2
left_child=-1
right_child=-2
leaf_value=-0.00096424666819351884 0.0016424061750880321
leaf_weight=98 75
leaf_count=98 75
internal_value=-0.00187861
internal_weight=173
internal_count=173
is_linear=0
shrinkage=0.05


Tree=185
num_leaves=3
num_cat=0
split_feature=13 11
split_gain=1.3418 0.895674
threshold=-0.024649020069296586 0.29333930101427369
decision_type=2 2
left_child=-1 -2
right_child=1 -3
leaf_value=0.002517985719179161 -0.0050755991074283961 -0.00045807630009858658
leaf_weight=51 51 69
leaf_count=51 51 69
internal_value=-0.00336257 -0.00625
internal_weight=171 120
internal_count=171 120
is_linear=0
shrinkage=0.05


Tree=186
num_leaves=2
num_cat=0
split_feature=3
split_gain=0.517635
threshold=5930500000.000001
decision_type=2
left_child=-1
right_child=-2
leaf_value=-0.00075568207988231802 0.00093143964414482423
leaf_weight=94 71
leaf_count=94 71
internal_value=-0.000757576
internal_weight=165
internal_count=165
is_linear=0
shrinkage=0.05


Tree=187
num_leaves=3
num_cat=0
split_feature=1 5
split_gain=0.874197 0.661433
threshold=4080500000.0000005 0.30130899262722494
decision_type=2 2
left_child=-1 -2
right_child=1 -3
leaf_value=0.0091750442787966943 -0.00071424112374938455 0.00037559769687542518
leaf_weight=50 55 66
leaf_count=50 55 66
internal_value=0.000438596 -0.0018595
internal_weight=171 121
internal_count=171 121
is_linear=0
shrinkage=0.05


Tree=188
num_leaves=3
num_cat=0
split_feature=13 14
split_gain=0.615005 0.794118
threshold=0.11594328363502217 0.021887680112557487
decision_type=2 2
left_child=-1 -2
right_child=1 -3
leaf_value=0.0021434102994527071 -0.0032249562240242976 8.093580070776818e-05
leaf_weight=66 51 51
leaf_count=66 51 51
internal_value=-0.0014881 -0.00392157
internal_weight=168 102
internal_count=168 102
is_linear=0
shrinkage=0.05


Tree=189
num_leaves=2
num_cat=0
split_feature=4
split_gain=0.682828
threshold=0.43521299677761621
decision_type=2
left_child=-1
right_child=-2
leaf_value=0.0020613292348119817 -0.00077059902224190175
leaf_weight=99 66
leaf_count=99 66
internal_value=-0.00136364
internal_weight=165
internal_count=165
is_linear=0
shrinkage=0.05


Tree=190
num_leaves=3
num_cat=0
split_feature=0 14
split_gain=0.588082 0.447885
threshold=34369000000.000008 0.0090231182084925827
decision_type=2 2
left_child=1 -1
right_child=-2 -3
leaf_value=-0.00082890655562783001 -0.00048376621985690292 0.0021518318763340651
leaf_weight=58 50 63
leaf_count=58 50 63
internal_value=-0.000438596 0.00144628
internal_weight=171 121
internal_count=171 121
is_linear=0
shrinkage=0.05


Tree=191
num_leaves=3
num_cat=0
split_feature=11 15
split_gain=1.01162 1.16802
threshold=0.22269461560273615 0.0051886474194974977
decision_type=2 2
left_child=-1 -2
right_child=1 -3
leaf_value=-0.0017135841500876131 -0.001347640481142081 0.0019078237430889934
leaf_weight=54 52 68
leaf_count=54 52 68
internal_value=-0.00172414 0.000833333
internal_weight=174 120
internal_count=174 120
is_linear=0
shrinkage=0.05


Tree=192
num_leaves=3
num_cat=0
split_feature=11 0
split_gain=0.641245 1.54254
threshold=0.22269461560273615 20361000000.000004
decision_type=2 2
left_child=-1 -2
right_child=1 -3
leaf_value=-0.00048655716819712147 -0.0012816818246602357 0.0033221334130601634
leaf_weight=51 71 50
leaf_count=51 71 50
internal_value=0.000290698 0.00227273
internal_weight=172 121
internal_count=172 121
is_linear=0
shrinkage=0.05


Tree=193
num_leaves=3
num_cat=0
split_feature=15 12
split_gain=0.600278 0.805999
threshold=0.014816480413048548 0.11247082929016018
decision_type=2 2
left_child=1 -1
right_child=-2 -3
leaf_value=0.0015873537565362986 0.0007238455582125339 -0.0017555704074240321
leaf_weight=53 70 51
leaf_count=53 70 51
internal_value=-0.00143678 -0.00384615
internal_weight=174 104
internal_count=174 104
is_linear=0
shrinkage=0.05


Tree=194
num_leaves=3
num_cat=0
split_feature=10 14
split_gain=1.01641 0.781385
threshold=0.25796896433008804 0.0073071426201872522
decision_type=2 2
left_child=1 -1
right_child=-2 -3
leaf_value=-0.0023199857216032768 0.0014575276223331936 -8.739726747733629e-05
leaf_weight=55 67 50
leaf_count=55 67 50
internal_value=-0.00145349 -0.00452381
internal_weight=172 105
internal_count=172 105
is_linear=0
shrinkage=0.05


Tree=195
num_leaves=2
num_cat=0
split_feature=11
split_gain=0.473803
threshold=0.29333930101427369
decision_type=2
left_child=-1
right_child=-2
leaf_value=-0.00066571388021653558 0.00034804843694480548
leaf_weight=77 98
leaf_count=77 98
internal_value=-0.00128571
internal_weight=175
internal_count=175
is_linear=0
shrinkage=0.05


Tree=196
num_leaves=3
num_cat=0
split_feature=0 15
split_gain=0.825689 0.480327
threshold=34369000000.000008 0.0085825505855413754
decision_type=2 2
left_child=1 -1
right_child=-2 -3
leaf_value=-0.001207237300814848 -0.0007294726341080999 0.0020624095982505115
leaf_weight=50 55 59
leaf_count=50 55 59
internal_value=-0.000914634 0.0016055
internal_weight=164 109
internal_count=164 109
is_linear=0
shrinkage=0.05


Tree=197
num_leaves=2
num_cat=0
split_feature=11
split_gain=0.597244
threshold=0.32432238681619513
decision_type=2
left_child=-1
right_child=-2
leaf_value=0.0016425420546899772 -0.00053706895126077179
leaf_weight=85 79
leaf_count=85 79
internal_value=0.000914634
internal_weight=164
internal_count=164
is_linear=0
shrinkage=0.05


Tree=198
num_leaves=3
num_cat=0
split_feature=13 10
split_gain=0.809609 0.509366
threshold=-0.024649020069296586 0.24191098399914415
decision_type=2 2
left_child=-1 -2
right_child=1 -3
leaf_value=0.0024995255311754923 -0.0048178172685690223 0.00063403601937499362
leaf_weight=51 66 55
leaf_count=51 66 55
internal_value=-0.000872093 -0.00309917
internal_weight=172 121
internal_count=172 121
is_linear=0
shrinkage=0.05


Tree=199
num_leaves=2
num_cat=0
split_feature=4
split_gain=0.712089
threshold=0.42887060648822484
decision_type=2
left_child=-1
right_child=-2
leaf_value=0.0010316086245736767 -0.0011730335736073615
leaf_weight=97 78
leaf_count=97 78
internal_value=-0.00157143
internal_weight=175
internal_count=175
is_linear=0
shrinkage=0.05


Tree=200
num_leaves=3
num_cat=0
split_feature=8 7
split_gain=0.786681 0.49
threshold=0.22522470341902842 2.1030473749088348
decision_type=2 2
left_child=1 -1
right_child=-2 -3
leaf_value=-0.0044003773712100744 0.00068325902850415116 -0.00025639398699419394
leaf_weight=50 68 50
leaf_count=50 68 50
internal_value=-0.00267857 -0.0055
internal_weight=168 100
internal_count=168 100
is_linear=0
shrinkage=0.05


Tree=201
num_leaves=2
num_cat=0
split_feature=10
split_gain=0.646923
threshold=0.20862850371419506
decision_type=2
left_child=-1
right_child=-2
leaf_value=0.0019697442527157496 -0.00041140189703170742
leaf_weight=75 81
leaf_count=75 81
internal_value=0.000320513
internal_weight=156
internal_count=156
is_linear=0
shrinkage=0.05


Tree=202
num_leaves=3
num_cat=0
split_feature=14 1
split_gain=0.771717 0.982186
threshold=-0.0093988438499771603 11931000000.000002
decision_type=2 2
left_child=-1 -2
right_child=1 -3
leaf_value=-0.0012296901209814472 0.0086314326539391785 -0.00061122162952724219
leaf_weight=55 51 61
leaf_count=55 51 61
internal_value=-0.000149701 0.00223214
internal_weight=167 112
internal_count=167 112
is_linear=0
shrinkage=0.05


Tree=203
num_leaves=2
num_cat=0
split_feature=10
split_gain=0.629021
threshold=0.20862850371419506
decision_type=2
left_child=-1
right_child=-2
leaf_value=0.0020730025247360563 -0.00024090371028726438
leaf_weight=81 89
leaf_count=81 89
internal_value=0.00205882
internal_weight=170
internal_count=170
is_linear=0
shrinkage=0.05


Tree=204
num_leaves=2
num_cat=0
split_feature=4
split_gain=0.794411
threshold=0.42227260715215115
decision_type=2
left_child=-1
right_child=-2
leaf_value=0.0038113949186289902 -0.00096267675455743995
leaf_weight=86 77
leaf_count=86 77
internal_value=0.000766871
internal_weight=163
internal_count=163
is_linear=0
shrinkage=0.05


Tree=205
num_leaves=3
num_cat=0
split_feature=0 7
split_gain=0.640057 0.759278
threshold=12250000000.000002 1.6905822878953722
decision_type=2 2
left_child=-1 -2
right_child=1 -3
leaf_value=0.0052181900456467201 -0.0028380091824566829 0.00043128228109138997
leaf_weight=59 53 61
leaf_count=59 53 61
internal_value=0.000433526 -0.00175439
internal_weight=173 114
internal_count=173 114
is_linear=0
shrinkage=0.05


Tree=206
num_leaves=2
num_cat=0
split_feature=11
split_gain=0.74876
threshold=0.31985662810113785
decision_type=2
left_child=-1
right_child=-2
leaf_value=0.00032320201861060218 -0.0013771019224734671
leaf_weight=91 88
leaf_count=91 88
internal_value=-0.00125698
internal_weight=179
internal_count=179
is_linear=0
shrinkage=0.05


Tree=207
num_leaves=3
num_cat=0
split_feature=14 7
split_gain=0.604228 0.475955
threshold=-0.0093988438499771603 1.720839222702939
decision_type=2 2
left_child=-1 -2
right_child=1 -3
leaf_value=-0.0013556332955509259 -0.0001756515087887045 0.0014112725121778942
leaf_weight=58 55 60
leaf_count=58 55 60
internal_value=-0.00101156 0.00108696
internal_weight=173 115
internal_count=173 115
is_linear=0
shrinkage=0.05


Tree=208
num_leaves=3
num_cat=0
split_feature=11 3
split_gain=0.787276 0.860094
threshold=0.22269461560273615 4529000000.000001
decision_type=2 2
left_child=-1 -2
right_child=1 -3
leaf_value=-0.00084063773332227062 -0.0015661004208319411 0.001877839568301537
leaf_weight=50 66 51
leaf_count=50 66 51
internal_value=-0.000748503 0.00149573
internal_weight=167 117
internal_count=167 117
is_linear=0
shrinkage=0.05


Tree=209
num_leaves=3
num_cat=0
split_feature=13 5
split_gain=0.767816 0.891659
threshold=0.11594328363502217 0.25256076626904461
decision_type=2 2
left_child=-1 -2
right_child=1 -3
leaf_value=0.001756055758690778 -0.007668540651987874 0.0001848338828669534
leaf_weight=74 51 56
leaf_count=74 51 56
internal_value=0.000138122 -0.00257009
internal_weight=181 107
internal_count=181 107
is_linear=0
shrinkage=0.05


Tree=210
num_leaves=2
num_cat=0
split_feature=13
split_gain=0.57925
threshold=0.11594328363502217
decision_type=2
left_child=-1
right_child=-2
leaf_value=0.0013898916872388937 -0.00068346263147770208
leaf_weight=71 96
leaf_count=71 96
internal_value=0.000449102
internal_weight=167
internal_count=167
is_linear=0
shrinkage=0.05


Tree=211
num_leaves=3
num_cat=0
split_feature=12 11
split_gain=0.987672 1.57214
threshold=0.10761595618466548 0.37115427550215158
decision_type=2 2
left_child=-1 -2
right_child=1 -3
leaf_value=0.00159186825281816 -0.0048527877009346817 0.0012667324404492864
leaf_weight=59 59 50
leaf_count=59 59 50
internal_value=0.000297619 -0.00252294
internal_weight=168 109
internal_count=168 109
is_linear=0
shrinkage=0.05


Tree=212
num_leaves=2
num_cat=0
split_feature=4
split_gain=0.979479
threshold=0.42887060648822484
decision_type=2
left_child=-1
right_child=-2
leaf_value=0.0037141140348649093 -0.0012101463913353457
leaf_weight=98 75
leaf_count=98 75
internal_value=0.00130058
internal_weight=173
internal_count=173
is_linear=0
shrinkage=0.05


Tree=213
num_leaves=3
num_cat=0
split_feature=3 7
split_gain=0.778894 0.701144
threshold=10677500000.000002 1.7791074358223413
decision_type=2 2
left_child=1 -1
right_child=-2 -3
leaf_value=0.0015533863242685082 -0.0011735343443050328 -0.001261373048897411
leaf_weight=52 50 70
leaf_count=52 50 70
internal_value=-0.00174419 0.000409836
internal_weight=172 122
internal_count=172 122
is_linear=0
shrinkage=0.05


Tree=214
num_leaves=2
num_cat=0
split_feature=3
split_gain=1.29209
threshold=5930500000.000001
decision_type=2
left_child=-1
right_child=-2
leaf_value=-0.0016580040056744913 0.0015241582816007738
leaf_weight=93 78
leaf_count=93 78
internal_value=0.00102339
internal_weight=171
internal_count=171
is_linear=0
shrinkage=0.05


Tree=215
num_leaves=2
num_cat=0
split_feature=13
split_gain=0.466523
threshold=0.11594328363502217
decision_type=2
left_child=-1
right_child=-2
leaf_value=0.00096168564028141577 -0.0011627783334037494
leaf_weight=72 95
leaf_count=72 95
internal_value=-0.00164671
internal_weight=167
internal_count=167
is_linear=0
shrinkage=0.05


Tree=216
num_leaves=2
num_cat=0
split_feature=11
split_gain=1.03688
threshold=0.32432238681619513
decision_type=2
left_child=-1
right_child=-2
leaf_value=0.0021339333041467067 -0.0010596557260883321
leaf_weight=88 83
leaf_count=88 83
internal_value=0.00190058
internal_weight=171
internal_count=171
is_linear=0
shrinkage=0.05


Tree=217
num_leaves=3
num_cat=0
split_feature=15 0
split_gain=0.531427 0.209246
threshold=0.019126019775373777 23323000000.000004
decision_type=2 2
left_child=1 -1
right_child=-2 -3
leaf_value=-0.0014715718012238658 0.00042981030022118117 -0.0011657599683387754
leaf_weight=58 59 50
leaf_count=58 59 50
internal_value=-0.00254491 -0.00462963
internal_weight=167 108
internal_count=167 108
is_linear=0
shrinkage=0.05


Tree=218
num_leaves=3
num_cat=0
split_feature=10 10
split_gain=0.715689 0.581202
threshold=0.29941952904473207 0.17214462748486267
decision_type=2 2
left_child=1 -1
right_child=-2 -3
leaf_value=-0.0010514318473335976 0.0016378084043244139 -0.0017519439448113003
leaf_weight=60 52 53
leaf_count=60 52 53
internal_value=-0.0019697 -0.00420354
internal_weight=165 113
internal_count=165 113
is_linear=0
shrinkage=0.05


Tree=219
num_leaves=2
num_cat=0
split_feature=15
split_gain=0.562549
threshold=0.014816480413048548
decision_type=2
left_child=-1
right_child=-2
leaf_value=-0.0013345333875640652 0.00071076386204655957
leaf_weight=82 75
leaf_count=82 75
internal_value=-0.000796178
internal_weight=157
internal_count=157
is_linear=0
shrinkage=0.05


Tree=220
num_leaves=3
num_cat=0
split_feature=15 1
split_gain=0.499113 0.618576
threshold=-0.0019309256020392932 12765500000.000002
decision_type=2 2
left_child=-1 -2
right_child=1 -3
leaf_value=-0.0010504710831995918 0.0021603312829260994 -0.00072963027992053184
leaf_weight=63 51 53
leaf_count=63 51 53
internal_value=-0.00164671 0.000480769
internal_weight=167 104
internal_count=167 104
is_linear=0
shrinkage=0.05


Tree=221
num_leaves=2
num_cat=0
split_feature=13
split_gain=0.617264
threshold=0.12220608045985394
decision_type=2
left_child=-1
right_child=-2
leaf_value=0.00083112777526830753 -0.00092181265212414325
leaf_weight=73 97
leaf_count=73 97
internal_value=0.000294118
internal_weight=170
internal_count=170
is_linear=0
shrinkage=0.05


Tree=222
num_leaves=2
num_cat=0
split_feature=15
split_gain=0.435205
threshold=0.014816480413048548
decision_type=2
left_child=-1
right_child=-2
leaf_value=-0.00089760292973011739 0.0014053226612602333
leaf_weight=96 75
leaf_count=96 75
internal_value=0.000146199
internal_weight=171
internal_count=171
is_linear=0
shrinkage=0.05


Tree=223
num_leaves=3
num_cat=0
split_feature=11 13
split_gain=1.07907 0.64
threshold=0.32432238681619513 0.16524475811447217
decision_type=2 2
left_child=1 -1
right_child=-2 -3
leaf_value=0.0032131394286719784 -0.00091989216332582125 -1.4916760361403632e-05
leaf_weight=50 78 50
leaf_count=50 78 50
internal_value=0.000561798 0.004
internal_weight=178 100
internal_count=178 100
is_linear=0
shrinkage=0.05


Tree=224
num_leaves=3
num_cat=0
split_feature=14 3
split_gain=0.556176 0.124407
threshold=0.019844148891376315 5702500000.000001
decision_type=2 2
left_child=1 -1
right_child=-2 -3
leaf_value=-0.0011869341483111827 0.0017127965905189696 -1.2543438540156549e-05
leaf_weight=50 70 51
leaf_count=50 70 51
internal_value=0.000146199 -0.00222772
internal_weight=171 101
internal_count=171 101
is_linear=0
shrinkage=0.05


Tree=225
num_leaves=2
num_cat=0
split_feature=5
split_gain=1.00815
threshold=0.25678310723115289
decision_type=2
left_child=-1
right_child=-2
leaf_value=0.0025366193500074631 -0.00073464763011827641
leaf_weight=66 91
leaf_count=66 91
internal_value=-0.000159236
internal_weight=157
internal_count=157
is_linear=0
shrinkage=0.05


Tree=226
num_leaves=3
num_cat=0
split_feature=14 12
split_gain=0.677458 0.569555
threshold=0.021887680112557487 0.10761595618466548
decision_type=2 2
left_child=1 -1
right_child=-2 -3
leaf_value=-9.1890492063101409e-05 0.0010892022632393334 -0.00381520017870139
leaf_weight=51 60 50
leaf_count=51 60 50
internal_value=-0.00170807 -0.00420792
internal_weight=161 101
internal_count=161 101
is_linear=0
shrinkage=0.05


Tree=227
num_leaves=3
num_cat=0
split_feature=0 15
split_gain=0.612748 1.24138
threshold=34369000000.000008 0.0085825505855413754
decision_type=2 2
left_child=1 -1
right_child=-2 -3
leaf_value=-0.0010749594671237417 -0.00070424538375787329 0.002670399260121937
leaf_weight=58 52 58
leaf_count=58 52 58
internal_value=-0.000297619 0.00172414
internal_weight=168 116
internal_count=168 116
is_linear=0
shrinkage=0.05


Tree=228
num_leaves=3
num_cat=0
split_feature=4 2
split_gain=0.79806 0.117554
threshold=0.42887060648822484 2034000000.0000002
decision_type=2 2
left_child=1 -1
right_child=-2 -3
leaf_value=0.0065529982958384084 -0.00080965686376473992 0.00035803968914511347
leaf_weight=51 72 50
leaf_count=51 72 50
internal_value=-0.000144509 0.00272277
internal_weight=173 101
internal_count=173 101
is_linear=0
shrinkage=0.05


Tree=229
num_leaves=2
num_cat=0
split_feature=11
split_gain=1.0656
threshold=0.32432238681619513
decision_type=2
left_child=-1
right_child=-2
leaf_value=0.00059636816979149988 -0.0010113959803680545
leaf_weight=91 77
leaf_count=91 77
internal_value=-0.00119048
internal_weight=168
internal_count=168
is_linear=0
shrinkage=0.05


Tree=230
num_leaves=2
num_cat=0
split_feature=13
split_gain=1.00446
threshold=0.11594328363502217
decision_type=2
left_child=-1
right_child=-2
leaf_value=0.0016263357624805776 -0.000869065584325747
leaf_weight=72 96
leaf_count=72 96
internal_value=-0.000297619
internal_weight=168
internal_count=168
is_linear=0
shrinkage=0.05


Tree=231
num_leaves=2
num_cat=0
split_feature=4
split_gain=0.899476
threshold=0.42227260715215115
decision_type=2
left_child=-1
right_child=-2
leaf_value=0.0010115431079942422 -0.00081825460230264832
leaf_weight=91 77
leaf_count=91 77
internal_value=-0.000892857
internal_weight=168
internal_count=168
is_linear=0
shrinkage=0.05


Tree=232
num_leaves=3
num_cat=0
split_feature=15 1
split_gain=0.643131 0.690974
threshold=-0.0019309256020392932 11564000000.000002
decision_type=2 2
left_child=-1 -2
right_child=1 -3
leaf_value=-0.0017409742153386013 0.0034532116132808322 -0.00067096214613818694
leaf_weight=66 51 54
leaf_count=66 51 54
internal_value=-0.00219298 0.000238095
internal_weight=171 105
internal_count=171 105
is_linear=0
shrinkage=0.05


Tree=233
num_leaves=2
num_cat=0
split_feature=15
split_gain=0.976732
threshold=0.0079726891861795022
decision_type=2
left_child=-1
right_child=-2
leaf_value=-0.00085328582645174131 0.0016598651986477115
leaf_weight=88 77
leaf_count=88 77
internal_value=0.000757576
internal_weight=165
internal_count=165
is_linear=0
shrinkage=0.05


Tree=234
num_leaves=3
num_cat=0
split_feature=13 4
split_gain=0.567081 0.291501
threshold=0.12220608045985394 0.39539242983351935
decision_type=2 2
left_child=-1 -2
right_child=1 -3
leaf_value=0.0009507585677846174 -0.0031370887464951484 -0.00037333266629517304
leaf_weight=70 51 50
leaf_count=70 51 50
internal_value=-0.00131579 -0.00371287
internal_weight=171 101
internal_count=171 101
is_linear=0
shrinkage=0.05


Tree=235
num_leaves=3
num_cat=0
split_feature=13 0
split_gain=0.693704 0.561055
threshold=-0.024649020069296586 21093000000.000004
decision_type=2 2
left_child=-1 -2
right_child=1 -3
leaf_value=0.0014235213689699558 -0.0030840412670537277 7.5639425151485806e-05
leaf_weight=50 64 63
leaf_count=50 64 63
internal_value=-0.000988701 -0.00295276
internal_weight=177 127
internal_count=177 127
is_linear=0
shrinkage=0.05


Tree=236
num_leaves=3
num_cat=0
split_feature=10 2
split_gain=0.541023 1.04925
threshold=0.29941952904473207 2515500000.0000005
decision_type=2 2
left_child=1 -1
right_child=-2 -3
leaf_value=0.004554474075595269 0.0016466440814467611 -0.00092933553196688232
leaf_weight=52 50 58
leaf_count=52 50 58
internal_value=-0.0003125 -0.00227273
internal_weight=160 110
internal_count=160 110
is_linear=0
shrinkage=0.05


Tree=237
num_leaves=3
num_cat=0
split_feature=5 14
split_gain=0.988427 0.333674
threshold=0.30513695083258185 1.0000000180025095e-35
decision_type=2 2
left_child=1 -1
right_child=-2 -3
leaf_value=-0.0043404209199312668 0.00084608116451259099 -1.9414990300359315e-05
leaf_weight=58 61 51
leaf_count=58 61 51
internal_value=-0.000588235 -0.00344037
internal_weight=170 109
internal_count=170 109
is_linear=0
shrinkage=0.05


Tree=238
num_leaves=2
num_cat=0
split_feature=3
split_gain=0.459559
threshold=5170000000.000001
decision_type=2
left_child=-1
right_child=-2
leaf_value=-0.001165699991610246 0.00022157354151194003
leaf_weight=90 80
leaf_count=90 80
internal_value=-0.000882353
internal_weight=170
internal_count=170
is_linear=0
shrinkage=0.05


Tree=239
num_leaves=2
num_cat=0
split_feature=3
split_gain=1.03226
threshold=5448000000.000001
decision_type=2
left_child=-1
right_child=-2
leaf_value=-0.0018327341710777324 0.00079269842921136371
leaf_weight=93 77
leaf_count=93 77
internal_value=0.000588235
internal_weight=170
internal_count=170
is_linear=0
shrinkage=0.05


Tree=240
num_leaves=2
num_cat=0
split_feature=12
split_gain=0.882338
threshold=0.14473400703685915
decision_type=2
left_child=-1
right_child=-2
leaf_value=0.0011446430752291986 -0.0007877985694099976
leaf_weight=69 87
leaf_count=69 87
internal_value=-0.000961538
internal_weight=156
internal_count=156
is_linear=0
shrinkage=0.05


Tree=241
num_leaves=3
num_cat=0
split_feature=10 10
split_gain=0.532292 0.579153
threshold=0.17214462748486267 0.28953788896703742
decision_type=2 2
left_child=-1 -2
right_child=1 -3
leaf_value=0.00097892729501570098 -0.0012168334194251037 0.0015431699156328443
leaf_weight=67 55 53
leaf_count=67 55 53
internal_value=-0.000142857 -0.00231481
internal_weight=175 108
internal_count=175 108
is_linear=0
shrinkage=0.05


Tree=242
num_leaves=2
num_cat=0
split_feature=10
split_gain=0.555322
threshold=0.20862850371419506
decision_type=2
left_child=-1
right_child=-2
leaf_value=0.001148252592438992 -0.00054063513886164628
leaf_weight=79 86
leaf_count=79 86
internal_value=0.000454545
internal_weight=165
internal_count=165
is_linear=0
shrinkage=0.05


Tree=243
num_leaves=3
num_cat=0
split_feature=0 1
split_gain=0.444425 0.590342
threshold=12250000000.000002 19430000000.000004
decision_type=2 2
left_child=-1 -2
right_child=1 -3
leaf_value=0.0025260447802053112 -0.00074913073311931241 0.00015269604710109583
leaf_weight=60 61 52
leaf_count=60 61 52
internal_value=-0.000144509 -0.00199115
internal_weight=173 113
internal_count=173 113
is_linear=0
shrinkage=0.05


Tree=244
num_leaves=3
num_cat=0
split_feature=15 1
split_gain=0.400684 0.55185
threshold=-0.0019309256020392932 12765500000.000002
decision_type=2 2
left_child=-1 -2
right_child=1 -3
leaf_value=-0.00071167419646334671 0.0034327441446060734 -0.00037775960032920695
leaf_weight=71 51 50
leaf_count=71 51 50
internal_value=-0.000290698 0.00173267
internal_weight=172 101
internal_count=172 101
is_linear=0
shrinkage=0.05


Tree=245
num_leaves=3
num_cat=0
split_feature=11 5
split_gain=0.512121 0.52163
threshold=0.45575186781438387 0.25678310723115289
decision_type=2 2
left_child=1 -1
right_child=-2 -3
leaf_value=5.0066971082107783e-05 0.00078675915826082745 -0.0030029838283995788
leaf_weight=52 55 58
leaf_count=52 55 58
internal_value=-0.00166667 -0.00363636
internal_weight=165 110
internal_count=165 110
is_linear=0
shrinkage=0.05


Tree=246
num_leaves=2
num_cat=0
split_feature=11
split_gain=0.981102
threshold=0.32432238681619513
decision_type=2
left_child=-1
right_child=-2
leaf_value=0.0016815956690443225 -0.00063965682624851433
leaf_weight=99 78
leaf_count=99 78
internal_value=0.000988701
internal_weight=177
internal_count=177
is_linear=0
shrinkage=0.05


Tree=247
num_leaves=3
num_cat=0
split_feature=10 7
split_gain=0.73373 0.390414
threshold=0.17214462748486267 1.8514449135978739
decision_type=2 2
left_child=-1 -2
right_child=1 -3
leaf_value=0.0051802410108557802 -0.0014081737599705617 0.00077940404166021166
leaf_weight=63 54 51
leaf_count=63 54 51
internal_value=0.000892857 -0.00166667
internal_weight=168 105
internal_count=168 105
is_linear=0
shrinkage=0.05


Tree=248
num_leaves=2
num_cat=0
split_feature=11
split_gain=1.03009
threshold=0.32432238681619513
decision_type=2
left_child=-1
right_child=-2
leaf_value=0.0013590993847800307 -0.00078102383960956953
leaf_weight=92 76
leaf_count=92 76
internal_value=-0.000297619
internal_weight=168
internal_count=168
is_linear=0
shrinkage=0.05


Tree=249
num_leaves=2
num_cat=0
split_feature=4
split_gain=0.495139
threshold=0.42887060648822484
decision_type=2
left_child=-1
right_child=-2
leaf_value=0.00072862898290093842 -0.00058298773993402115
leaf_weight=93 73
leaf_count=93 73
internal_value=0
internal_weight=166
internal_count=166
is_linear=0
shrinkage=0.05


Tree=250
num_leaves=3
num_cat=0
split_feature=10 15
split_gain=0.487375 0.354201
threshold=0.30437720506483318 0.0070534446968245701
decision_type=2 2
left_child=1 -1
right_child=-2 -3
leaf_value=-0.0032763136927945152 0.0014305424320449874 -0.00033143690439717548
leaf_weight=56 53 51
leaf_count=56 53 51
