tree
version=v4
num_class=1
num_tree_per_iteration=1
label_index=0
max_feature_idx=15
objective=quantile
feature_names=Column_0 Column_1 Column_2 Column_3 Column_4 Column_5 Column_6 Column_7 Column_8 Column_9 Column_10 Column_11 Column_12 Column_13 Column_14 Column_15
feature_infos=[26653000:123945000000] [-8761000:54855000000] [-2053000000:41488000000] [-6302000000:34630000000] [-0.17485629889829155:0.87136844266502411] [-3.9836040970997635:0.47587451563246458] [-3.962143098337898:0.45247920206545006] [0.7329101505880633:4.4928622067084438] [0:0.51188676890223028] [-2535000000:44163000000] [-4.5873635238059505:0.50812891365542601] [0.07602826373788743:0.71758199847444704] [-0.54181636898110741:17.622733450459112] [-29.310448852728769:9.9807692307692299] [-2.9738397815473405:3.9587114059493187] [-2.9495595085766766:3.8868553575871929]
tree_sizes=319 414 325 414 327 411 325 326 327 413 327 329 328 412 325 328 414 414 411 326 414 414 413 414 415 415 327 418 412 409 326 415 411 329 327 331 329 326 328 410 416 329 413 415 326 413 412 417 325 330 410 326 414 406 414 413 329 414 414 330 418 414 325 328 415 328 418 413 325 326 413 327 325 328 418 333 330 327 331 326 328 413 329 326 416 329 412 329 415 414 408 412 413 332 331 415 418 329 329 410 417 419 416 329 417 328 327 416 326 332 331 413 327 325 417 334 331 418 334 416 328 417 331 333 416 415 328 417 329 420 328 415 329 420 327 333 418 411 330 412 416 417 414 328 406 419 330 333 330 405 330 417 413 415 414 331 415 405 416 413 416 318 416 334 419 330 417 417 414 331 417 329 404 329 328 419 423 326 332 420 415 328 330 418 333 416 404 330 329 330 418 414 327 414 417 421 329 328 330 329 421 331 418 331 327 408 421 416 416 333 327 416 331 415 417 330 331 423 333 327 330 404 413 415 415 331 330 333 419 335 418 332 331 334 416 417 330 422 330 331 421 420 422 422 334 419 420 419 330 418 408 421 419 421 416 330 329 330 420 328 406 333 417 412 329 332 418 332 332 412 329 330 417 422 418 331 420 329 333 419 329 419 332 420 333 331 420 324 331 331 418 413 418 414 332 413 416 414 334 416 420 331 420 415 416 415 334 331 421 332 329 318 420 331 417 418 320 414 330 328 415 420 417 421 331 332 331 334 332 402 419 329 416 332 415 328 418 417 331 333 328 419 328 424 419 418 420 330 332 415 419 412 414 412 330 404 328 331 419 331 419 328 418 418 330 417 413 414 418 329 331 330 329 405 416 410 418 417 419 416 417 420 332 418 420 420 407 332 420 418 417 335 417 332 418 418 419 420 416 330 415 416 415 415 415 330 416 417 420 416 416 418 416 421 332 422 420 418 420 333 415 328 417 421 420 416 415 332 407 421 330 415 414 331 417 418 418 331 332 418 332 331 406 415 420 329 330 327 331 416 420 332 419 417 422 330 330 418 418 417 418 419 420 416 329 406 408 330 414 334 421 418 332 419 332 419 331 415 418 418 331 332 418 419 414 329 332 329 332 332 409 412 418 418 422 331 329 423 416 415 333 331 418 419 416 417 423 413 415 331 418 331 421 333 414 333 419 335 327 423 416 419 419 334 417 417 332 420 333 330 423 410 412 422 420 330 421 330 417 421 415 329 421 419 419 331 416 418 417 419 417 421 420 332 417 420 417 415 421 418 417 419 418 418 419 419 419 333 331 418 416 417 330 419 419 416 420 419 420 416 419 420 330 332 423 420 327 329 416 426 420 330 421 416 420 330 417 331 418 414 333 415 418 420 331 415 419 326 332 329 332 416 331 415 331 418 419 422 423 416 416 335 422 330 418 411 412 331 415 332 424 415 418 332 331 334 332 408 329 423 420 419 415 421 417 418 330 417 331 417 415 418 327 418 417 417 417 330 330 329 415 417 331 418 415 415 417 419 416 418 422 419 415 408 418 416 331 422 329 416 420 416 332 328 417 329 416 420 333 420 333 419 406 413 332 417 421 416 418 419 419 417 329 416 424 414 418 419 417 331 417 332 421 423 418 418 332 417 330 408 331 419 414 330 420 332 330 421 333 418 335 419 335 332 416 331 330 418 331 415 416 423 333 416 417 333 408 421 417 320 330 408 418 332 421 417 418 419 325 411 418 424 420 331 418 415 421 330 331 419 419 416 332 417 332 332 333 416 332 332 334 418 418 407 420 418 419 420 330 328 332 334 330 419 332 332 331 333 329 422 417 416 333 417 418 420 418 414 420 420 418 417 407 419 415 330 330 331 333 329 329 334 331 416 331 422 421 333 334 420 330 417 417 418 329 333 418 330 419 413 332 419 417 423 420 420 418 418 334 419 331 420 417 331 331 418 417 332 413 421 331 418 332 329 425 404 405 419 327 333 417 415 419 332 414 413 332 335 420 332 416 419 418 418 414 420 419 331 417 415 414 418 421 333 423 423 415 416 419 419 418 418 327 332 414 332 417 422 416 332 409 419 332 333 333 422 417 331 406 423 416 330 329 419 333 335 417 416 417 332 419 420 409 331 417 414 415 420 415 419 329 330 406 411 415 422 419 329 419 413 330 330 330 333 331 420 421 420 421 411 421 332 414 333 418 419 422 331 418 417 421 330 416 422 334 417 330 420 415 330 332 331 419 419 419 334 419 418 332 328 333 413 331 420 417 415 415 330 421 414 420 420 330 328 421 333 420 414 422 333 334 415 421 423 419 419 331 417 420 332 418 422 333 412 333 421 417 332 407 335 421 419 421 420 332 421 420 418 332 330 420 420 332 331 332 423 333 420 330 331 415 331 417 331 420 330 328 421 419 331 331 335 420 330 333 421 416 418 333 330 333 419 419 418 331 410 419 333 418 419 332 417 420 426 331 421 330 418 419 419 333 416 332 332 423 330 425 332 419 333 333 419 326 418 419 333 418 329 421 418 422 422 328 330 409 418 333 415 335 333 330 418 331 328 416 334 418 422 332 331 421 419 329 417 329 419 333 418 424 415 424 421 331 421 334 423 414 334 328 332 418 420 419 418 336 331 331 332 332 418 418 421 422 332 421 421 419 329 419 333 420 421 333 332 417 333 423 335 419 419 419 420 333 415 421 415 332 412 423 331 425 421 333 418 420 333 333 418 418 327

Tree=0
num_leaves=2
num_cat=0
split_feature=12
split_gain=3.94542
threshold=0.16443908575110935
decision_type=2
left_child=-1
right_child=-2
leaf_value=0.037504111416637897 0.025553878303617238
leaf_weight=82 72
leaf_count=82 72
internal_value=0.0310258
internal_weight=154
internal_count=154
is_linear=0
shrinkage=1


Tree=1
num_leaves=3
num_cat=0
split_feature=12 13
split_gain=3.70554 0.257088
threshold=0.21669421450000162 0.08807125586858934
decision_type=2 2
left_child=1 -1
right_child=-2 -3
leaf_value=0.0061803966294974094 -0.0093535141972824944 0.0029697702988050879
leaf_weight=52 67 51
leaf_count=52 67 51
internal_value=-0.000735294 0.00521845
internal_weight=170 103
internal_count=170 103
is_linear=0
shrinkage=0.05


Tree=2
num_leaves=2
num_cat=0
split_feature=7
split_gain=0.906921
threshold=1.5907232522608465
decision_type=2
left_child=-1
right_child=-2
leaf_value=-0.001126852001878433 0.0039036248433694711
leaf_weight=69 98
leaf_count=69 98
internal_value=0.000224551
internal_weight=167
internal_count=167
is_linear=0
shrinkage=0.05


Tree=3
num_leaves=3
num_cat=0
split_feature=13 12
split_gain=4.9079 1.78513
threshold=0.059514402178376898 0.23703807446366157
decision_type=2 2
left_child=-1 -2
right_child=1 -3
leaf_value=0.0075520056177079825 -0.0002645201726641972 -0.0094743260072791616
leaf_weight=62 54 50
leaf_count=62 54 50
internal_value=-0.00105422 -0.00769231
internal_weight=166 104
internal_count=166 104
is_linear=0
shrinkage=0.05


Tree=4
num_leaves=2
num_cat=0
split_feature=13
split_gain=2.67045
threshold=0.20587809530662052
decision_type=2
left_child=-1
right_child=-2
leaf_value=0.0045995365956312713 -0.0040257066337533618
leaf_weight=86 78
leaf_count=86 78
internal_value=0.000609756
internal_weight=164
internal_count=164
is_linear=0
shrinkage=0.05


Tree=5
num_leaves=3
num_cat=0
split_feature=12 1
split_gain=3.27432 0.171229
threshold=0.20844080075229035 17519000000.000004
decision_type=2 2
left_child=1 -1
right_child=-2 -3
leaf_value=0.0019673396687523992 -0.0085137715147177839 0.0065101247465418734
leaf_weight=50 65 51
leaf_count=50 65 51
internal_value=-0.00105422 0.00457921
internal_weight=166 101
internal_count=166 101
is_linear=0
shrinkage=0.05


Tree=6
num_leaves=2
num_cat=0
split_feature=13
split_gain=3.33434
threshold=0.1977325592070395
decision_type=2
left_child=-1
right_child=-2
leaf_value=0.0037320956512144014 -0.005541763314993781
leaf_weight=89 85
leaf_count=89 85
internal_value=-0.00100575
internal_weight=174
internal_count=174
is_linear=0
shrinkage=0.05


Tree=7
num_leaves=2
num_cat=0
split_feature=12
split_gain=2.86433
threshold=0.20844080075229035
decision_type=2
left_child=-1
right_child=-2
leaf_value=0.0037425367568233491 -0.0059102409719106941
leaf_weight=97 64
leaf_count=97 64
internal_value=-0.0011646
internal_weight=161
internal_count=161
is_linear=0
shrinkage=0.05


Tree=8
num_leaves=2
num_cat=0
split_feature=13
split_gain=2.75576
threshold=0.20587809530662052
decision_type=2
left_child=-1
right_child=-2
leaf_value=0.0044340020538013334 -0.0029438554107062754
leaf_weight=88 78
leaf_count=88 78
internal_value=0.000753012
internal_weight=166
internal_count=166
is_linear=0
shrinkage=0.05


Tree=9
num_leaves=3
num_cat=0
split_feature=13 12
split_gain=3.34316 2.331
threshold=0.059514402178376898 0.20844080075229035
decision_type=2 2
left_child=-1 -2
right_child=1 -3
leaf_value=0.0061938449870390785 0.0021843910416472763 -0.0078366701904403271
leaf_weight=56 56 51
leaf_count=56 56 51
internal_value=-7.66871e-05 -0.00525701
internal_weight=163 107
internal_count=163 107
is_linear=0
shrinkage=0.05


Tree=10
num_leaves=2
num_cat=0
split_feature=12
split_gain=2.70089
threshold=0.15559502066957678
decision_type=2
left_child=-1
right_child=-2
leaf_value=0.0030767058480825004 -0.0052661050150814327
leaf_weight=90 70
leaf_count=90 70
internal_value=-0.0015625
internal_weight=160
internal_count=160
is_linear=0
shrinkage=0.05


Tree=11
num_leaves=2
num_cat=0
split_feature=13
split_gain=3.77968
threshold=0.30827719301243744
decision_type=2
left_child=-1
right_child=-2
leaf_value=0.0019617958099798038 -0.0069987040543350188
leaf_weight=97 66
leaf_count=97 66
internal_value=-0.000996933
internal_weight=163
internal_count=163
is_linear=0
shrinkage=0.05


Tree=12
num_leaves=2
num_cat=0
split_feature=13
split_gain=2.33028
threshold=0.1977325592070395
decision_type=2
left_child=-1
right_child=-2
leaf_value=0.0047838140487798334 -0.0057880303921637238
leaf_weight=91 83
leaf_count=91 83
internal_value=-0.000718391
internal_weight=174
internal_count=174
is_linear=0
shrinkage=0.05


Tree=13
num_leaves=3
num_cat=0
split_feature=13 7
split_gain=2.08294 1.16346
threshold=0.059514402178376898 1.9318275003521463
decision_type=2 2
left_child=-1 -2
right_child=1 -3
leaf_value=0.0051657659097657099 -0.0042154925763937109 0.002139535743964343
leaf_weight=60 52 52
leaf_count=60 52 52
internal_value=0.000914634 -0.00336538
internal_weight=164 104
internal_count=164 104
is_linear=0
shrinkage=0.05


Tree=14
num_leaves=2
num_cat=0
split_feature=0
split_gain=1.10979
threshold=19459000000.000004
decision_type=2
left_child=-1
right_child=-2
leaf_value=-0.0013389221303259564 0.0027113149935613576
leaf_weight=80 82
leaf_count=80 82
internal_value=0.00231481
internal_weight=162
internal_count=162
is_linear=0
shrinkage=0.05


Tree=15
num_leaves=2
num_cat=0
split_feature=13
split_gain=1.96643
threshold=0.30827719301243744
decision_type=2
left_child=-1
right_child=-2
leaf_value=0.0026462866472133956 -0.0060780766370239526
leaf_weight=98 73
leaf_count=98 73
internal_value=0.000219298
internal_weight=171
internal_count=171
is_linear=0
shrinkage=0.05


Tree=16
num_leaves=3
num_cat=0
split_feature=12 10
split_gain=2.36099 0.612612
threshold=0.2511518069119934 0.22239698965807211
decision_type=2 2
left_child=1 -1
right_child=-2 -3
leaf_value=0.0050111072084004556 -0.0062026013060634865 0.00036210857497940982
leaf_weight=51 53 67
leaf_count=51 53 67
internal_value=0.000511696 0.00444915
internal_weight=171 118
internal_count=171 118
is_linear=0
shrinkage=0.05


Tree=17
num_leaves=3
num_cat=0
split_feature=12 4
split_gain=2.05852 0.541967
threshold=0.2511518069119934 0.63981499015746646
decision_type=2 2
left_child=1 -1
right_child=-2 -3
leaf_value=0.0050285083087189299 -0.0060439117419733863 -0.00032139286071277611
leaf_weight=58 57 50
leaf_count=58 57 50
internal_value=-0.00174242 0.00231481
internal_weight=165 108
internal_count=165 108
is_linear=0
shrinkage=0.05


Tree=18
num_leaves=3
num_cat=0
split_feature=13 10
split_gain=1.38514 1.56583
threshold=0.11594328363502217 0.2064227422622765
decision_type=2 2
left_child=-1 -2
right_child=1 -3
leaf_value=0.0044650666762303063 -0.0052635239584257788 0.002502176972231381
leaf_weight=74 52 51
leaf_count=74 52 51
internal_value=0.00120056 -0.00254854
internal_weight=177 103
internal_count=177 103
is_linear=0
shrinkage=0.05


Tree=19
num_leaves=2
num_cat=0
split_feature=7
split_gain=1.82032
threshold=1.5907232522608465
decision_type=2
left_child=-1
right_child=-2
leaf_value=-0.0026225673623719498 0.0022923432155769435
leaf_weight=68 96
leaf_count=68 96
internal_value=-0.00182927
internal_weight=164
internal_count=164
is_linear=0
shrinkage=0.05


Tree=20
num_leaves=3
num_cat=0
split_feature=12 5
split_gain=1.31602 0.612348
threshold=0.2511518069119934 0.29396524419260189
decision_type=2 2
left_child=1 -1
right_child=-2 -3
leaf_value=0.0067452840842611161 -0.00094814253485744091 4.1224841058906673e-05
leaf_weight=57 61 60
leaf_count=57 61 60
internal_value=0.000421348 0.00352564
internal_weight=178 117
internal_count=178 117
is_linear=0
shrinkage=0.05


Tree=21
num_leaves=3
num_cat=0
split_feature=12 4
split_gain=1.14828 0.460909
threshold=0.21669421450000162 0.45522907836147725
decision_type=2 2
left_child=1 -1
right_child=-2 -3
leaf_value=0.006187998039061119 -0.0050729881141082806 0.00012079512980178488
leaf_weight=50 64 60
leaf_count=50 64 60
internal_value=-0.000143678 0.00295455
internal_weight=174 110
internal_count=174 110
is_linear=0
shrinkage=0.05


Tree=22
num_leaves=3
num_cat=0
split_feature=12 7
split_gain=1.81275 0.430784
threshold=0.21669421450000162 1.8514449135978739
decision_type=2 2
left_child=1 -1
right_child=-2 -3
leaf_value=0.00026677348011961717 -0.0051785202093741836 0.0037917124606523739
leaf_weight=52 68 50
leaf_count=52 68 50
internal_value=-0.00102941 0.00318627
internal_weight=170 102
internal_count=170 102
is_linear=0
shrinkage=0.05


Tree=23
num_leaves=3
num_cat=0
split_feature=8 13
split_gain=0.892555 0.593901
threshold=0.158673732554685 0.16524475811447217
decision_type=2 2
left_child=-1 -2
right_child=1 -3
leaf_value=-0.0026617495762497278 0.0061877118739175991 -0.00083304123335217392
leaf_weight=59 50 59
leaf_count=59 50 59
internal_value=-0.00119048 0.00149083
internal_weight=168 109
internal_count=168 109
is_linear=0
shrinkage=0.05


Tree=24
num_leaves=3
num_cat=0
split_feature=12 14
split_gain=0.998568 0.493858
threshold=0.2668205913492066 0.0025840133930003233
decision_type=2 2
left_child=1 -1
right_child=-2 -3
leaf_value=0.0016728618491039316 -0.0046258677614892316 0.0056339708494092706
leaf_weight=62 51 53
leaf_count=62 51 53
internal_value=0.00165663 0.00423913
internal_weight=166 115
internal_count=166 115
is_linear=0
shrinkage=0.05


Tree=25
num_leaves=3
num_cat=0
split_feature=13 7
split_gain=0.792835 1.00683
threshold=0.059514402178376898 1.9318275003521463
decision_type=2 2
left_child=-1 -2
right_child=1 -3
leaf_value=0.0042859557511070968 -0.0049781556165482974 0.00089463760942488718
leaf_weight=62 55 53
leaf_count=62 55 53
internal_value=0.000735294 -0.00185185
internal_weight=170 108
internal_count=170 108
is_linear=0
shrinkage=0.05


Tree=26
num_leaves=2
num_cat=0
split_feature=0
split_gain=0.951027
threshold=19459000000.000004
decision_type=2
left_child=-1
right_child=-2
leaf_value=-0.0029878956437250151 0.0027366791075965238
leaf_weight=81 83
leaf_count=81 83
internal_value=0.000304878
internal_weight=164
internal_count=164
is_linear=0
shrinkage=0.05


Tree=27
num_leaves=3
num_cat=0
split_feature=13 11
split_gain=0.538647 0.360128
threshold=0.059514402178376898 0.30155016059870526
decision_type=2 2
left_child=-1 -2
right_child=1 -3
leaf_value=0.0038513510705995148 -0.0025039485110512935 0.00049108036940784391
leaf_weight=57 50 54
leaf_count=57 50 54
internal_value=0.000698758 -0.00144231
internal_weight=161 104
internal_count=161 104
is_linear=0
shrinkage=0.05


Tree=28
num_leaves=3
num_cat=0
split_feature=15 13
split_gain=1.22724 0.632779
threshold=0.024546112592305953 0.18597628508694955
decision_type=2 2
left_child=1 -1
right_child=-2 -3
leaf_value=0.003213289855936695 0.0054323811901834211 -0.004528679740615521
leaf_weight=62 53 53
leaf_count=62 53 53
internal_value=0.0014881 -0.00141304
internal_weight=168 115
internal_count=168 115
is_linear=0
shrinkage=0.05


Tree=29
num_leaves=3
num_cat=0
split_feature=11 2
split_gain=1.58672 1.17666
threshold=0.47843823037693645 8694500000.0000019
decision_type=2 2
left_child=1 -1
right_child=-2 -3
leaf_value=-0.0041577007673563237 0.003922660989131627 0.001342521815763535
leaf_weight=62 50 54
leaf_count=62 50 54
internal_value=0.00105422 -0.00215517
internal_weight=166 116
internal_count=166 116
is_linear=0
shrinkage=0.05


Tree=30
num_leaves=2
num_cat=0
split_feature=0
split_gain=1.70129
threshold=19459000000.000004
decision_type=2
left_child=-1
right_child=-2
leaf_value=-0.0031101142443480051 0.0027769225715437865
leaf_weight=79 86
leaf_count=79 86
internal_value=7.57576e-05
internal_weight=165
internal_count=165
is_linear=0
shrinkage=0.05


Tree=31
num_leaves=3
num_cat=0
split_feature=8 15
split_gain=1.03397 0.538778
threshold=0.158673732554685 0.0070534446968245701
decision_type=2 2
left_child=-1 -2
right_child=1 -3
leaf_value=-0.0018789713825131686 -0.0011703526772734933 0.0054085087965098184
leaf_weight=56 50 52
leaf_count=56 50 52
internal_value=-0.000791139 0.00220588
internal_weight=158 102
internal_count=158 102
is_linear=0
shrinkage=0.05


Tree=32
num_leaves=3
num_cat=0
split_feature=4 7
split_gain=0.791272 1.40443
threshold=0.66422478436553445 1.5279093760282818
decision_type=2 2
left_child=1 -1
right_child=-2 -3
leaf_value=-0.001075978935888961 -0.0026548689971299059 0.0066360551383999617
leaf_weight=55 50 64
leaf_count=55 50 64
internal_value=-0.000221893 0.0019958
internal_weight=169 119
internal_count=169 119
is_linear=0
shrinkage=0.05


Tree=33
num_leaves=2
num_cat=0
split_feature=10
split_gain=0.8289
threshold=0.22702327203578548
decision_type=2
left_child=-1
right_child=-2
leaf_value=0.00075181068676076772 -0.0014661367476892881
leaf_weight=93 78
leaf_count=93 78
internal_value=-0.000365497
internal_weight=171
internal_count=171
is_linear=0
shrinkage=0.05


Tree=34
num_leaves=2
num_cat=0
split_feature=2
split_gain=0.623788
threshold=6654500000.000001
decision_type=2
left_child=-1
right_child=-2
leaf_value=-0.00057073882470512103 0.0023146232692471762
leaf_weight=92 76
leaf_count=92 76
internal_value=0.000595238
internal_weight=168
internal_count=168
is_linear=0
shrinkage=0.05


Tree=35
num_leaves=2
num_cat=0
split_feature=12
split_gain=0.930583
threshold=0.12332563495268679
decision_type=2
left_child=-1
right_child=-2
leaf_value=0.0037640935150144508 -0.00097686736810178947
leaf_weight=65 99
leaf_count=65 99
internal_value=-0.000609756
internal_weight=164
internal_count=164
is_linear=0
shrinkage=0.05


Tree=36
num_leaves=2
num_cat=0
split_feature=8
split_gain=0.620927
threshold=0.20922711447865211
decision_type=2
left_child=-1
right_child=-2
leaf_value=-0.00099187248986037859 0.0033204652198718476
leaf_weight=91 70
leaf_count=91 70
internal_value=0.000388199
internal_weight=161
internal_count=161
is_linear=0
shrinkage=0.05


Tree=37
num_leaves=2
num_cat=0
split_feature=3
split_gain=0.695402
threshold=4975000000.000001
decision_type=2
left_child=-1
right_child=-2
leaf_value=-0.0012189117579140937 0.0020506637827298877
leaf_weight=87 87
leaf_count=87 87
internal_value=0.000143678
internal_weight=174
internal_count=174
is_linear=0
shrinkage=0.05


Tree=38
num_leaves=2
num_cat=0
split_feature=7
split_gain=0.915481
threshold=1.5907232522608465
decision_type=2
left_child=-1
right_child=-2
leaf_value=-0.0022585747738261028 0.0019836932060831895
leaf_weight=67 99
leaf_count=67 99
internal_value=-0.000150602
internal_weight=166
internal_count=166
is_linear=0
shrinkage=0.05


Tree=39
num_leaves=3
num_cat=0
split_feature=7 12
split_gain=1.12124 1.28395
threshold=2.2903631976023617 0.12022446121543574
decision_type=2 2
left_child=1 -1
right_child=-2 -3
leaf_value=0.003838415640673375 0.0019216879283711491 -0.002878835183935734
leaf_weight=51 60 76
leaf_count=51 60 76
internal_value=0.000200535 -0.00246063
internal_weight=187 127
internal_count=187 127
is_linear=0
shrinkage=0.05


Tree=40
num_leaves=3
num_cat=0
split_feature=14 12
split_gain=1.02888 1.75019
threshold=0.034792177424008058 0.12332563495268679
decision_type=2 2
left_child=1 -1
right_child=-2 -3
leaf_value=0.0023530678862009238 0.0022146471848066467 -0.0035563247410046756
leaf_weight=58 51 52
leaf_count=58 51 52
internal_value=-0.000232919 -0.00295455
internal_weight=161 110
internal_count=161 110
is_linear=0
shrinkage=0.05


Tree=41
num_leaves=2
num_cat=0
split_feature=13
split_gain=0.800873
threshold=0.16524475811447217
decision_type=2
left_child=-1
right_child=-2
leaf_value=0.0032957131855859538 -0.00041632093141366996
leaf_weight=73 94
leaf_count=73 94
internal_value=0.00172156
internal_weight=167
internal_count=167
is_linear=0
shrinkage=0.05


Tree=42
num_leaves=3
num_cat=0
split_feature=7 4
split_gain=0.719601 0.846886
threshold=1.5907232522608465 0.63981499015746646
decision_type=2 2
left_child=-1 -2
right_child=1 -3
leaf_value=-0.0023344103630940408 0.005142820162810105 -0.0012497773148399298
leaf_weight=60 60 52
leaf_count=60 60 52
internal_value=-0.000581395 0.00178571
internal_weight=172 112
internal_count=172 112
is_linear=0
shrinkage=0.05


Tree=43
num_leaves=3
num_cat=0
split_feature=13 7
split_gain=0.810113 1.48151
threshold=-0.024649020069296586 1.8514449135978739
decision_type=2 2
left_child=-1 -2
right_child=1 -3
leaf_value=0.0052407307326206368 -0.0031299567790742857 0.0011264516531655519
leaf_weight=54 59 60
leaf_count=54 59 60
internal_value=0.000939306 -0.00136555
internal_weight=173 119
internal_count=173 119
is_linear=0
shrinkage=0.05


Tree=44
num_leaves=2
num_cat=0
split_feature=0
split_gain=1.25577
threshold=23589000000.000004
decision_type=2
left_child=-1
right_child=-2
leaf_value=-0.0016485555843062155 0.0024600204478697624
leaf_weight=99 77
leaf_count=99 77
internal_value=0.000568182
internal_weight=176
internal_count=176
is_linear=0
shrinkage=0.05


Tree=45
num_leaves=3
num_cat=0
split_feature=7 0
split_gain=1.72708 0.785378
threshold=2.2397363128470542 21093000000.000004
decision_type=2 2
left_child=1 -1
right_child=-2 -3
leaf_value=-0.0048787619900262317 0.0020418601500482771 0.00011072898333111745
leaf_weight=50 60 53
leaf_count=50 60 53
internal_value=-7.66871e-05 -0.00400485
internal_weight=163 103
internal_count=163 103
is_linear=0
shrinkage=0.05


Tree=46
num_leaves=3
num_cat=0
split_feature=7 13
split_gain=1.14785 0.931036
threshold=2.4460222852347524 0.20587809530662052
decision_type=2 2
left_child=1 -1
right_child=-2 -3
leaf_value=0.0025585322592143211 0.0022377260730649224 -0.0055417184794063299
leaf_weight=54 51 57
leaf_count=54 51 57
internal_value=0.00138889 -0.00146396
internal_weight=162 111
internal_count=162 111
is_linear=0
shrinkage=0.05


Tree=47
num_leaves=3
num_cat=0
split_feature=11 13
split_gain=0.745595 0.915652
threshold=0.47843823037693645 0.11594328363502217
decision_type=2 2
left_child=1 -1
right_child=-2 -3
leaf_value=0.00069061293730403187 0.0026347251022884721 -0.0034098824766580771
leaf_weight=50 51 65
leaf_count=50 51 65
internal_value=-0.00135542 -0.00358696
internal_weight=166 115
internal_count=166 115
is_linear=0
shrinkage=0.05


Tree=48
num_leaves=2
num_cat=0
split_feature=3
split_gain=1.19663
threshold=4975000000.000001
decision_type=2
left_child=-1
right_child=-2
leaf_value=-0.0015268011686127327 0.0017302603237881024
leaf_weight=89 87
leaf_count=89 87
internal_value=0.000284091
internal_weight=176
internal_count=176
is_linear=0
shrinkage=0.05


Tree=49
num_leaves=2
num_cat=0
split_feature=4
split_gain=0.849495
threshold=0.42887060648822484
decision_type=2
left_child=-1
right_child=-2
leaf_value=0.00076407360427567365 -0.0024191121020857107
leaf_weight=99 66
leaf_count=99 66
internal_value=-0.000530303
internal_weight=165
internal_count=165
is_linear=0
shrinkage=0.05


Tree=50
num_leaves=3
num_cat=0
split_feature=4 7
split_gain=1.44366 0.940985
threshold=0.66422478436553445 1.5907232522608465
decision_type=2 2
left_child=1 -1
right_child=-2 -3
leaf_value=1.8761361523770074e-06 -0.0027760289244785521 0.00513779188304311
leaf_weight=63 51 54
leaf_count=63 51 54
internal_value=0.000892857 0.00395299
internal_weight=168 117
internal_count=168 117
is_linear=0
shrinkage=0.05


Tree=51
num_leaves=2
num_cat=0
split_feature=3
split_gain=0.986529
threshold=5170000000.000001
decision_type=2
left_child=-1
right_child=-2
leaf_value=-0.0013315354527681945 0.0022595977743939373
leaf_weight=94 77
leaf_count=94 77
internal_value=0.000511696
internal_weight=171
internal_count=171
is_linear=0
shrinkage=0.05


Tree=52
num_leaves=3
num_cat=0
split_feature=12 10
split_gain=0.991726 1.09592
threshold=0.2668205913492066 0.22239698965807211
decision_type=2 2
left_child=1 -1
right_child=-2 -3
leaf_value=0.0021769138970350768 -0.0041343110855594067 -0.0011241272862154734
leaf_weight=50 50 65
leaf_count=50 50 65
internal_value=0.000378788 0.00293478
internal_weight=165 115
internal_count=165 115
is_linear=0
shrinkage=0.05


Tree=53
num_leaves=3
num_cat=0
split_feature=14 12
split_gain=0.57661 0.623505
threshold=0.034792177424008058 0.12022446121543574
decision_type=2 2
left_child=1 -1
right_child=-2 -3
leaf_value=0.0010082691583931556 0.0048414803240086346 -0.0026923454563419031
leaf_weight=60 50 58
leaf_count=60 50 58
internal_value=0 -0.00190678
internal_weight=168 118
internal_count=168 118
is_linear=0
shrinkage=0.05


Tree=54
num_leaves=3
num_cat=0
split_feature=11 13
split_gain=0.938427 1.19959
threshold=0.45575186781438387 0.16524475811447217
decision_type=2 2
left_child=1 -1
right_child=-2 -3
leaf_value=0.0020961875162624822 0.002410758886025387 -0.0045039929342656857
leaf_weight=57 58 55
leaf_count=57 58 55
internal_value=0.000441176 -0.00223214
internal_weight=170 112
internal_count=170 112
is_linear=0
shrinkage=0.05


Tree=55
num_leaves=3
num_cat=0
split_feature=11 3
split_gain=1.07237 0.711243
threshold=0.47843823037693645 4804500000.000001
decision_type=2 2
left_child=1 -1
right_child=-2 -3
leaf_value=-0.0026389886162551742 0.0027365413759529692 0.00016094087778487087
leaf_weight=57 52 65
leaf_count=57 52 65
internal_value=0.000718391 -0.00184426
internal_weight=174 122
internal_count=174 122
is_linear=0
shrinkage=0.05


Tree=56
num_leaves=2
num_cat=0
split_feature=15
split_gain=1.23448
threshold=0.0070534446968245701
decision_type=2
left_child=-1
right_child=-2
leaf_value=-0.0022198423640877873 0.0028797943156342858
leaf_weight=78 88
leaf_count=78 88
internal_value=0.00105422
internal_weight=166
internal_count=166
is_linear=0
shrinkage=0.05


Tree=57
num_leaves=3
num_cat=0
split_feature=0 1
split_gain=0.761086 1.18627
threshold=23589000000.000004 3108000000.0000005
decision_type=2 2
left_child=1 -1
right_child=-2 -3
leaf_value=0.00042522162492012567 0.00072984326820250359 -0.0051704235854222388
leaf_weight=51 78 51
leaf_count=51 78 51
internal_value=-0.000833333 -0.00367647
internal_weight=180 102
internal_count=180 102
is_linear=0
shrinkage=0.05


Tree=58
num_leaves=3
num_cat=0
split_feature=11 12
split_gain=0.623275 0.732676
threshold=0.47843823037693645 0.12332563495268679
decision_type=2 2
left_child=1 -1
right_child=-2 -3
leaf_value=0.0023240395995109838 0.003058503784543616 -0.002005227194170278
leaf_weight=50 50 71
leaf_count=50 50 71
internal_value=0.000804094 -0.00113636
internal_weight=171 121
internal_count=171 121
is_linear=0
shrinkage=0.05


Tree=59
num_leaves=2
num_cat=0
split_feature=14
split_gain=1.04671
threshold=0.0025840133930003233
decision_type=2
left_child=-1
right_child=-2
leaf_value=-0.0016917055374627077 0.0018807399210686469
leaf_weight=78 92
leaf_count=78 92
internal_value=0.000735294
internal_weight=170
internal_count=170
is_linear=0
shrinkage=0.05


Tree=60
num_leaves=3
num_cat=0
split_feature=12 14
split_gain=0.847418 0.581322
threshold=0.24137764414813992 0.0025840133930003233
decision_type=2 2
left_child=1 -1
right_child=-2 -3
leaf_value=-0.00020966868506510188 -0.001717974357839841 0.0035333127817505209
leaf_weight=60 51 56
leaf_count=60 51 56
internal_value=0.000224551 0.00258621
internal_weight=167 116
internal_count=167 116
is_linear=0
shrinkage=0.05


Tree=61
num_leaves=3
num_cat=0
split_feature=13 7
split_gain=0.968868 0.615864
threshold=0.059514402178376898 1.9318275003521463
decision_type=2 2
left_child=-1 -2
right_child=1 -3
leaf_value=0.0020366977825052204 -0.0039285657836733018 7.9553457976364042e-05
leaf_weight=57 50 53
leaf_count=57 50 53
internal_value=-0.000625 -0.00351942
internal_weight=160 103
internal_count=160 103
is_linear=0
shrinkage=0.05


Tree=62
num_leaves=2
num_cat=0
split_feature=3
split_gain=1.1224
threshold=5170000000.000001
decision_type=2
left_child=-1
right_child=-2
leaf_value=-0.0015092311729983628 0.0011767826002202068
leaf_weight=92 80
leaf_count=92 80
internal_value=-0.000581395
internal_weight=172
internal_count=172
is_linear=0
shrinkage=0.05


Tree=63
num_leaves=2
num_cat=0
split_feature=10
split_gain=1.69957
threshold=0.22239698965807211
decision_type=2
left_child=-1
right_child=-2
leaf_value=0.0012010563409098826 -0.0020289371347243642
leaf_weight=88 87
leaf_count=88 87
internal_value=0.000214286
internal_weight=175
internal_count=175
is_linear=0
shrinkage=0.05


Tree=64
num_leaves=3
num_cat=0
split_feature=8 11
split_gain=1.15771 0.36248
threshold=0.16774914937747068 0.27794281443792584
decision_type=2 2
left_child=-1 -2
right_child=1 -3
leaf_value=-0.0032256605523459953 -6.9448137415347503e-06 0.0042641180679774864
leaf_weight=59 50 56
leaf_count=59 50 56
internal_value=-0.000530303 0.00259434
internal_weight=165 106
internal_count=165 106
is_linear=0
shrinkage=0.05


Tree=65
num_leaves=2
num_cat=0
split_feature=0
split_gain=1.13372
threshold=19459000000.000004
decision_type=2
left_child=-1
right_child=-2
leaf_value=-0.0017862060094126228 0.00066957036930372625
leaf_weight=80 91
leaf_count=80 91
internal_value=-0.000657895
internal_weight=171
internal_count=171
is_linear=0
shrinkage=0.05


Tree=66
num_leaves=3
num_cat=0
split_feature=15 10
split_gain=1.23029 0.990226
threshold=0.024546112592305953 0.20862850371419506
decision_type=2 2
left_child=1 -1
right_child=-2 -3
leaf_value=0.00037449021089298591 0.0045801971670972426 -0.0025635578595367536
leaf_weight=50 61 61
leaf_count=50 61 61
internal_value=-0.000581395 -0.00371622
internal_weight=172 111
internal_count=172 111
is_linear=0
shrinkage=0.05


Tree=67
num_leaves=3
num_cat=0
split_feature=12 5
split_gain=1.06704 2.37051
threshold=0.27154957792486217 0.27640502480357859
decision_type=2 2
left_child=1 -1
right_child=-2 -3
leaf_value=0.0053991139491163702 -0.0019544970379671896 -0.0013104215954907064
leaf_weight=52 54 78
leaf_count=52 54 78
internal_value=0.000815217 0.00326923
internal_weight=184 130
internal_count=184 130
is_linear=0
shrinkage=0.05


Tree=68
num_leaves=2
num_cat=0
split_feature=3
split_gain=1.0728
threshold=5170000000.000001
decision_type=2
left_child=-1
right_child=-2
leaf_value=-0.0015920235751953633 0.0014223938606827875
leaf_weight=92 78
leaf_count=92 78
internal_value=-0.000147059
internal_weight=170
internal_count=170
is_linear=0
shrinkage=0.05


Tree=69
num_leaves=2
num_cat=0
split_feature=3
split_gain=0.782762
threshold=5170000000.000001
decision_type=2
left_child=-1
right_child=-2
leaf_value=-0.0014318775443339302 0.0014254005346437792
leaf_weight=90 68
leaf_count=90 68
internal_value=-0.00110759
internal_weight=158
internal_count=158
is_linear=0
shrinkage=0.05


Tree=70
num_leaves=3
num_cat=0
split_feature=11 13
split_gain=0.763108 1.10561
threshold=0.47843823037693645 0.11594328363502217
decision_type=2 2
left_child=1 -1
right_child=-2 -3
leaf_value=0.0013744449007488614 0.0032306697982130666 -0.0031639089095345076
leaf_weight=54 53 74
leaf_count=54 53 74
internal_value=-0.00103591 -0.003125
internal_weight=181 128
internal_count=181 128
is_linear=0
shrinkage=0.05


Tree=71
num_leaves=2
num_cat=0
split_feature=3
split_gain=0.920635
threshold=5170000000.000001
decision_type=2
left_child=-1
right_child=-2
leaf_value=-0.0014248649187031366 0.0017002344857013213
leaf_weight=87 81
leaf_count=87 81
internal_value=-0.000595238
internal_weight=168
internal_count=168
is_linear=0
shrinkage=0.05


Tree=72
num_leaves=2
num_cat=0
split_feature=3
split_gain=1.10673
threshold=5170000000.000001
decision_type=2
left_child=-1
right_child=-2
leaf_value=-0.0015202660270144123 0.0011686005007159456
leaf_weight=91 79
leaf_count=91 79
internal_value=-0.00132353
internal_weight=170
internal_count=170
is_linear=0
shrinkage=0.05


Tree=73
num_leaves=2
num_cat=0
split_feature=4
split_gain=1.10493
threshold=0.42887060648822484
decision_type=2
left_child=-1
right_child=-2
leaf_value=0.0017863914727315662 -0.0014735639803507734
leaf_weight=99 67
leaf_count=99 67
internal_value=-0.000451807
internal_weight=166
internal_count=166
is_linear=0
shrinkage=0.05


Tree=74
num_leaves=3
num_cat=0
split_feature=11 13
split_gain=0.879752 0.861162
threshold=0.45575186781438387 0.16524475811447217
decision_type=2 2
left_child=1 -1
right_child=-2 -3
leaf_value=0.00096894793695686372 0.0034759445156377989 -0.0036316623016132907
leaf_weight=54 52 55
leaf_count=54 52 55
internal_value=-0.000543478 -0.00309633
internal_weight=161 109
internal_count=161 109
is_linear=0
shrinkage=0.05


Tree=75
num_leaves=2
num_cat=0
split_feature=14
split_gain=0.952674
threshold=1.0000000180025095e-35
decision_type=2
left_child=-1
right_child=-2
leaf_value=-0.00071762365326277853 0.0020846275212253458
leaf_weight=69 95
leaf_count=69 95
internal_value=0.000304878
internal_weight=164
internal_count=164
is_linear=0
shrinkage=0.05


Tree=76
num_leaves=2
num_cat=0
split_feature=15
split_gain=0.809091
threshold=0.0070534446968245701
decision_type=2
left_child=-1
right_child=-2
leaf_value=-0.001229280312575359 0.0013623672980743419
leaf_weight=79 90
leaf_count=79 90
internal_value=0.000369822
internal_weight=169
internal_count=169
is_linear=0
shrinkage=0.05


Tree=77
num_leaves=2
num_cat=0
split_feature=4
split_gain=0.92078
threshold=0.42227260715215115
decision_type=2
left_child=-1
right_child=-2
leaf_value=0.0021006680036008861 -0.0017904864446848378
leaf_weight=92 76
leaf_count=92 76
internal_value=-0.00119048
internal_weight=168
internal_count=168
is_linear=0
shrinkage=0.05


Tree=78
num_leaves=2
num_cat=0
split_feature=14
split_gain=1.05007
threshold=0.0025840133930003233
decision_type=2
left_child=-1
right_child=-2
leaf_value=-0.00042474562579946609 0.0022225690825561396
leaf_weight=75 92
leaf_count=75 92
internal_value=0.000224551
internal_weight=167
internal_count=167
is_linear=0
shrinkage=0.05


Tree=79
num_leaves=2
num_cat=0
split_feature=3
split_gain=0.922976
threshold=4975000000.000001
decision_type=2
left_child=-1
right_child=-2
leaf_value=-0.0010690715557848064 0.0013090769007272009
leaf_weight=87 90
leaf_count=87 90
internal_value=-0.00049435
internal_weight=177
internal_count=177
is_linear=0
shrinkage=0.05


Tree=80
num_leaves=2
num_cat=0
split_feature=0
split_gain=0.823272
threshold=21093000000.000004
decision_type=2
left_child=-1
right_child=-2
leaf_value=-0.0012192247509414363 0.0011299760953859515
leaf_weight=89 85
leaf_count=89 85
internal_value=-0.000431034
internal_weight=174
internal_count=174
is_linear=0
shrinkage=0.05


Tree=81
num_leaves=3
num_cat=0
split_feature=4 7
split_gain=0.728571 0.833355
threshold=0.66422478436553445 1.5907232522608465
decision_type=2 2
left_child=1 -1
right_child=-2 -3
leaf_value=-0.0003693368796461805 -0.0011534591334499723 0.0034989216745700577
leaf_weight=62 51 57
leaf_count=62 51 57
internal_value=-0.000147059 0.0019958
internal_weight=170 119
internal_count=170 119
is_linear=0
shrinkage=0.05


Tree=82
num_leaves=2
num_cat=0
split_feature=13
split_gain=0.631169
threshold=0.1977325592070395
decision_type=2
left_child=-1
right_child=-2
leaf_value=0.00062293139850617702 -0.0031061171700765009
leaf_weight=88 80
leaf_count=88 80
internal_value=-0.00178571
internal_weight=168
internal_count=168
is_linear=0
shrinkage=0.05


Tree=83
num_leaves=2
num_cat=0
split_feature=3
split_gain=1.08306
threshold=4975000000.000001
decision_type=2
left_child=-1
right_child=-2
leaf_value=-0.0011178810539707409 0.00096724390412291988
leaf_weight=83 85
leaf_count=83 85
internal_value=0.000297619
internal_weight=168
internal_count=168
is_linear=0
shrinkage=0.05


Tree=84
num_leaves=3
num_cat=0
split_feature=14 10
split_gain=1.11967 1.16346
threshold=0.021887680112557487 0.20326515327221681
decision_type=2 2
left_child=1 -1
right_child=-2 -3
leaf_value=0.00014866964178801638 0.0026034755482068125 -0.0031353511146693554
leaf_weight=52 65 52
leaf_count=52 65 52
internal_value=-0.00110947 -0.00432692
internal_weight=169 104
internal_count=169 104
is_linear=0
shrinkage=0.05


Tree=85
num_leaves=2
num_cat=0
split_feature=15
split_gain=1.1461
threshold=0.0070534446968245701
decision_type=2
left_child=-1
right_child=-2
leaf_value=-0.0011295923327225414 0.0010281170827589764
leaf_weight=81 88
leaf_count=81 88
internal_value=-0.00110947
internal_weight=169
internal_count=169
is_linear=0
shrinkage=0.05


Tree=86
num_leaves=3
num_cat=0
split_feature=7 0
split_gain=0.913256 0.509509
threshold=2.2397363128470542 19459000000.000004
decision_type=2 2
left_child=1 -1
right_child=-2 -3
leaf_value=-0.0020358204366013504 0.001349399790717268 0.00012425366615699375
leaf_weight=51 51 63
leaf_count=51 51 63
internal_value=7.57576e-05 -0.00241228
internal_weight=165 114
internal_count=165 114
is_linear=0
shrinkage=0.05


Tree=87
num_leaves=2
num_cat=0
split_feature=10
split_gain=1.00174
threshold=0.20862850371419506
decision_type=2
left_child=-1
right_child=-2
leaf_value=0.00074430638655271152 -0.0018425982484359751
leaf_weight=81 85
leaf_count=81 85
internal_value=-0.00135542
internal_weight=166
internal_count=166
is_linear=0
shrinkage=0.05


Tree=88
num_leaves=3
num_cat=0
split_feature=12 4
split_gain=0.73946 0.896238
threshold=0.24137764414813992 0.45522907836147725
decision_type=2 2
left_child=1 -1
right_child=-2 -3
leaf_value=0.0040832673685978873 -0.002150908996282873 -0.00031549487217268448
leaf_weight=53 61 58
leaf_count=53 61 58
internal_value=-0.000290698 0.00213964
internal_weight=172 111
internal_count=172 111
is_linear=0
shrinkage=0.05


Tree=89
num_leaves=3
num_cat=0
split_feature=12 6
split_gain=1.44951 1.08445
threshold=0.27154957792486217 0.22532260159120857
decision_type=2 2
left_child=1 -1
right_child=-2 -3
leaf_value=0.0034950023855956206 -0.0031891760417785569 -0.0004244926624193074
leaf_weight=54 50 63
leaf_count=54 50 63
internal_value=-0.000374251 0.00267094
internal_weight=167 117
internal_count=167 117
is_linear=0
shrinkage=0.05


Tree=90
num_leaves=3
num_cat=0
split_feature=7 15
split_gain=0.786903 0.787287
threshold=1.5907232522608465 0.0051886474194974977
decision_type=2 2
left_child=-1 -2
right_child=1 -3
leaf_value=-0.00075050291059635505 -0.00033783683558841486 0.0074682322983286482
leaf_weight=58 51 63
leaf_count=58 51 63
internal_value=0 0.00241228
internal_weight=172 114
internal_count=172 114
is_linear=0
shrinkage=0.05


Tree=91
num_leaves=3
num_cat=0
split_feature=7 3
split_gain=0.618505 0.665486
threshold=1.5357348149767647 4380500000.000001
decision_type=2 2
left_child=-1 -2
right_child=1 -3
leaf_value=-0.0020918566781940339 -0.00026695626504907779 0.0037921059412455676
leaf_weight=65 50 51
leaf_count=65 50 51
internal_value=0.000150602 0.00259901
internal_weight=166 101
internal_count=166 101
is_linear=0
shrinkage=0.05


Tree=92
num_leaves=3
num_cat=0
split_feature=10 9
split_gain=1.3114 0.787837
threshold=0.18083461918991653 8276000000.000001
decision_type=2 2
left_child=-1 -2
right_child=1 -3
leaf_value=0.0018878953116597389 -0.0017792536926308938 0.00072445288446278057
leaf_weight=69 51 58
leaf_count=69 51 58
internal_value=-0.000140449 -0.00355505
internal_weight=178 109
internal_count=178 109
is_linear=0
shrinkage=0.05


Tree=93
num_leaves=2
num_cat=0
split_feature=14
split_gain=0.328151
threshold=1.0000000180025095e-35
decision_type=2
left_child=-1
right_child=-2
leaf_value=-0.0002202405462227745 0.0011961188936018851
leaf_weight=70 97
leaf_count=70 97
internal_value=0.000823353
internal_weight=167
internal_count=167
is_linear=0
shrinkage=0.05


Tree=94
num_leaves=2
num_cat=0
split_feature=15
split_gain=1.45454
threshold=0.0070534446968245701
decision_type=2
left_child=-1
right_child=-2
leaf_value=-0.0012702798979044626 0.0025367422125221768
leaf_weight=77 86
leaf_count=77 86
internal_value=-0.000690184
internal_weight=163
internal_count=163
is_linear=0
shrinkage=0.05


Tree=95
num_leaves=3
num_cat=0
split_feature=11 12
split_gain=0.76541 1.00775
threshold=0.46395963320972256 0.12022446121543574
decision_type=2 2
left_child=1 -1
right_child=-2 -3
leaf_value=0.0018242329917856331 0.0023960835031466912 -0.0012224884432573838
leaf_weight=52 52 72
leaf_count=52 52 72
internal_value=-0.000284091 -0.00241935
internal_weight=176 124
internal_count=176 124
is_linear=0
shrinkage=0.05


Tree=96
num_leaves=3
num_cat=0
split_feature=13 7
split_gain=0.755073 0.681502
threshold=0.059514402178376898 1.7791074358223413
decision_type=2 2
left_child=-1 -2
right_child=1 -3
leaf_value=0.00035867949996354689 -0.0034859687603642103 -6.9669629651277284e-05
leaf_weight=64 52 60
leaf_count=64 52 60
internal_value=-0.00198864 -0.00446429
internal_weight=176 112
internal_count=176 112
is_linear=0
shrinkage=0.05


Tree=97
num_leaves=2
num_cat=0
split_feature=12
split_gain=1.44692
threshold=0.15559502066957678
decision_type=2
left_child=-1
right_child=-2
leaf_value=0.0023333415083390276 -0.00064222027876151278
leaf_weight=88 78
leaf_count=88 78
internal_value=0.000150602
internal_weight=166
internal_count=166
is_linear=0
shrinkage=0.05


Tree=98
num_leaves=2
num_cat=0
split_feature=0
split_gain=0.645724
threshold=21093000000.000004
decision_type=2
left_child=-1
right_child=-2
leaf_value=-0.0006930827095119309 0.00042900988472953307
leaf_weight=94 85
leaf_count=94 85
internal_value=-6.98324e-05
internal_weight=179
internal_count=179
is_linear=0
shrinkage=0.05


Tree=99
num_leaves=3
num_cat=0
split_feature=4 7
split_gain=1.4521 1.94423
threshold=0.66422478436553445 1.5279093760282818
decision_type=2 2
left_child=1 -1
right_child=-2 -3
leaf_value=-0.00059772307361961223 -0.0013580362599584451 0.0031153073106437745
leaf_weight=59 51 60
leaf_count=59 51 60
internal_value=-0.00102941 0.0019958
internal_weight=170 119
internal_count=170 119
is_linear=0
shrinkage=0.05


Tree=100
num_leaves=3
num_cat=0
split_feature=14 12
split_gain=0.905641 1.28136
threshold=0.021887680112557487 0.12022446121543574
decision_type=2 2
left_child=1 -1
right_child=-2 -3
leaf_value=0.0014922364399756775 0.0026051209016095273 -0.001986905875059865
leaf_weight=58 63 52
leaf_count=58 63 52
internal_value=-0.000216763 -0.00295455
internal_weight=173 110
internal_count=173 110
is_linear=0
shrinkage=0.05


Tree=101
num_leaves=3
num_cat=0
split_feature=12 14
split_gain=0.784703 0.634317
threshold=0.2511518069119934 0.0025840133930003233
decision_type=2 2
left_child=1 -1
right_child=-2 -3
leaf_value=-0.00013292534187047384 -0.0024962073902255952 0.0020693113162331108
leaf_weight=56 56 53
leaf_count=56 56 53
internal_value=-0.00143939 0.00103211
internal_weight=165 109
internal_count=165 109
is_linear=0
shrinkage=0.05


Tree=102
num_leaves=3
num_cat=0
split_feature=4 6
split_gain=0.936463 0.503892
threshold=0.43521299677761621 0.14011054320582969
decision_type=2 2
left_child=1 -1
right_child=-2 -3
leaf_value=-7.866332082008613e-05 -0.0013238594477702488 0.0037383399585328003
leaf_weight=51 74 52
leaf_count=51 74 52
internal_value=-0.000776836 0.00230583
internal_weight=177 103
internal_count=177 103
is_linear=0
shrinkage=0.05


Tree=103
num_leaves=2
num_cat=0
split_feature=4
split_gain=0.55191
threshold=0.42227260715215115
decision_type=2
left_child=-1
right_child=-2
leaf_value=0.0021798104818963183 -0.00094001464147120274
leaf_weight=95 72
leaf_count=95 72
internal_value=0.000523952
internal_weight=167
internal_count=167
is_linear=0
shrinkage=0.05


Tree=104
num_leaves=3
num_cat=0
split_feature=7 4
split_gain=0.452941 0.480392
threshold=1.5907232522608465 0.63981499015746646
decision_type=2 2
left_child=-1 -2
right_child=1 -3
leaf_value=-0.00042141386310817747 0.0014423277435895716 -0.00027762095464285361
leaf_weight=63 51 51
leaf_count=63 51 51
internal_value=-0.000833333 0.00122549
internal_weight=165 102
internal_count=165 102
is_linear=0
shrinkage=0.05


Tree=105
num_leaves=2
num_cat=0
split_feature=8
split_gain=0.925304
threshold=0.20922711447865211
decision_type=2
left_child=-1
right_child=-2
leaf_value=-0.001571065056172786 0.0020627532231269645
leaf_weight=88 74
leaf_count=88 74
internal_value=-0.00108025
internal_weight=162
internal_count=162
is_linear=0
shrinkage=0.05


Tree=106
num_leaves=2
num_cat=0
split_feature=7
split_gain=1.52972
threshold=1.5907232522608465
decision_type=2
left_child=-1
right_child=-2
leaf_value=-0.0023958634840458631 0.0004056208949443886
leaf_weight=71 99
leaf_count=71 99
internal_value=-0.00161765
internal_weight=170
internal_count=170
is_linear=0
shrinkage=0.05


Tree=107
num_leaves=3
num_cat=0
split_feature=7 13
split_gain=0.684462 1.22034
threshold=2.2397363128470542 0.16524475811447217
decision_type=2 2
left_child=1 -1
right_child=-2 -3
leaf_value=0.0013927047746267491 0.00059053849875693922 -0.0034931181415510356
leaf_weight=59 58 59
leaf_count=59 58 59
internal_value=-0.000568182 -0.00275424
internal_weight=176 118
internal_count=176 118
is_linear=0
shrinkage=0.05


Tree=108
num_leaves=2
num_cat=0
split_feature=7
split_gain=0.932258
threshold=1.5907232522608465
decision_type=2
left_child=-1
right_child=-2
leaf_value=-0.0018435385112952716 0.00046074287490042499
leaf_weight=62 98
leaf_count=62 98
internal_value=-0.00125
internal_weight=160
internal_count=160
is_linear=0
shrinkage=0.05


Tree=109
num_leaves=2
num_cat=0
split_feature=13
split_gain=0.950192
threshold=0.16524475811447217
decision_type=2
left_child=-1
right_child=-2
leaf_value=0.0010650092336216492 -0.00075359058074037089
leaf_weight=81 93
leaf_count=81 93
internal_value=-0.000718391
internal_weight=174
internal_count=174
is_linear=0
shrinkage=0.05


Tree=110
num_leaves=2
num_cat=0
split_feature=13
split_gain=0.6156
threshold=0.16524475811447217
decision_type=2
left_child=-1
right_child=-2
leaf_value=0.00094059669942993251 -0.00071591105170335238
leaf_weight=79 93
leaf_count=79 93
internal_value=-0.000872093
internal_weight=172
internal_count=172
is_linear=0
shrinkage=0.05


Tree=111
num_leaves=3
num_cat=0
split_feature=7 4
split_gain=1.27785 0.405671
threshold=1.5907232522608465 0.61740669355382771
decision_type=2 2
left_child=-1 -2
right_child=1 -3
leaf_value=-0.0030732788282185728 0.0022219415136617258 -2.199590857493647e-05
leaf_weight=63 52 50
leaf_count=63 52 50
internal_value=-0.00174242 0.00171569
internal_weight=165 102
internal_count=165 102
is_linear=0
shrinkage=0.05


Tree=112
num_leaves=2
num_cat=0
split_feature=0
split_gain=0.926747
threshold=22690500000.000004
decision_type=2
left_child=-1
right_child=-2
leaf_value=-0.001199912248657116 0.0004465528271741598
leaf_weight=89 80
leaf_count=89 80
internal_value=-0.00140533
internal_weight=169
internal_count=169
is_linear=0
shrinkage=0.05


Tree=113
num_leaves=2
num_cat=0
split_feature=4
split_gain=0.830946
threshold=0.43521299677761621
decision_type=2
left_child=-1
right_child=-2
leaf_value=0.0042837071328634515 -0.0012741561085920115
leaf_weight=92 68
leaf_count=92 68
internal_value=0.00125
internal_weight=160
internal_count=160
is_linear=0
shrinkage=0.05


Tree=114
num_leaves=3
num_cat=0
split_feature=7 4
split_gain=0.605821 0.448462
threshold=1.5907232522608465 0.61740669355382771
decision_type=2 2
left_child=-1 -2
right_child=1 -3
leaf_value=-0.00038169972656691979 0.0030159018385655222 -0.00030331262896635017
leaf_weight=71 51 52
leaf_count=71 51 52
internal_value=-0.000143678 0.00230583
internal_weight=174 103
internal_count=174 103
is_linear=0
shrinkage=0.05


Tree=115
num_leaves=2
num_cat=0
split_feature=15
split_gain=0.542902
threshold=0.0051886474194974977
decision_type=2
left_child=-1
right_child=-2
leaf_value=-0.00042953738846849643 0.0010664933064244921
leaf_weight=76 94
leaf_count=76 94
internal_value=-0.000147059
internal_weight=170
internal_count=170
is_linear=0
shrinkage=0.05


Tree=116
num_leaves=2
num_cat=0
split_feature=15
split_gain=1.01277
threshold=0.0070534446968245701
decision_type=2
left_child=-1
right_child=-2
leaf_value=-0.0010866659238226058 0.0010656214187979626
leaf_weight=87 84
leaf_count=87 84
internal_value=-0.00153509
internal_weight=171
internal_count=171
is_linear=0
shrinkage=0.05


Tree=117
num_leaves=3
num_cat=0
split_feature=13 11
split_gain=1.54112 0.587215
threshold=0.025481616898193175 0.39441501779933014
decision_type=2 2
left_child=-1 -2
right_child=1 -3
leaf_value=0.0033952737653540886 -0.0025987511740680359 0.00055891974953682785
leaf_weight=52 69 50
leaf_count=52 69 50
internal_value=0.000511696 -0.00262605
internal_weight=171 119
internal_count=171 119
is_linear=0
shrinkage=0.05


Tree=118
num_leaves=2
num_cat=0
split_feature=15
split_gain=0.706282
threshold=0.0070534446968245701
decision_type=2
left_child=-1
right_child=-2
leaf_value=-0.00077196201697156798 0.0010635987400194234
leaf_weight=78 93
leaf_count=78 93
internal_value=-0.000657895
internal_weight=171
internal_count=171
is_linear=0
shrinkage=0.05


Tree=119
num_leaves=3
num_cat=0
split_feature=0 11
split_gain=0.676943 0.765428
threshold=19459000000.000004 0.26974636789094025
decision_type=2 2
left_child=-1 -2
right_child=1 -3
leaf_value=-0.0009841251034621197 -0.0003530045997211984 0.0036601226841934593
leaf_weight=75 51 50
leaf_count=75 51 50
internal_value=-0.000568182 0.00210396
internal_weight=176 101
internal_count=176 101
is_linear=0
shrinkage=0.05


Tree=120
num_leaves=2
num_cat=0
split_feature=8
split_gain=1.29619
threshold=0.20922711447865211
decision_type=2
left_child=-1
right_child=-2
leaf_value=-0.0014975504159688751 0.0010605983785106007
leaf_weight=88 68
leaf_count=88 68
internal_value=-0.00224359
internal_weight=156
internal_count=156
is_linear=0
shrinkage=0.05


Tree=121
num_leaves=3
num_cat=0
split_feature=12 9
split_gain=0.474951 0.525888
threshold=0.24137764414813992 6902000000.000001
decision_type=2 2
left_child=1 -1
right_child=-2 -3
leaf_value=0.0011433713673697236 -0.00071376878007438967 -0.00048745738640919252
leaf_weight=50 51 64
leaf_count=50 51 64
internal_value=-0.00113636 0.000657895
internal_weight=165 114
internal_count=165 114
is_linear=0
shrinkage=0.05


Tree=122
num_leaves=2
num_cat=0
split_feature=4
split_gain=0.739113
threshold=0.42227260715215115
decision_type=2
left_child=-1
right_child=-2
leaf_value=0.00082999009047686392 -0.00087186750875572333
leaf_weight=84 74
leaf_count=84 74
internal_value=-0.00142405
internal_weight=158
internal_count=158
is_linear=0
shrinkage=0.05


Tree=123
num_leaves=2
num_cat=0
split_feature=15
split_gain=1.28126
threshold=0.0070534446968245701
decision_type=2
left_child=-1
right_child=-2
leaf_value=-0.00086148631504587292 0.0023282637646685977
leaf_weight=77 86
leaf_count=77 86
internal_value=-0.000996933
internal_weight=163
internal_count=163
is_linear=0
shrinkage=0.05


Tree=124
num_leaves=3
num_cat=0
split_feature=13 7
split_gain=0.971103 0.430784
threshold=0.059514402178376898 1.9318275003521463
decision_type=2 2
left_child=-1 -2
right_child=1 -3
leaf_value=0.00176252121794266 -0.0024225919199560991 8.7893391620638526e-05
leaf_weight=59 50 52
leaf_count=59 50 52
internal_value=-0.000232919 -0.00318627
internal_weight=161 102
internal_count=161 102
is_linear=0
shrinkage=0.05


Tree=125
num_leaves=3
num_cat=0
split_feature=7 4
split_gain=0.679146 0.445903
threshold=1.5907232522608465 0.64955872363803302
decision_type=2 2
left_child=-1 -2
right_child=1 -3
leaf_value=-0.0022502955151067448 0.0028138117062466799 -0.00014054707780261207
leaf_weight=65 51 52
leaf_count=65 51 52
internal_value=-0.00119048 0.00133495
internal_weight=168 103
internal_count=168 103
is_linear=0
shrinkage=0.05


Tree=126
num_leaves=2
num_cat=0
split_feature=4
split_gain=1.4684
threshold=0.42227260715215115
decision_type=2
left_child=-1
right_child=-2
leaf_value=0.0028407747686152122 -0.0018602745429159096
leaf_weight=89 79
leaf_count=89 79
internal_value=-0.000892857
internal_weight=168
internal_count=168
is_linear=0
shrinkage=0.05


Tree=127
num_leaves=3
num_cat=0
split_feature=4 12
split_gain=0.763341 0.627451
threshold=0.45522907836147725 0.22353916482000227
decision_type=2 2
left_child=1 -1
right_child=-2 -3
leaf_value=0.0024654805721806804 -0.0011100508220811521 -0.00039128247151062109
leaf_weight=51 59 51
leaf_count=51 59 51
internal_value=7.76398e-05 0.00269608
internal_weight=161 102
internal_count=161 102
is_linear=0
shrinkage=0.05


Tree=128
num_leaves=2
num_cat=0
split_feature=4
split_gain=0.620284
threshold=0.42227260715215115
decision_type=2
left_child=-1
right_child=-2
leaf_value=0.0022114140793940682 -0.0013787603720791033
leaf_weight=97 75
leaf_count=97 75
internal_value=0.000581395
internal_weight=172
internal_count=172
is_linear=0
shrinkage=0.05


Tree=129
num_leaves=3
num_cat=0
split_feature=7 15
split_gain=0.364334 0.514554
threshold=1.4659019318032513 0.0051886474194974977
decision_type=2 2
left_child=-1 -2
right_child=1 -3
leaf_value=-0.00086893735290256326 -0.0005083387756117608 0.0038095573747037024
leaf_weight=58 53 60
leaf_count=58 53 60
internal_value=-0.000657895 0.000995575
internal_weight=171 113
internal_count=171 113
is_linear=0
shrinkage=0.05


Tree=130
num_leaves=2
num_cat=0
split_feature=3
split_gain=0.58231
threshold=5170000000.000001
decision_type=2
left_child=-1
right_child=-2
leaf_value=-0.00066091329598216625 0.0016434155509636131
leaf_weight=82 81
leaf_count=82 81
internal_value=-0.000383436
internal_weight=163
internal_count=163
is_linear=0
shrinkage=0.05


Tree=131
num_leaves=3
num_cat=0
split_feature=10 7
split_gain=0.657848 0.73476
threshold=0.17896922060802722 1.8514449135978739
decision_type=2 2
left_child=-1 -2
right_child=1 -3
leaf_value=0.0010931126274652092 -0.0026475177966933296 0.0012738894959632458
leaf_weight=64 52 51
leaf_count=64 52 51
internal_value=-7.48503e-05 -0.00254854
internal_weight=167 103
internal_count=167 103
is_linear=0
shrinkage=0.05


Tree=132
num_leaves=2
num_cat=0
split_feature=8
split_gain=0.830888
threshold=0.20922711447865211
decision_type=2
left_child=-1
right_child=-2
leaf_value=-0.0012646490845486834 0.0016936206632500992
leaf_weight=96 73
leaf_count=96 73
internal_value=-0.00110947
internal_weight=169
internal_count=169
is_linear=0
shrinkage=0.05


Tree=133
num_leaves=3
num_cat=0
split_feature=14 13
split_gain=0.747052 0.726945
threshold=0.034792177424008058 0.18597628508694955
decision_type=2 2
left_child=1 -1
right_child=-2 -3
leaf_value=0.00020658734087427438 0.0032338814420999687 -0.0016858932695959076
leaf_weight=72 51 51
leaf_count=72 51 51
internal_value=-0.000431034 -0.00254065
internal_weight=174 123
internal_count=174 123
is_linear=0
shrinkage=0.05


Tree=134
num_leaves=2
num_cat=0
split_feature=4
split_gain=0.876042
threshold=0.45522907836147725
decision_type=2
left_child=-1
right_child=-2
leaf_value=0.001024204211045822 -0.0015726687808621056
leaf_weight=96 64
leaf_count=96 64
internal_value=-0.0009375
internal_weight=160
internal_count=160
is_linear=0
shrinkage=0.05


Tree=135
num_leaves=2
num_cat=0
split_feature=15
split_gain=0.566548
threshold=0.0070534446968245701
decision_type=2
left_child=-1
right_child=-2
leaf_value=-0.0010999971649159009 0.00015846647199102898
leaf_weight=77 86
leaf_count=77 86
internal_value=-0.00191718
internal_weight=163
internal_count=163
is_linear=0
shrinkage=0.05


Tree=136
num_leaves=3
num_cat=0
split_feature=12 14
split_gain=1.04697 0.663358
threshold=0.2668205913492066 0.0025840133930003233
decision_type=2 2
left_child=1 -1
right_child=-2 -3
leaf_value=-0.00049841302642392768 -0.003156470494509859 0.0024814450719267316
leaf_weight=59 52 53
leaf_count=59 52 53
internal_value=-0.00182927 0.000892857
internal_weight=164 112
internal_count=164 112
is_linear=0
shrinkage=0.05


Tree=137
num_leaves=3
num_cat=0
split_feature=12 4
split_gain=1.0806 0.622111
threshold=0.2668205913492066 0.42227260715215115
decision_type=2 2
left_child=1 -1
right_child=-2 -3
leaf_value=0.0024526211392205902 -0.00339026154727344 -0.00050609295767469874
leaf_weight=50 50 66
leaf_count=50 50 66
internal_value=-0.00135542 0.0012931
internal_weight=166 116
internal_count=166 116
is_linear=0
shrinkage=0.05


Tree=138
num_leaves=2
num_cat=0
split_feature=12
split_gain=1.21335
threshold=0.17679082875282384
decision_type=2
left_child=-1
right_child=-2
leaf_value=0.0011306786326230282 -0.00080849423025647837
leaf_weight=90 77
leaf_count=90 77
internal_value=0.000224551
internal_weight=167
internal_count=167
is_linear=0
shrinkage=0.05


Tree=139
num_leaves=3
num_cat=0
split_feature=12 3
split_gain=0.750029 0.257547
threshold=0.20844080075229035 6781000000.000001
decision_type=2 2
left_child=1 -1
right_child=-2 -3
leaf_value=0.00022605473870524126 -0.00080819563658040714 0.0022490755883806863
leaf_weight=52 62 53
leaf_count=52 62 53
internal_value=-7.48503e-05 0.0025
internal_weight=167 105
internal_count=167 105
is_linear=0
shrinkage=0.05


Tree=140
num_leaves=3
num_cat=0
split_feature=4 12
split_gain=0.681323 1.47333
threshold=0.42227260715215115 0.2511518069119934
decision_type=2 2
left_child=1 -1
right_child=-2 -3
leaf_value=0.0041487794864939033 -0.0021616381998003659 -0.00078043187333789597
leaf_weight=51 74 50
leaf_count=51 74 50
internal_value=-7.14286e-05 0.00259901
internal_weight=175 101
internal_count=175 101
is_linear=0
shrinkage=0.05


Tree=141
num_leaves=3
num_cat=0
split_feature=13 11
split_gain=0.819156 0.412208
threshold=0.025481616898193175 0.31199315227915819
decision_type=2 2
left_child=-1 -2
right_child=1 -3
leaf_value=0.0010049714522625008 -0.0021918809981290848 1.6668096621459684e-05
leaf_weight=55 50 55
leaf_count=55 50 55
internal_value=-0.000625 -0.00321429
internal_weight=160 105
internal_count=160 105
is_linear=0
shrinkage=0.05


Tree=142
num_leaves=3
num_cat=0
split_feature=0 7
split_gain=1.10735 0.766496
threshold=12250000000.000002 1.5907232522608465
decision_type=2 2
left_child=-1 -2
right_child=1 -3
leaf_value=0.00061386066882825995 -0.0027986137026920293 -4.401591606069972e-05
leaf_weight=60 55 62
leaf_count=60 55 62
internal_value=-0.00218927 -0.00502137
internal_weight=177 117
internal_count=177 117
is_linear=0
shrinkage=0.05


Tree=143
num_leaves=2
num_cat=0
split_feature=7
split_gain=1.66234
threshold=1.5907232522608465
decision_type=2
left_child=-1
right_child=-2
leaf_value=-0.0024272790679262315 0.0010479761492470279
leaf_weight=67 98
leaf_count=67 98
internal_value=-0.000833333
internal_weight=165
internal_count=165
is_linear=0
shrinkage=0.05


Tree=144
num_leaves=3
num_cat=0
split_feature=4 5
split_gain=0.446977 0.09
threshold=0.42227260715215115 0.16545819695902916
decision_type=2 2
left_child=1 -1
right_child=-2 -3
leaf_value=-5.409372634182421e-05 -0.0011337119889369399 0.0019180938145875563
leaf_weight=50 72 50
leaf_count=50 72 50
internal_value=-0.00116279 0.001
internal_weight=172 100
internal_count=172 100
is_linear=0
shrinkage=0.05


Tree=145
num_leaves=3
num_cat=0
split_feature=12 14
split_gain=0.690127 0.268565
threshold=0.1935902837612368 -0.001507615621358732
decision_type=2 2
left_child=1 -1
right_child=-2 -3
leaf_value=7.2309340380684835e-05 -0.0012162082761146228 0.0016499515469098728
leaf_weight=50 68 51
leaf_count=50 68 51
internal_value=-0.000517751 0.00210396
internal_weight=169 101
internal_count=169 101
is_linear=0
shrinkage=0.05


Tree=146
num_leaves=2
num_cat=0
split_feature=4
split_gain=0.591754
threshold=0.42227260715215115
decision_type=2
left_child=-1
right_child=-2
leaf_value=0.0012914520334586996 -0.00055311323016242725
leaf_weight=97 73
leaf_count=97 73
internal_value=0.000147059
internal_weight=170
internal_count=170
is_linear=0
shrinkage=0.05


Tree=147
num_leaves=2
num_cat=0
split_feature=15
split_gain=0.718856
threshold=0.0070534446968245701
decision_type=2
left_child=-1
right_child=-2
leaf_value=-0.00043094101265334658 0.0016041374547739768
leaf_weight=75 86
leaf_count=75 86
internal_value=7.76398e-05
internal_weight=161
internal_count=161
is_linear=0
shrinkage=0.05


Tree=148
num_leaves=2
num_cat=0
split_feature=4
split_gain=0.595361
threshold=0.42227260715215115
decision_type=2
left_child=-1
right_child=-2
leaf_value=0.0011285926233653536 -0.0011101777829912675
leaf_weight=91 79
leaf_count=91 79
internal_value=-0.000147059
internal_weight=170
internal_count=170
is_linear=0
shrinkage=0.05


Tree=149
num_leaves=3
num_cat=0
split_feature=7 4
split_gain=1.19872 0.09
threshold=1.5907232522608465 0.61740669355382771
decision_type=2 2
left_child=-1 -2
right_child=1 -3
leaf_value=-0.0021124944466238194 0.0019782164040354831 0.00037026419696615452
leaf_weight=66 50 50
leaf_count=66 50 50
internal_value=-0.000451807 0.003
internal_weight=166 100
internal_count=166 100
is_linear=0
shrinkage=0.05


Tree=150
num_leaves=2
num_cat=0
split_feature=4
split_gain=0.590529
threshold=0.42227260715215115
decision_type=2
left_child=-1
right_child=-2
leaf_value=0.00073550391192971423 -0.0022366408136549956
leaf_weight=97 69
leaf_count=97 69
internal_value=-0.00135542
internal_weight=166
internal_count=166
is_linear=0
shrinkage=0.05


Tree=151
num_leaves=3
num_cat=0
split_feature=8 3
split_gain=0.676698 0.588478
threshold=0.16774914937747068 2765500000.0000005
decision_type=2 2
left_child=-1 -2
right_child=1 -3
leaf_value=-0.00071711376967330319 -0.00023657479824290597 0.0017390219729585675
leaf_weight=66 50 59
leaf_count=66 50 59
internal_value=-0.000928571 0.00149083
internal_weight=175 109
internal_count=175 109
is_linear=0
shrinkage=0.05


Tree=152
num_leaves=3
num_cat=0
split_feature=12 15
split_gain=0.714835 0.25
threshold=0.1935902837612368 -0.0045025051277975047
decision_type=2 2
left_child=1 -1
right_child=-2 -3
leaf_value=0.00059609982310917468 -0.00075581560906223192 -0.00049065971321748936
leaf_weight=50 69 50
leaf_count=50 69 50
internal_value=-0.00170118 0.001
internal_weight=169 100
internal_count=169 100
is_linear=0
shrinkage=0.05


Tree=153
num_leaves=3
num_cat=0
split_feature=12 5
split_gain=1.31743 0.325104
threshold=0.21669421450000162 0.30513695083258185
decision_type=2 2
left_child=1 -1
right_child=-2 -3
leaf_value=-0.00039294179270382338 -0.0025215976124029291 0.001336772682871006
leaf_weight=52 60 51
leaf_count=52 60 51
internal_value=-0.00161043 0.00182039
internal_weight=163 103
internal_count=163 103
is_linear=0
shrinkage=0.05


Tree=154
num_leaves=3
num_cat=0
split_feature=12 4
split_gain=0.952534 0.672277
threshold=0.2668205913492066 0.42887060648822484
decision_type=2 2
left_child=1 -1
right_child=-2 -3
leaf_value=0.0028978977462866024 -0.001224624570611928 6.8932117067654205e-05
leaf_weight=58 56 68
leaf_count=58 56 68
internal_value=0.000961538 0.00337302
internal_weight=182 126
internal_count=182 126
is_linear=0
shrinkage=0.05


Tree=155
num_leaves=2
num_cat=0
split_feature=13
split_gain=1.05405
threshold=0.18597628508694955
decision_type=2
left_child=-1
right_child=-2
leaf_value=0.0015598887418618132 -0.00094341645206869789
leaf_weight=81 91
leaf_count=81 91
internal_value=-0.000290698
internal_weight=172
internal_count=172
is_linear=0
shrinkage=0.05


Tree=156
num_leaves=3
num_cat=0
split_feature=7 0
split_gain=0.862394 0.485656
threshold=1.5907232522608465 17389500000.000004
decision_type=2 2
left_child=-1 -2
right_child=1 -3
leaf_value=-0.0018166803722812917 -0.00018648256064656319 0.0016992181729390274
leaf_weight=65 55 51
leaf_count=65 55 51
internal_value=-0.000657895 0.00212264
internal_weight=171 106
internal_count=171 106
is_linear=0
shrinkage=0.05


Tree=157
num_leaves=3
num_cat=0
split_feature=6 2
split_gain=0.524224 0.182834
threshold=0.19987286666416923 11054500000.000002
decision_type=2 2
left_child=-1 -2
right_child=1 -3
leaf_value=0.0003381945663938558 9.7510799781812263e-05 -0.0011724181545364914
leaf_weight=75 51 50
leaf_count=75 51 50
internal_value=0 -0.00235149
internal_weight=176 101
internal_count=176 101
is_linear=0
shrinkage=0.05


Tree=158
num_leaves=3
num_cat=0
split_feature=4 12
split_gain=0.607695 0.400739
threshold=0.42227260715215115 0.2511518069119934
decision_type=2 2
left_child=1 -1
right_child=-2 -3
leaf_value=0.0024646694169404145 -0.0004445093939916061 -0.00026668342649914105
leaf_weight=52 80 50
leaf_count=52 80 50
internal_value=0.000137363 0.00269608
internal_weight=182 102
internal_count=182 102
is_linear=0
shrinkage=0.05


Tree=159
num_leaves=3
num_cat=0
split_feature=12 14
split_gain=0.642331 0.16
threshold=0.20844080075229035 -0.0038036562752882075
decision_type=2 2
left_child=1 -1
right_child=-2 -3
leaf_value=0.00027235595296435294 -0.00059741349942099987 0.0018151158876817597
leaf_weight=50 65 50
leaf_count=50 65 50
internal_value=0.000984848 0.0035
internal_weight=165 100
internal_count=165 100
is_linear=0
shrinkage=0.05


Tree=160
num_leaves=3
num_cat=0
split_feature=11 4
split_gain=0.625623 0.627441
threshold=0.44442251964520901 0.38224862036019042
decision_type=2 2
left_child=1 -1
right_child=-2 -3
leaf_value=0.00018104970095780305 0.0012316894560482549 -0.0019620047205909821
leaf_weight=56 56 58
leaf_count=56 56 58
internal_value=0.00102941 -0.00109649
internal_weight=170 114
internal_count=170 114
is_linear=0
shrinkage=0.05


Tree=161
num_leaves=2
num_cat=0
split_feature=3
split_gain=0.460465
threshold=5170000000.000001
decision_type=2
left_child=-1
right_child=-2
leaf_value=-0.00042003000666126068 0.0012636233716623265
leaf_weight=90 86
leaf_count=90 86
internal_value=0
internal_weight=176
internal_count=176
is_linear=0
shrinkage=0.05


Tree=162
num_leaves=3
num_cat=0
split_feature=0 10
split_gain=0.572804 0.489529
threshold=12250000000.000002 0.25796896433008804
decision_type=2 2
left_child=-1 -2
right_child=1 -3
leaf_value=0.00085383364560330521 -0.0011947121971410805 0.0014144771810877539
leaf_weight=61 57 59
leaf_count=61 57 59
internal_value=0.00120056 -0.000862069
internal_weight=177 116
internal_count=177 116
is_linear=0
shrinkage=0.05


Tree=163
num_leaves=2
num_cat=0
split_feature=14
split_gain=0.782107
threshold=0.0025840133930003233
decision_type=2
left_child=-1
right_child=-2
leaf_value=-0.00088529290014920765 0.00067421925050714497
leaf_weight=71 98
leaf_count=71 98
internal_value=-0.00110947
internal_weight=169
internal_count=169
is_linear=0
shrinkage=0.05


Tree=164
num_leaves=3
num_cat=0
split_feature=8 14
split_gain=0.432163 0.310303
threshold=0.16774914937747068 0.015072498491326957
decision_type=2 2
left_child=-1 -2
right_child=1 -3
leaf_value=-0.0013981183110707614 -0.00024002477427007685 0.0027732216726077128
leaf_weight=62 60 50
leaf_count=62 60 50
internal_value=-0.000290698 0.00159091
internal_weight=172 110
internal_count=172 110
is_linear=0
shrinkage=0.05


Tree=165
num_leaves=2
num_cat=0
split_feature=13
split_gain=0.548592
threshold=0.1977325592070395
decision_type=2
left_child=-1
right_child=-2
leaf_value=0.00067129017673291005 -0.0012369627174802851
leaf_weight=84 82
leaf_count=84 82
internal_value=-0.00105422
internal_weight=166
internal_count=166
is_linear=0
shrinkage=0.05


Tree=166
num_leaves=3
num_cat=0
split_feature=12 10
split_gain=0.542297 0.341172
threshold=0.2668205913492066 0.24891928059206592
decision_type=2 2
left_child=1 -1
right_child=-2 -3
leaf_value=0.00079927510270139536 -0.0011405746229620009 -2.1311134059978643e-05
leaf_weight=58 51 61
leaf_count=58 51 61
internal_value=0.000147059 0.0019958
internal_weight=170 119
internal_count=170 119
is_linear=0
shrinkage=0.05


Tree=167
num_leaves=3
num_cat=0
split_feature=13 4
split_gain=0.690554 0.485656
threshold=0.3199046762542555 0.42227260715215115
decision_type=2 2
left_child=1 -1
right_child=-2 -3
leaf_value=0.0021517254498415795 -0.0014958622728274322 -0.00036239709054064901
leaf_weight=51 65 55
leaf_count=51 65 55
internal_value=-0.000365497 0.00212264
internal_weight=171 106
internal_count=171 106
is_linear=0
shrinkage=0.05


Tree=168
num_leaves=3
num_cat=0
split_feature=7 4
split_gain=0.754546 0.474113
threshold=1.5907232522608465 0.46976068359534101
decision_type=2 2
left_child=-1 -2
right_child=1 -3
leaf_value=-0.0011610890002072102 0.0021104576173091106 -7.458412583876591e-05
leaf_weight=71 50 55
leaf_count=71 50 55
internal_value=0.000284091 0.00297619
internal_weight=176 105
internal_count=176 105
is_linear=0
shrinkage=0.05


Tree=169
num_leaves=2
num_cat=0
split_feature=12
split_gain=0.708592
threshold=0.1935902837612368
decision_type=2
left_child=-1
right_child=-2
leaf_value=0.00027652412703307698 -0.00072076133328208844
leaf_weight=92 69
leaf_count=92 69
internal_value=-0.00178571
internal_weight=161
internal_count=161
is_linear=0
shrinkage=0.05


Tree=170
num_leaves=3
num_cat=0
split_feature=12 5
split_gain=0.611863 1.00595
threshold=0.27154957792486217 0.27706422427887784
decision_type=2 2
left_child=1 -1
right_child=-2 -3
leaf_value=0.0017455980938674909 -0.00061800106027894857 -0.00037003746920343168
leaf_weight=50 50 70
leaf_count=50 50 70
internal_value=0.000147059 0.00208333
internal_weight=170 120
internal_count=170 120
is_linear=0
shrinkage=0.05


Tree=171
num_leaves=2
num_cat=0
split_feature=3
split_gain=0.56192
threshold=5930500000.000001
decision_type=2
left_child=-1
right_child=-2
leaf_value=-0.00039712718927605516 0.00043222986591742664
leaf_weight=95 75
leaf_count=95 75
internal_value=-0.000735294
internal_weight=170
internal_count=170
is_linear=0
shrinkage=0.05


Tree=172
num_leaves=3
num_cat=0
split_feature=0 7
split_gain=0.552632 0.865483
threshold=12250000000.000002 1.6620365253298732
decision_type=2 2
left_child=-1 -2
right_child=1 -3
leaf_value=0.0010572182541730404 -0.0018892289419534072 0.00067315213886364811
leaf_weight=54 52 62
leaf_count=54 52 62
internal_value=0 -0.00197368
internal_weight=168 114
internal_count=168 114
is_linear=0
shrinkage=0.05


Tree=173
num_leaves=2
num_cat=0
split_feature=6
split_gain=0.500063
threshold=0.20825316339708261
decision_type=2
left_child=-1
right_child=-2
leaf_value=0.00040069511449858223 -0.0010456445536812854
leaf_weight=72 88
leaf_count=72 88
internal_value=-0.0003125
internal_weight=160
internal_count=160
is_linear=0
shrinkage=0.05


Tree=174
num_leaves=2
num_cat=0
split_feature=3
split_gain=0.944892
threshold=5930500000.000001
decision_type=2
left_child=-1
right_child=-2
leaf_value=-0.00038644076318974517 0.0020008986057389669
leaf_weight=99 67
leaf_count=99 67
internal_value=0.000451807
internal_weight=166
internal_count=166
is_linear=0
shrinkage=0.05


Tree=175
num_leaves=3
num_cat=0
split_feature=13 1
split_gain=0.80084 0.399736
threshold=1.0000000180025095e-35 10673500000.000002
decision_type=2 2
left_child=-1 -2
right_child=1 -3
leaf_value=0.0012402956869388125 -3.0708628913304896e-05 -0.0018762486058054584
leaf_weight=51 53 60
leaf_count=51 53 60
internal_value=-0.00152439 -0.00387168
internal_weight=164 113
internal_count=164 113
is_linear=0
shrinkage=0.05


Tree=176
num_leaves=3
num_cat=0
split_feature=15 15
split_gain=0.494152 0.668952
threshold=-0.010736436379508383 0.024546112592305953
decision_type=2 2
left_child=-1 -2
right_child=1 -3
leaf_value=0.00060900980929133673 -0.0020352684912625383 0.00062915245819448811
leaf_weight=57 51 63
leaf_count=57 51 63
internal_value=-0.000950292 -0.00285088
internal_weight=171 114
internal_count=171 114
is_linear=0
shrinkage=0.05


Tree=177
num_leaves=2
num_cat=0
split_feature=7
split_gain=1.17036
threshold=1.5907232522608465
decision_type=2
left_child=-1
right_child=-2
leaf_value=-0.001384479741841778 0.0006043543525197561
leaf_weight=69 96
leaf_count=69 96
internal_value=7.57576e-05
internal_weight=165
internal_count=165
is_linear=0
shrinkage=0.05


Tree=178
num_leaves=2
num_cat=0
split_feature=11
split_gain=0.476958
threshold=0.32432238681619513
decision_type=2
left_child=-1
right_child=-2
leaf_value=0.00033223818236231524 -0.00071758512236227848
leaf_weight=86 73
leaf_count=86 73
internal_value=-0.00165094
internal_weight=159
internal_count=159
is_linear=0
shrinkage=0.05


Tree=179
num_leaves=3
num_cat=0
split_feature=13 14
split_gain=0.553672 0.392341
threshold=0.025481616898193175 0.021887680112557487
decision_type=2 2
left_child=-1 -2
right_child=1 -3
leaf_value=0.0010919236831277378 -0.0016280606729780851 -3.522432652071292e-05
leaf_weight=59 64 54
leaf_count=59 64 54
internal_value=-0.00162429 -0.00360169
internal_weight=177 118
internal_count=177 118
is_linear=0
shrinkage=0.05


Tree=180
num_leaves=3
num_cat=0
split_feature=1 3
split_gain=0.771011 0.382137
threshold=3643500000.0000005 6781000000.000001
decision_type=2 2
left_child=-1 -2
right_child=1 -3
leaf_value=0.00092031013818882424 -0.0020353614483621068 -3.2085536394689565e-05
leaf_weight=51 58 64
leaf_count=51 58 64
internal_value=-0.00050578 -0.00266393
internal_weight=173 122
internal_count=173 122
is_linear=0
shrinkage=0.05


Tree=181
num_leaves=2
num_cat=0
split_feature=4
split_gain=1.38422
threshold=0.42227260715215115
decision_type=2
left_child=-1
right_child=-2
leaf_value=0.0008999263906355544 -0.001336655951035489
leaf_weight=98 74
leaf_count=98 74
internal_value=-0.000581395
internal_weight=172
internal_count=172
is_linear=0
shrinkage=0.05


Tree=182
num_leaves=2
num_cat=0
split_feature=7
split_gain=0.871236
threshold=1.5907232522608465
decision_type=2
left_child=-1
right_child=-2
leaf_value=-0.0016977680736054688 0.00060777141532669719
leaf_weight=62 94
leaf_count=62 94
internal_value=-0.000641026
internal_weight=156
internal_count=156
is_linear=0
shrinkage=0.05


Tree=183
num_leaves=3
num_cat=0
split_feature=8 1
split_gain=0.641659 0.319818
threshold=0.22143806772566024 12394500000.000002
decision_type=2 2
left_child=1 -1
right_child=-2 -3
leaf_value=-4.1068096555872165e-05 0.0011750624240234109 -0.00074371483380155756
leaf_weight=50 68 51
leaf_count=50 68 51
internal_value=-0.000813609 -0.00334158
internal_weight=169 101
internal_count=169 101
is_linear=0
shrinkage=0.05


Tree=184
num_leaves=2
num_cat=0
split_feature=15
split_gain=0.578347
threshold=0.0070534446968245701
decision_type=2
left_child=-1
right_child=-2
leaf_value=-0.00059514682958101148 0.0011707148716880648
leaf_weight=77 96
leaf_count=77 96
internal_value=-0.00050578
internal_weight=173
internal_count=173
is_linear=0
shrinkage=0.05


Tree=185
num_leaves=3
num_cat=0
split_feature=4 13
split_gain=0.646382 0.947529
threshold=0.42227260715215115 0.3199046762542555
decision_type=2 2
left_child=1 -1
right_child=-2 -3
leaf_value=0.0011350906292114616 -0.0011398021356098425 -0.0011671281467398285
leaf_weight=50 70 51
leaf_count=50 70 51
internal_value=-0.000950292 0.00160891
internal_weight=171 101
internal_count=171 101
is_linear=0
shrinkage=0.05


Tree=186
num_leaves=3
num_cat=0
split_feature=7 3
split_gain=0.868275 0.09
threshold=1.5907232522608465 3670000000.0000005
decision_type=2 2
left_child=-1 -2
right_child=1 -3
leaf_value=-0.0011886137962869706 5.1827880036597716e-05 0.0023528709939778826
leaf_weight=65 50 50
leaf_count=65 50 50
internal_value=7.57576e-05 0.003
internal_weight=165 100
internal_count=165 100
is_linear=0
shrinkage=0.05


Tree=187
num_leaves=2
num_cat=0
split_feature=4
split_gain=0.780578
threshold=0.42227260715215115
decision_type=2
left_child=-1
right_child=-2
leaf_value=0.0011249486298674685 -0.00042214634093945064
leaf_weight=93 78
leaf_count=93 78
internal_value=0.000804094
internal_weight=171
internal_count=171
is_linear=0
shrinkage=0.05


Tree=188
num_leaves=2
num_cat=0
split_feature=3
split_gain=0.818482
threshold=5930500000.000001
decision_type=2
left_child=-1
right_child=-2
leaf_value=-0.00044751355295696279 0.0014145162822555004
leaf_weight=94 74
leaf_count=94 74
internal_value=-0.000892857
internal_weight=168
internal_count=168
is_linear=0
shrinkage=0.05


Tree=189
num_leaves=2
num_cat=0
split_feature=4
split_gain=1.33434
threshold=0.42227260715215115
decision_type=2
left_child=-1
right_child=-2
leaf_value=0.00070284433810865608 -0.0011229720678867388
leaf_weight=95 70
leaf_count=95 70
internal_value=-0.000833333
internal_weight=165
internal_count=165
is_linear=0
shrinkage=0.05


Tree=190
num_leaves=3
num_cat=0
split_feature=12 11
split_gain=0.698029 0.56001
threshold=0.2668205913492066 0.44442251964520901
decision_type=2 2
left_child=1 -1
right_child=-2 -3
leaf_value=-0.00010042572729048734 -0.00097274709779710845 0.0011365233247430718
leaf_weight=68 53 50
leaf_count=68 53 50
internal_value=-0.000657895 0.00148305
internal_weight=171 118
internal_count=171 118
is_linear=0
shrinkage=0.05


Tree=191
num_leaves=3
num_cat=0
split_feature=12 2
split_gain=0.757013 0.516766
threshold=0.28935409527597505 7045000000.000001
decision_type=2 2
left_child=1 -1
right_child=-2 -3
leaf_value=0.001348768920093118 -0.0013443337793776684 -0.00029016719113668003
leaf_weight=57 51 66
leaf_count=57 51 66
internal_value=-0.00100575 0.00111789
internal_weight=174 123
internal_count=174 123
is_linear=0
shrinkage=0.05


Tree=192
num_leaves=2
num_cat=0
split_feature=0
split_gain=0.703488
threshold=19459000000.000004
decision_type=2
left_child=-1
right_child=-2
leaf_value=-0.0003373721133705682 0.001350260422932221
leaf_weight=86 86
leaf_count=86 86
internal_value=0.000581395
internal_weight=172
internal_count=172
is_linear=0
shrinkage=0.05


Tree=193
num_leaves=3
num_cat=0
split_feature=7 3
split_gain=0.431627 0.548532
threshold=1.4659019318032513 4975000000.000001
decision_type=2 2
left_child=-1 -2
right_child=1 -3
leaf_value=-0.001746668737478971 -0.00044591579599049109 0.0035106552391387172
leaf_weight=53 69 52
leaf_count=53 69 52
internal_value=-0.000718391 0.000929752
internal_weight=174 121
internal_count=174 121
is_linear=0
shrinkage=0.05


Tree=194
num_leaves=3
num_cat=0
split_feature=10 2
split_gain=0.625542 0.415254
threshold=0.28953788896703742 2515500000.0000005
decision_type=2 2
left_child=1 -1
right_child=-2 -3
leaf_value=0.00026147925933162969 0.0021659577494441361 -0.0013351071827685226
leaf_weight=59 54 59
leaf_count=59 54 59
internal_value=-0.000290698 -0.00233051
internal_weight=172 118
internal_count=172 118
is_linear=0
shrinkage=0.05


Tree=195
num_leaves=3
num_cat=0
split_feature=8 14
split_gain=0.751968 0.408199
threshold=0.16774914937747068 0.0090231182084925827
decision_type=2 2
left_child=-1 -2
right_child=1 -3
leaf_value=-0.00057051446140602151 -5.2847955361157511e-05 0.0054404805771273296
leaf_weight=65 58 52
leaf_count=65 58 52
internal_value=-0.000928571 0.00159091
internal_weight=175 110
internal_count=175 110
is_linear=0
shrinkage=0.05


Tree=196
num_leaves=2
num_cat=0
split_feature=4
split_gain=0.826284
threshold=0.42227260715215115
decision_type=2
left_child=-1
right_child=-2
leaf_value=0.0004750937007526079 -0.0012457913507915325
leaf_weight=90 74
leaf_count=90 74
internal_value=-0.00182927
internal_weight=164
internal_count=164
is_linear=0
shrinkage=0.05


Tree=197
num_leaves=2
num_cat=0
split_feature=0
split_gain=1.11881
threshold=20361000000.000004
decision_type=2
left_child=-1
right_child=-2
leaf_value=-0.0004627507031255491 0.0018790535097557293
leaf_weight=79 85
leaf_count=79 85
internal_value=-0.000304878
internal_weight=164
internal_count=164
is_linear=0
shrinkage=0.05


Tree=198
num_leaves=2
num_cat=0
split_feature=13
split_gain=0.911252
threshold=0.20587809530662052
decision_type=2
left_child=-1
right_child=-2
leaf_value=0.00086108006200078977 -0.000930506965273608
leaf_weight=94 78
leaf_count=94 78
internal_value=-0.00145349
internal_weight=172
internal_count=172
is_linear=0
shrinkage=0.05


Tree=199
num_leaves=2
num_cat=0
split_feature=4
split_gain=0.650301
threshold=0.42227260715215115
decision_type=2
left_child=-1
right_child=-2
leaf_value=6.0680189210286783e-05 -0.001253323948316992
leaf_weight=95 80
leaf_count=95 80
internal_value=-0.00292857
internal_weight=175
internal_count=175
is_linear=0
shrinkage=0.05


Tree=200
num_leaves=3
num_cat=0
split_feature=8 15
split_gain=0.439054 0.229232
threshold=0.16774914937747068 0.0070534446968245701
decision_type=2 2
left_child=-1 -2
right_child=1 -3
leaf_value=-0.00089173308044840555 -0.0003911773824676779 0.0020323110648934719
leaf_weight=58 53 57
leaf_count=58 53 57
internal_value=-0.00208333 -0.000227273
internal_weight=168 110
internal_count=168 110
is_linear=0
shrinkage=0.05


Tree=201
num_leaves=2
num_cat=0
split_feature=13
split_gain=0.367461
threshold=0.3199046762542555
decision_type=2
left_child=-1
right_child=-2
leaf_value=0.00033286435895957711 -0.0014492003567934471
leaf_weight=94 62
leaf_count=94 62
internal_value=-0.000641026
internal_weight=156
internal_count=156
is_linear=0
shrinkage=0.05


Tree=202
num_leaves=3
num_cat=0
split_feature=11 13
split_gain=0.634466 0.539898
threshold=0.46395963320972256 0.16524475811447217
decision_type=2 2
left_child=1 -1
right_child=-2 -3
leaf_value=0.0007288200324979062 0.00090170016373572058 -0.0010152813693199805
leaf_weight=52 52 63
leaf_count=52 52 63
internal_value=0.000224551 -0.00184783
internal_weight=167 115
internal_count=167 115
is_linear=0
shrinkage=0.05


Tree=203
num_leaves=2
num_cat=0
split_feature=4
split_gain=0.542902
threshold=0.42227260715215115
decision_type=2
left_child=-1
right_child=-2
leaf_value=0.0006556735285979708 -0.00082002499266843544
leaf_weight=94 76
leaf_count=94 76
internal_value=-0.000147059
internal_weight=170
internal_count=170
is_linear=0
shrinkage=0.05


Tree=204
num_leaves=2
num_cat=0
split_feature=1
split_gain=1.21847
threshold=10673500000.000002
decision_type=2
left_child=-1
right_child=-2
leaf_value=0.0010561668012268478 -0.00041608159749194525
leaf_weight=71 92
leaf_count=71 92
internal_value=0.00053681
internal_weight=163
internal_count=163
is_linear=0
shrinkage=0.05


Tree=205
num_leaves=3
num_cat=0
split_feature=7 9
split_gain=0.80869 0.237302
threshold=1.4659019318032513 4919500000.000001
decision_type=2 2
left_child=-1 -2
right_child=1 -3
leaf_value=-0.0012636031200118068 0.00061256106808085732 0.00020477244327566526
leaf_weight=58 63 52
leaf_count=58 63 52
internal_value=7.22543e-05 0.0025
internal_weight=173 115
internal_count=173 115
is_linear=0
shrinkage=0.05


Tree=206
num_leaves=3
num_cat=0
split_feature=15 14
split_gain=0.90266 0.712974
threshold=-0.010736436379508383 0.021887680112557487
decision_type=2 2
left_child=-1 -2
right_child=1 -3
leaf_value=0.00050684485287376402 -0.001510528322271819 -1.4109082017843556e-05
leaf_weight=57 53 69
leaf_count=57 53 69
internal_value=-0.00146648 -0.00389344
internal_weight=179 122
internal_count=179 122
is_linear=0
shrinkage=0.05


Tree=207
num_leaves=3
num_cat=0
split_feature=4 12
split_gain=0.530164 0.544495
threshold=0.43521299677761621 0.2668205913492066
decision_type=2 2
left_child=1 -1
right_child=-2 -3
leaf_value=0.0011123453178699659 -0.00060716564123494134 -0.0010569790453670053
leaf_weight=52 71 50
leaf_count=52 71 50
internal_value=-0.00108382 0.00122549
internal_weight=173 102
internal_count=173 102
is_linear=0
shrinkage=0.05


Tree=208
num_leaves=3
num_cat=0
split_feature=7 4
split_gain=0.510196 0.802958
threshold=1.4659019318032513 0.42227260715215115
decision_type=2 2
left_child=-1 -2
right_child=1 -3
leaf_value=-0.0011552798716792613 0.0015274401646598035 -0.00057680735917319469
leaf_weight=50 62 55
leaf_count=50 62 55
internal_value=-0.00127246 0.000534188
internal_weight=167 117
internal_count=167 117
is_linear=0
shrinkage=0.05


Tree=209
num_leaves=2
num_cat=0
split_feature=13
split_gain=0.558768
threshold=0.16524475811447217
decision_type=2
left_child=-1
right_child=-2
leaf_value=0.00075100804636326799 -0.00039376039690956402
leaf_weight=83 98
leaf_count=83 98
internal_value=-0.000759669
internal_weight=181
internal_count=181
is_linear=0
shrinkage=0.05


Tree=210
num_leaves=2
num_cat=0
split_feature=2
split_gain=0.535613
threshold=5924000000.000001
decision_type=2
left_child=-1
right_child=-2
leaf_value=-8.9535933238018943e-05 0.0019012570220207721
leaf_weight=78 89
leaf_count=78 89
internal_value=0.00142216
internal_weight=167
internal_count=167
is_linear=0
shrinkage=0.05


Tree=211
num_leaves=3
num_cat=0
split_feature=2 2
split_gain=0.492137 0.509339
threshold=3784500000.0000005 11054500000.000002
decision_type=2 2
left_child=-1 -2
right_child=1 -3
leaf_value=-0.00052260240660795862 0.0012702921822180164 -0.00057811649897603762
leaf_weight=65 52 51
leaf_count=65 52 51
internal_value=-0.00178571 0.000364078
internal_weight=168 103
internal_count=168 103
is_linear=0
shrinkage=0.05


Tree=212
num_leaves=2
num_cat=0
split_feature=4
split_gain=0.814775
threshold=0.42227260715215115
decision_type=2
left_child=-1
right_child=-2
leaf_value=0.00028770962752182539 -0.00097959311471363503
leaf_weight=95 78
leaf_count=95 78
internal_value=-0.00166185
internal_weight=173
internal_count=173
is_linear=0
shrinkage=0.05


Tree=213
num_leaves=3
num_cat=0
split_feature=0 7
split_gain=0.838641 0.753033
threshold=13702500000.000002 1.5907232522608465
decision_type=2 2
left_child=-1 -2
right_child=1 -3
leaf_value=0.00030343172989452628 -0.0015137161015522907 0.00015078965607075376
leaf_weight=56 59 57
leaf_count=56 59 57
internal_value=-0.00145349 -0.00387931
internal_weight=172 116
internal_count=172 116
is_linear=0
shrinkage=0.05


Tree=214
num_leaves=3
num_cat=0
split_feature=13 4
split_gain=0.765102 0.361531
threshold=0.3199046762542555 0.42227260715215115
decision_type=2 2
left_child=1 -1
right_child=-2 -3
leaf_value=0.0012741290084323819 -0.0015435831430609223 -0.00020945955469720489
leaf_weight=55 58 58
leaf_count=55 58 58
internal_value=-7.30994e-05 0.00232301
internal_weight=171 113
internal_count=171 113
is_linear=0
shrinkage=0.05


Tree=215
num_leaves=2
num_cat=0
split_feature=0
split_gain=0.456437
threshold=21093000000.000004
decision_type=2
left_child=-1
right_child=-2
leaf_value=-0.0005167022764971267 0.00052626561818829997
leaf_weight=84 83
leaf_count=84 83
internal_value=-0.000973054
internal_weight=167
internal_count=167
is_linear=0
shrinkage=0.05


Tree=216
num_leaves=2
num_cat=0
split_feature=4
split_gain=0.611539
threshold=0.42887060648822484
decision_type=2
left_child=-1
right_child=-2
leaf_value=0.00049708025998349947 -0.00062410453855150103
leaf_weight=94 77
leaf_count=94 77
internal_value=0.000219298
internal_weight=171
internal_count=171
is_linear=0
shrinkage=0.05


Tree=217
num_leaves=3
num_cat=0
split_feature=14 15
split_gain=0.771854 0.540587
threshold=0.021887680112557487 -0.010736436379508383
decision_type=2 2
left_child=1 -1
right_child=-2 -3
leaf_value=-0.00014368728384327075 0.00076097124669112471 -0.0014824612370175523
leaf_weight=59 57 51
leaf_count=59 57 51
internal_value=-0.00187126 -0.00431818
internal_weight=167 110
internal_count=167 110
is_linear=0
shrinkage=0.05


Tree=218
num_leaves=2
num_cat=0
split_feature=11
split_gain=0.679646
threshold=0.29333930101427369
decision_type=2
left_child=-1
right_child=-2
leaf_value=-0.00069790641290797646 0.00012531839483206005
leaf_weight=74 91
leaf_count=74 91
internal_value=-0.000833333
internal_weight=165
internal_count=165
is_linear=0
shrinkage=0.05


Tree=219
num_leaves=2
num_cat=0
split_feature=7
split_gain=0.54985
threshold=1.5907232522608465
decision_type=2
left_child=-1
right_child=-2
leaf_value=-0.0008083909987832013 0.00018026789815113917
leaf_weight=63 94
leaf_count=63 94
internal_value=0.00103503
internal_weight=157
internal_count=157
is_linear=0
shrinkage=0.05


Tree=220
num_leaves=2
num_cat=0
split_feature=4
split_gain=0.547747
threshold=0.42227260715215115
decision_type=2
left_child=-1
right_child=-2
leaf_value=3.4739083879876956e-05 -0.0013339818297366732
leaf_weight=95 72
leaf_count=95 72
internal_value=-0.00157186
internal_weight=167
internal_count=167
is_linear=0
shrinkage=0.05


Tree=221
num_leaves=3
num_cat=0
split_feature=7 7
split_gain=1.03538 0.25
threshold=1.5907232522608465 2.2397363128470542
decision_type=2 2
left_child=-1 -2
right_child=1 -3
leaf_value=-0.00085383125428791038 0.0012604368287427231 0.00035830778252837932
leaf_weight=70 50 50
leaf_count=70 50 50
internal_value=0.000735294 0.004
internal_weight=170 100
internal_count=170 100
is_linear=0
shrinkage=0.05


Tree=222
num_leaves=3
num_cat=0
split_feature=0 7
split_gain=0.491903 0.566128
threshold=12250000000.000002 1.5907232522608465
decision_type=2 2
left_child=-1 -2
right_child=1 -3
leaf_value=0.00059593235086995828 -0.0011951225139416725 0.000179051166011927
leaf_weight=54 53 64
leaf_count=54 53 64
internal_value=0.000219298 -0.00160256
internal_weight=171 117
internal_count=171 117
is_linear=0
shrinkage=0.05


Tree=223
num_leaves=3
num_cat=0
split_feature=7 13
split_gain=0.707877 0.440775
threshold=2.0211026218328354 0.12220608045985394
decision_type=2 2
left_child=1 -1
right_child=-2 -3
leaf_value=0.0028693064864812527 -0.00022191645303424354 0.0001917631722519797
leaf_weight=51 70 57
leaf_count=51 70 57
internal_value=0.000702247 0.00324074
internal_weight=178 108
internal_count=178 108
is_linear=0
shrinkage=0.05


Tree=224
num_leaves=3
num_cat=0
split_feature=0 6
split_gain=0.523605 0.50368
threshold=38609500000.000008 0.17660645379035736
decision_type=2 2
left_child=1 -1
right_child=-2 -3
leaf_value=-1.2884494916712287e-05 -0.00062049100705886167 0.0017389755402274583
leaf_weight=56 50 65
leaf_count=56 50 65
internal_value=0.000804094 0.00258264
internal_weight=171 121
internal_count=171 121
is_linear=0
shrinkage=0.05


Tree=225
num_leaves=2
num_cat=0
split_feature=6
split_gain=0.443195
threshold=0.20825316339708261
decision_type=2
left_child=-1
right_child=-2
leaf_value=0.00039713768384453952 -0.00043431438082868704
leaf_weight=69 88
leaf_count=69 88
internal_value=7.96178e-05
internal_weight=157
internal_count=157
is_linear=0
shrinkage=0.05


Tree=226
num_leaves=2
num_cat=0
split_feature=8
split_gain=0.572246
threshold=0.16774914937747068
decision_type=2
left_child=-1
right_child=-2
leaf_value=-0.00048777247250162683 0.0002151109068871969
leaf_weight=62 99
leaf_count=62 99
internal_value=-0.00147516
internal_weight=161
internal_count=161
is_linear=0
shrinkage=0.05


Tree=227
num_leaves=2
num_cat=0
split_feature=15
split_gain=0.647325
threshold=0.0070534446968245701
decision_type=2
left_child=-1
right_child=-2
leaf_value=-0.0011479908699608063 0.00062686504744978336
leaf_weight=76 92
leaf_count=76 92
internal_value=-0.00119048
internal_weight=168
internal_count=168
is_linear=0
shrinkage=0.05


Tree=228
num_leaves=3
num_cat=0
split_feature=14 10
split_gain=0.595831 0.395837
threshold=1.0000000180025095e-35 0.22702327203578548
decision_type=2 2
left_child=-1 -2
right_child=1 -3
leaf_value=-0.0004643429298540827 0.0029107355237617599 0.00015871197436854637
leaf_weight=71 52 50
leaf_count=71 52 50
internal_value=0.00122832 0.00367647
internal_weight=173 102
internal_count=173 102
is_linear=0
shrinkage=0.05


Tree=229
num_leaves=2
num_cat=0
split_feature=15
split_gain=0.496908
threshold=0.0070534446968245701
decision_type=2
left_child=-1
right_child=-2
leaf_value=-0.00043281709571402243 0.00048429097135467856
leaf_weight=76 92
leaf_count=76 92
internal_value=-0.000297619
internal_weight=168
internal_count=168
is_linear=0
shrinkage=0.05


Tree=230
num_leaves=3
num_cat=0
split_feature=6 13
split_gain=0.483229 0.30223
threshold=0.25526970740404037 0.076007789131755446
decision_type=2 2
left_child=1 -1
right_child=-2 -3
leaf_value=0.00051860854542553909 0.0018421887836013529 -0.00073685372813217423
leaf_weight=51 51 66
leaf_count=51 51 66
internal_value=0.000595238 -0.00117521
internal_weight=168 117
internal_count=168 117
is_linear=0
shrinkage=0.05


Tree=231
num_leaves=2
num_cat=0
split_feature=4
split_gain=0.692682
threshold=0.42227260715215115
decision_type=2
left_child=-1
right_child=-2
leaf_value=0.00068612797334935383 -0.00071833532111143243
leaf_weight=91 77
leaf_count=91 77
internal_value=-0.000892857
internal_weight=168
internal_count=168
is_linear=0
shrinkage=0.05


Tree=232
num_leaves=2
num_cat=0
split_feature=1
split_gain=0.491274
threshold=10673500000.000002
decision_type=2
left_child=-1
right_child=-2
leaf_value=0.00023393489841593078 -0.00043495346420933533
leaf_weight=82 89
leaf_count=82 89
internal_value=-0.000657895
internal_weight=171
internal_count=171
is_linear=0
shrinkage=0.05


Tree=233
num_leaves=2
num_cat=0
split_feature=15
split_gain=0.580948
threshold=0.0070534446968245701
decision_type=2
left_child=-1
right_child=-2
leaf_value=-0.00052896984300150021 0.0025062454492613077
leaf_weight=79 86
leaf_count=79 86
internal_value=-0.000227273
internal_weight=165
internal_count=165
is_linear=0
shrinkage=0.05


Tree=234
num_leaves=3
num_cat=0
split_feature=7 4
split_gain=0.696729 0.977059
threshold=1.4659019318032513 0.42227260715215115
decision_type=2 2
left_child=-1 -2
right_child=1 -3
leaf_value=-0.0013528041343885131 0.0024306806896171569 -0.00053851806346193469
leaf_weight=50 56 65
leaf_count=50 56 65
internal_value=-0.00153509 0.000516529
internal_weight=171 121
internal_count=171 121
is_linear=0
shrinkage=0.05


Tree=235
num_leaves=3
num_cat=0
split_feature=0 2
split_gain=0.316392 0.594929
threshold=38609500000.000008 4569500000.000001
decision_type=2 2
left_child=1 -1
right_child=-2 -3
leaf_value=-0.00016747087812439242 -0.00066700971485473236 0.00091621468239754314
leaf_weight=70 55 52
leaf_count=70 55 52
internal_value=-0.00162429 -0.000204918
internal_weight=177 122
internal_count=177 122
is_linear=0
shrinkage=0.05


Tree=236
num_leaves=2
num_cat=0
split_feature=4
split_gain=0.570988
threshold=0.42887060648822484
decision_type=2
left_child=-1
right_child=-2
leaf_value=0.00039037817915414441 -0.00054544141584319942
leaf_weight=92 68
leaf_count=92 68
internal_value=-0.0009375
internal_weight=160
internal_count=160
is_linear=0
shrinkage=0.05


Tree=237
num_leaves=3
num_cat=0
split_feature=12 15
split_gain=0.759357 0.245642
threshold=0.2668205913492066 -0.0045025051277975047
decision_type=2 2
left_child=1 -1
right_child=-2 -3
leaf_value=0.00053821392201065246 -0.0016703039604648311 -6.5716948565920643e-06
leaf_weight=53 52 65
leaf_count=53 52 65
internal_value=-0.000735294 0.00148305
internal_weight=170 118
internal_count=170 118
is_linear=0
shrinkage=0.05


Tree=238
num_leaves=2
num_cat=0
split_feature=4
split_gain=0.348813
threshold=0.42227260715215115
decision_type=2
left_child=-1
right_child=-2
leaf_value=2.2766883757639398e-05 -0.0005343704004188418
leaf_weight=95 75
leaf_count=95 75
internal_value=-0.00161765
internal_weight=170
internal_count=170
is_linear=0
shrinkage=0.05


Tree=239
num_leaves=2
num_cat=0
split_feature=4
split_gain=0.88267
threshold=0.42887060648822484
decision_type=2
left_child=-1
right_child=-2
leaf_value=0.00060348816974639609 -0.00096033666275149485
leaf_weight=99 71
leaf_count=99 71
internal_value=-0.000147059
internal_weight=170
internal_count=170
is_linear=0
shrinkage=0.05


Tree=240
num_leaves=3
num_cat=0
split_feature=15 1
split_gain=0.607044 0.354354
threshold=-0.010736436379508383 11564000000.000002
decision_type=2 2
left_child=-1 -2
right_child=1 -3
leaf_value=0.00033204636474913618 -0.00012352779112694486 -0.00072968581227994479
leaf_weight=53 50 53
leaf_count=53 50 53
internal_value=-0.00128205 -0.00351942
internal_weight=156 103
internal_count=156 103
is_linear=0
shrinkage=0.05


Tree=241
num_leaves=3
num_cat=0
split_feature=15 15
split_gain=0.37126 0.723316
threshold=0.024546112592305953 -0.010736436379508383
decision_type=2 2
left_child=1 -1
right_child=-2 -3
leaf_value=0.00031817078909050051 0.0033707704130545996 -0.0010180148215355046
leaf_weight=60 56 59
leaf_count=60 56 59
internal_value=0.000214286 -0.00136555
internal_weight=175 119
internal_count=175 119
is_linear=0
shrinkage=0.05


Tree=242
num_leaves=3
num_cat=0
split_feature=15 15
split_gain=0.41051 0.787771
threshold=-0.010736436379508383 0.024546112592305953
decision_type=2 2
left_child=-1 -2
right_child=1 -3
leaf_value=0.00058746454757917276 -0.00098920109246264896 0.0042512298806731304
leaf_weight=56 54 55
leaf_count=56 54 55
internal_value=0.000984848 -0.000802752
internal_weight=165 109
internal_count=165 109
is_linear=0
shrinkage=0.05


Tree=243
num_leaves=3
num_cat=0
split_feature=15 15
split_gain=0.378668 0.245126
threshold=-0.010736436379508383 0.024546112592305953
decision_type=2 2
left_child=-1 -2
right_child=1 -3
leaf_value=0.00027379793644995777 -0.00091765402583559664 0.0001680455376275876
leaf_weight=61 59 53
leaf_count=61 59 53
internal_value=-0.00050578 -0.00223214
internal_weight=173 112
internal_count=173 112
is_linear=0
shrinkage=0.05


Tree=244
num_leaves=2
num_cat=0
split_feature=15
split_gain=0.588089
threshold=0.0070534446968245701
decision_type=2
left_child=-1
right_child=-2
leaf_value=-0.00037883008017038333 0.0026018429229914832
leaf_weight=82 90
leaf_count=82 90
internal_value=-0.000290698
internal_weight=172
internal_count=172
is_linear=0
shrinkage=0.05


Tree=245
num_leaves=3
num_cat=0
split_feature=11 13
split_gain=0.848494 0.685591
threshold=0.46395963320972256 0.18597628508694955
decision_type=2 2
left_child=1 -1
right_child=-2 -3
leaf_value=4.6809353046562388e-05 0.00066878054271885022 -0.0012073589969574619
leaf_weight=50 52 63
leaf_count=50 52 63
internal_value=-0.00143939 -0.00387168
internal_weight=165 113
internal_count=165 113
is_linear=0
shrinkage=0.05


Tree=246
num_leaves=3
num_cat=0
split_feature=8 14
split_gain=0.509731 0.214626
threshold=0.16774914937747068 0.0048489237100277924
decision_type=2 2
left_child=-1 -2
right_child=1 -3
leaf_value=-0.00038174094315459651 -3.3140853331518204e-05 0.0024323028493420172
leaf_weight=66 51 60
leaf_count=66 51 60
internal_value=7.06215e-05 0.00213964
internal_weight=177 111
internal_count=177 111
is_linear=0
shrinkage=0.05


Tree=247
num_leaves=3
num_cat=0
split_feature=11 13
split_gain=0.477546 0.859385
threshold=0.47843823037693645 0.11594328363502217
decision_type=2 2
left_child=1 -1
right_child=-2 -3
leaf_value=0.0013683956843622573 0.00070885393165450057 -0.0013607807738047432
leaf_weight=54 50 64
leaf_count=54 50 64
internal_value=-0.000595238 -0.00233051
internal_weight=168 118
internal_count=168 118
is_linear=0
shrinkage=0.05


Tree=248
num_leaves=2
num_cat=0
split_feature=5
split_gain=0.650391
threshold=0.28409972318900639
decision_type=2
left_child=-1
right_child=-2
leaf_value=0.0004933767370845978 -0.00049093038524254673
leaf_weight=91 77
leaf_count=91 77
internal_value=0.000297619
internal_weight=168
internal_count=168
is_linear=0
shrinkage=0.05


Tree=249
num_leaves=3
num_cat=0
split_feature=4 7
split_gain=0.360974 0.492807
threshold=0.66422478436553445 1.5104899711619557
decision_type=2 2
left_child=1 -1
right_child=-2 -3
leaf_value=-0.00065430507122292219 -0.00064468309878477339 0.00054684056694943286
leaf_weight=50 52 64
leaf_count=50 52 64
internal_value=-0.00135542 0.000219298
internal_weight=166 114
internal_count=166 114
is_linear=0
shrinkage=0.05


Tree=250
num_leaves=3
num_cat=0
split_feature=8 12
split_gain=0.56875 0.117832
threshold=0.16774914937747068 0.14473400703685915
decision_type=2 2
left_child=-1 -2
right_child=1 -3
leaf_value=-0.00048339495154714322 0.00042147256272613429 -4.2896208541187009e-05
leaf_weight=56 51 53
leaf_count=56 51 53
internal_value=-0.0021875 0
internal_weight=160 104
internal_count=160 104
is_linear=0
shrinkage=0.05


Tree=251
num_leaves=3
num_cat=0
split_feature=8 14
split_gain=0.434901 0.322165
threshold=0.16774914937747068 0.0090231182084925827
decision_type=2 2
left_child=-1 -2
right_child=1 -3
leaf_value=-0.00040676081877603356 -0.00044662031752858297 0.0034816023608065677
leaf_weight=61 55 50
leaf_count=61 55 50
internal_value=-0.00135542 0.000595238
internal_weight=166 105
internal_count=166 105
is_linear=0
